-1.32922 -0.730668 -0.525554 -0.180787 -1.3757 -1.69894 -0.191963 -0.289944 -0.698945 0.00566201 -2.64478 -0.629113 -0.685797 -0.447214 -0.676181 -1.25381 0.374632 1.03216 -1.03122 -0.493472 -0.652947 0.125748 -0.902493 0.599737 -0.798673 -0.800876 0.0146075 0.823487 -0.227221 0.29873 -0.242824 1.10224 0.171545 1.68232 -0.875916 -1.05863 -0.779802 0.324947 -0.556764 -0.471112 -0.737339 -1.21738 1.06407 0.41125 -1.48315 -0.0680869 -0.900837 -0.133503 -1.44753 -0.546054 -1.62564 -1.1203 -0.638077 0.563022 -0.434801 1.01618 1.26402 -0.466424 0.883406 -0.833368 1.3619 0.391406 0.479703 -0.785538 -0.421579 -1.07679 -0.544849 -0.43611 -0.282254 -1.83534 -0.962526 -0.337814 0.826304 -0.470599 1.49703 -0.233068 -0.0837202 -0.170523 0.0932102 0.364073 -0.378923 0.295127 -0.584527 -0.789957 0.315199 -0.840175 -0.782445 -0.0912178 -0.563791 -1.50102 -3.90652 -1.3304 -0.0158941 0.817564 -0.888368 0.836432 2.29695 1.16188 -1.84394 0.153919 -2.29934 0.0874707 -4.31923 -1.56652 -0.147599 -1.3305 -0.119893 -1.54165 0.232076 0.417579 0.150907 0.204507 -1.484 -0.395111 0.0825393 -1.36995 -2.31353 -0.671827 -0.88462 -1.62039 -0.542123 1.32642 0.172026 -0.294283 0.0334629 0.823949 -0.435857 -0.854939 -1.08908 -0.0839241 -3.51111 -1.11146 0.404432 -1.09339 0.276113 0.374582 0.720948 -0.611652 0.0225151 -0.758231 -0.0814967 -1.26913 -0.903404 0.493788 -0.854114 -0.995492 1.17617 -0.841178 -1.50059 1.39681 0.653965 0.857424 0.286729 -0.386589 0.294237 0.436266 -0.491134 -0.734933 -1.38315 -1.14979 -0.116927 -0.579441 -0.583303 0.6451 -0.285429 -0.1789 0.967801 -0.863315 -0.785251 -0.991006 -0.467461 -1.42983 -1.49755 0.235866 -0.257492 -0.11741 -0.343766 -1.53776 -0.574734 -1.37295 -2.31524 -1.12292 0.215497 -0.726091 -0.105213 0.349379 0.184657 -0.360543 0.83969 2.259 -0.0828948 -1.83004 0.57528 -0.0616469 -0.250386 0.516102 -1.46536 -0.868273 -1.15439 -0.499191 5.07522e-012 3.583e-013 2.25048e-011 4.20364e-012 2.40072e-012 1.39336e-011 -2.02526e-011 1.34092e-011 7.87472e-012 8.3396e-012 2.08895e-011 5.74411e-012 1.19946e-011 -7.93699e-012 -2.12894e-012 -1.11353e-011 1.68145e-011 2.30703e-011 9.16733e-012 -3.38554e-012 -1.90157e-011 9.79271e-012 -1.13084e-011 -1.10258e-011 1.87332e-011 -1.12229e-012 -3.7294e-012 -2.22415e-011 4.86967e-012 2.12274e-011 -3.5336e-012 -1.08951e-011 1.06068e-011 -5.19246e-012 -8.35687e-012 -1.42363e-012 -1.23886e-011 -2.28907e-011 1.86632e-011 -8.26442e-012 1.00511e-011 -1.61501e-011 1.77529e-011 -3.05149e-012 9.19251e-012 6.86126e-012 8.75383e-012 -1.65255e-011 2.05317e-011 6.81e-012 1.43185e-011 2.16135e-011 1.75474e-011 -2.7893e-012 7.97991e-012 1.47316e-011 -2.28268e-011 1.831e-011 3.90311e-012 -1.95079e-011 -1.40558e-011 2.21561e-011 1.60403e-011 2.061e-011 -1.40382e-011 1.59096e-012 -2.21897e-011 7.31505e-012 -8.69677e-012 2.29874e-011 4.66307e-012 2.18346e-012 -1.13719e-011 2.23833e-011 -1.47269e-011 1.16499e-011 -2.3076e-011 1.84903e-011 2.29441e-012 -1.9589e-011 1.08023e-011 -5.86689e-013 1.04124e-011 1.78354e-011 1.12784e-011 1.88257e-011 -2.2205e-011 1.68524e-011 4.43562e-012 -1.73602e-011 1.73876e-011 2.30683e-011 -6.31156e-012 2.07182e-011 -1.69516e-012 -1.82095e-011 1.7068e-011 1.39764e-011 6.96956e-012 1.22558e-011 -1.61412e-011 1.04418e-011 -1.1532e-011 -8.00881e-012 1.01669e-011 -2.31673e-011 -1.76272e-011 5.70308e-012 -1.55575e-011 2.48587e-012 2.12489e-011 -1.43307e-011 9.09422e-012 4.8869e-012 1.33571e-011 -1.70759e-011 3.5095e-012 -1.46855e-011 1.61312e-011 1.16891e-011 -1.26e-011 2.12375e-011 2.12941e-011 1.68516e-011 1.03477e-011 -9.40605e-012 2.06318e-011 1.67652e-011 6.02148e-012 1.25733e-011 4.61265e-012 7.17009e-012 -1.63683e-011 -1.7356e-011 1.24104e-011 4.15134e-012 2.99945e-012 -2.21627e-011 2.35229e-011 -8.1104e-012 -1.68153e-011 -8.43676e-012 2.13606e-011 -2.35697e-011 1.78801e-012 1.31687e-012 5.0967e-012 -2.13754e-011 -9.92139e-012 -1.86293e-011 -2.1365e-011 1.23666e-011 -1.29336e-011 1.17872e-011 1.25534e-011 -6.74116e-012 -1.83543e-011 8.64554e-012 5.89557e-012 -2.1221e-011 -1.3498e-011 -1.24981e-011 -3.90243e-013 2.34389e-011 -1.24936e-011 -1.97112e-011 -1.24078e-012 2.30228e-011 2.25302e-011 1.02686e-012 1.29478e-011 -6.11734e-012 1.59038e-011 -1.09595e-012 7.34784e-012 1.17596e-011 -1.10263e-012 1.75898e-011 -2.28559e-011 7.13955e-012 1.65046e-011 -2.07693e-011 -2.07614e-011 1.07662e-011 -1.47437e-011 -1.64102e-011 8.38297e-012 8.15963e-012 -5.4643e-012 -1.09462e-011 4.9588e-014 -1.14861e-011 -3.06016e-012 -1.90564e-012 -1.88485e-011 1.54531e-011 -2.08604e-011 -1.30353e-011 3.51715e-012 1.28095e-011 -1.28829e-011 -1.5618e-011 -9.47924e-012 1.77649e-011 -1.80838e-011 1.82989e-011 -1.1433e-011 1.96315e-012 7.51365e-012 -9.46734e-012 -7.58487e-012 1.08777e-012 1.87054e-011 9.25014e-012 -1.11666e-011 -2.54992e-012 -8.80467e-012 1.63581e-011 -8.15721e-012 6.33934e-012 2.06948e-011 7.73526e-012 2.27614e-011 5.05174e-013 1.73174e-011 -2.05193e-011 -1.25785e-011 1.83236e-011 1.60883e-011 -1.37354e-011 2.15667e-012 1.2857e-011 1.7541e-011 -3.43033e-012 1.13132e-011 6.31372e-012 -1.3335e-011 -1.9176e-011 1.33302e-012 5.78717e-012 -5.91526e-012 9.01399e-012 7.02859e-012 2.00391e-011 3.10711e-012 7.73648e-012 1.12025e-011 -5.89948e-012 -1.18039e-012 2.36536e-011 1.86503e-011 1.93902e-011 -9.15909e-012 -2.00521e-011 1.97966e-011 -1.16909e-011 1.00428e-011 2.05105e-011 -8.67509e-012 3.37562e-012 -1.06998e-012 7.22639e-012 -2.05468e-012 4.29681e-012 -9.61276e-012 7.30597e-012 -2.14879e-011 -5.50313e-012 -2.30859e-011 1.69513e-012 9.71704e-012 -2.10977e-011 -1.00956e-011 1.17969e-011 8.88076e-012 -7.30069e-012 -1.23995e-011 -1.03295e-011 2.12502e-011 -1.19655e-011 -1.61466e-012 -1.12123e-011 -1.4085e-011 -4.43711e-012 2.04454e-011 -2.23718e-011 -1.25486e-011 7.69497e-012 1.83375e-012 -8.71034e-012 6.23506e-012 -6.49977e-012 1.31889e-011 -2.28011e-011 -2.15008e-011 -4.7733e-013 -2.00795e-011 -1.89328e-011 -9.9235e-013 1.77456e-011 1.96261e-011 1.67518e-011 1.97635e-011 2.23711e-011 -7.91733e-012 -8.84519e-012 9.18981e-012 2.49712e-013 -2.32782e-011 5.42839e-012 -1.8672e-013 -1.32572e-011 5.79726e-012 -1.93219e-011 8.53912e-012 1.17231e-011 3.20689e-012 1.25223e-011 1.49993e-011 -7.49391e-012 -1.71881e-011 -1.08001e-011 -1.05428e-011 1.28177e-011 -1.99496e-011 -1.37801e-012 -1.05223e-011 -7.17415e-012 -6.65127e-012 4.96477e-012 1.83064e-011 -9.09541e-012 1.82197e-011 -2.54271e-012 -1.20418e-011 -1.78951e-011 -2.29066e-011 -1.26667e-011 -3.32306e-012 1.01818e-011 1.75537e-011 -2.29288e-011 -2.01051e-011 -1.69037e-011 4.45184e-012 -1.24329e-011 -4.15178e-012 -1.52355e-011 1.85247e-011 1.55105e-011 -2.28996e-011 1.11451e-011 -2.15904e-011 -2.28399e-011 1.13347e-011 -1.42547e-012 1.92472e-011 9.87004e-012 3.89284e-012 -3.64067e-012 5.07367e-012 -1.28797e-011 -1.63517e-011 2.28095e-011 9.93052e-012 2.23983e-011 -1.75865e-011 -1.13589e-011 1.62472e-011 -1.53089e-011 -1.25759e-012 -1.53877e-011 1.77534e-011 2.34499e-011 -4.76321e-012 1.62487e-011 -1.7039e-011 2.05116e-011 -4.22019e-012 2.7271e-012 6.12244e-012 -1.50403e-011 -1.87819e-011 2.34379e-011 9.698e-012 -2.29445e-011 -2.22446e-011 -1.69343e-011 -1.02044e-011 -1.78992e-011 2.37097e-011 2.76872e-012 1.83183e-011 -7.64712e-012 2.08062e-011 1.01794e-011 1.63874e-011 -1.3757e-011 -9.24797e-012 5.04609e-012 -1.02433e-012 1.75205e-011 -8.07283e-012 2.28633e-011 -2.01367e-011 -1.58354e-011 -7.00255e-012 -1.76675e-011 -1.06716e-011 1.62915e-011 -1.54232e-011 1.30783e-012 1.87086e-011 -6.46307e-013 -7.01562e-012 -1.69596e-012 -1.88899e-011 -8.08419e-013 -1.24446e-012 -1.14188e-011 -5.87081e-012 5.8387e-012 -1.40251e-011 1.59621e-011 -8.94141e-013 8.00568e-012 6.78768e-012 1.40108e-011 -1.19488e-011 -9.04144e-012 -4.18693e-012 1.13134e-011 3.27404e-012 -2.39584e-012 1.19425e-011 1.82167e-011 -2.12817e-011 1.99632e-011 -7.988e-012 2.071e-012 -1.55845e-011 -1.04432e-012 3.52017e-012 -1.44347e-011 9.34967e-012 -2.02132e-011 7.68286e-012 6.43554e-012 3.13877e-012 -7.84109e-012 -1.33236e-011 -7.99722e-012 -1.66228e-011 2.16496e-011 -1.47273e-011 -1.29582e-011 2.18936e-011 -6.29214e-013 -1.82081e-012 1.96703e-011 9.15406e-012 -5.18654e-012 -1.52605e-011 -7.47032e-012 -1.76413e-011 1.48213e-011 1.42394e-011 -1.23152e-011 -1.5053e-011 -1.21645e-011 9.56162e-012 3.05535e-012 -1.75781e-011 2.20197e-011 -6.13025e-012 1.1423e-011 3.52884e-012 -1.20516e-013 2.24893e-011 1.66491e-011 1.8249e-012 -1.02089e-011 -2.19602e-011 2.00363e-011 -2.20148e-011 -4.5719e-012 -1.27322e-011 -1.3798e-011 1.32979e-011 -7.03933e-012 7.49643e-012 5.6732e-012 2.10575e-011 -1.33421e-011 -1.9814e-011 2.37289e-011 2.33244e-011 1.03724e-011 3.35393e-012 -6.16504e-012 -3.50655e-012 -3.51509e-012 -8.80358e-013 -3.10123e-012 1.21688e-011 9.34025e-012 -1.18701e-011 -6.66345e-012 1.48136e-011 -1.73765e-011 2.30999e-011 -1.27177e-013 1.62247e-011 2.4841e-012 -1.43298e-011 1.25582e-011 -1.78223e-012 9.06822e-012 -3.91422e-012 9.36274e-012 1.3454e-013 -1.95743e-011 1.89926e-011 -1.07497e-012 1.52737e-011 1.84821e-011 5.34937e-012 -1.8333e-011 -1.60948e-012 -1.11484e-012 2.21686e-011 1.1539e-011 -1.31686e-011 1.74791e-011 1.06962e-011 -1.82895e-012 -1.84024e-011 1.85737e-011 1.40437e-011 -1.9919e-011 7.76084e-012 -8.43826e-012 1.95234e-011 8.95243e-012 -9.15463e-012 -1.76278e-011 -2.3543e-011 -1.78262e-011 3.80422e-012 1.31583e-011 -1.19302e-011 1.93977e-011 -3.18682e-012 -1.07435e-011 1.6902e-011 -4.74606e-012 2.17404e-011 7.32214e-012 1.60037e-011 -3.16515e-012 2.73764e-012 -2.25986e-011 3.3706e-012 2.00706e-011 -1.76595e-011 2.29359e-011 -3.16414e-012 2.06764e-011 2.29561e-011 -2.14305e-011 -1.75407e-011 1.647e-011 1.61017e-011 -6.23885e-012 -1.91363e-011 -7.08967e-012 6.92635e-012 2.194e-011 -2.28485e-011 -1.26502e-011 -1.46778e-011 3.1095e-012 -2.77685e-012 -1.83591e-011 1.05597e-012 2.1873e-011 -1.6436e-011 -7.19477e-012 -7.91359e-012 1.33482e-011 1.73814e-011 -2.06438e-011 -1.01359e-011 -1.78158e-011 -1.50946e-011 7.32137e-012 1.24722e-011 -1.31272e-011 7.40854e-012 1.3776e-011 3.35837e-012 -1.67383e-011 -2.37622e-012 -8.43008e-012 6.1367e-012 -2.08656e-011 -9.50711e-012 2.04901e-011 -1.58295e-011 4.74972e-012 -2.29312e-011 -5.09151e-012 -3.26972e-012 2.00201e-011 -1.28886e-011 5.53724e-012 -1.30742e-011 -3.58826e-013 -2.14313e-012 5.51434e-012 1.65505e-011 -9.72159e-013 2.16468e-011 -1.79235e-011 -2.22757e-011 -1.80278e-011 -1.33736e-011 4.5317e-013 -1.22621e-011 8.31119e-012 -6.40271e-012 1.43572e-011 2.35321e-011 -1.26494e-011 1.45635e-011 -5.41173e-012 -1.09538e-011 -4.86229e-012 9.75405e-012 1.02711e-011 -3.83099e-012 1.94355e-011 -6.70428e-012 2.05177e-011 1.45531e-011 -1.31389e-011 1.4817e-011 -2.22276e-011 1.02215e-011 7.93648e-012 -2.35796e-011 1.68716e-011 -1.45527e-011 -4.52385e-012 1.51022e-011 -5.36759e-012 2.49971e-012 1.22827e-011 3.96023e-012 1.29667e-011 1.53657e-011 -2.03408e-011 1.70265e-011 -2.0708e-011 1.14172e-011 7.19928e-012 1.38523e-011 -2.53364e-012 4.90873e-012 1.02766e-011 -2.13299e-011 3.47046e-012 1.25297e-011 -7.37915e-012 -7.60597e-012 -1.89623e-011 -8.56152e-012 8.86719e-012 -9.09086e-012 -1.76052e-012 9.21501e-012 -1.32918e-011 1.09802e-011 1.2589e-013 -2.17053e-011 1.04463e-011 1.83545e-011 2.28752e-011 1.03236e-011 1.2605e-011 8.25064e-012 3.5646e-012 2.019e-011 -1.81438e-011 -1.34735e-011 1.88772e-011 2.11375e-012 -1.84751e-011 -3.55085e-013 -1.05383e-012 -1.98541e-011 9.58017e-012 1.40618e-011 -6.26189e-013 4.49998e-012 2.14979e-011 -2.16621e-011 -1.39095e-011 5.87464e-012 -1.77883e-012 1.84799e-011 -2.08402e-011 1.5136e-011 -1.7995e-011 -2.25209e-012 -2.15323e-011 4.42923e-012 -1.16116e-011 -2.11095e-011 2.0934e-011 2.25867e-012 8.17554e-012 1.97182e-011 1.34232e-011 1.4927e-011 2.30098e-011 1.37628e-011 5.28069e-012 5.07518e-012 -9.91613e-012 1.16428e-011 1.65004e-011 2.30885e-011 -1.46777e-011 -7.7232e-012 2.08406e-011 6.35948e-012 -6.74778e-012 1.34068e-011 -5.88759e-012 -4.11863e-012 -1.32213e-011 -8.64082e-012 2.43953e-012 -8.65769e-012 6.20548e-012 3.492e-012 7.24826e-012 -1.3108e-011 -1.71668e-011 1.22216e-011 5.33348e-012 -2.23579e-011 -1.13155e-011 2.25246e-011 1.53539e-011 8.50554e-012 -3.53802e-012 -6.70604e-012 -1.30946e-011 8.9965e-012 6.96667e-012 -6.2649e-012 5.99105e-012 -6.49889e-013 6.97081e-012 -2.17364e-011 -1.00975e-011 1.09432e-011 1.53212e-011 -1.26178e-011 -1.06392e-011 2.19817e-011 1.16345e-011 -8.19794e-012 -9.47769e-013 -2.3558e-011 -7.81382e-012 3.26939e-012 2.02715e-011 1.43187e-012 -2.06744e-011 -1.91562e-011 -1.68279e-011 1.70282e-011 -2.49197e-012 -1.35395e-011 6.93086e-012 2.18492e-011 -7.82837e-012 8.01602e-012 2.36509e-011 9.00333e-013 1.06754e-011 1.14803e-011 -1.89823e-011 2.29534e-011 -1.9159e-011 2.09199e-011 1.5912e-011 -1.56857e-011 2.0081e-011 1.37725e-011 -6.94766e-012 1.42537e-011 2.05403e-011 2.30007e-011 -9.6022e-012 9.963e-012 -1.5425e-011 -1.90398e-011 -1.38491e-011 -9.00573e-012 3.46373e-012 1.46797e-011 -1.5696e-011 1.52089e-011 2.2001e-011 4.63958e-012 1.79785e-011 1.93211e-011 -9.02174e-012 4.7713e-012 9.81889e-012 1.6326e-011 9.09022e-013 9.4967e-012 2.15771e-012 2.11597e-011 2.08302e-011 -4.10695e-012 -2.18233e-011 -2.1848e-011 -1.60792e-011 -9.31518e-012 5.21802e-012 -1.0856e-011 1.35253e-011 -2.8891e-012 -1.73227e-012 -2.18617e-011 -1.41444e-011 4.47054e-012 -1.68792e-011 2.16862e-011 -1.95216e-011 1.99144e-011 -1.07262e-011 -2.33473e-011 -3.26913e-012 1.95045e-012 1.92184e-011 1.70641e-011 -4.22241e-012 1.94685e-011 -2.27478e-011 -2.29764e-011 -9.73378e-012 6.79712e-012 5.56572e-012 1.24947e-011 2.17498e-011 2.72889e-012 2.3268e-011 -2.15146e-011 1.54248e-011 2.5333e-013 6.41628e-012 2.36854e-011 2.23728e-011 1.3686e-011 2.25518e-012 3.88307e-012 6.70345e-012 -2.59804e-012 1.35906e-011 7.13665e-013 -1.51986e-011 1.32087e-011 2.24049e-011 2.05635e-011 -1.37087e-011 -1.33374e-011 6.71605e-012 -1.32215e-011 1.38469e-011 1.66598e-011 1.34095e-011 -1.34345e-011 -6.82109e-012 -1.36756e-011 5.66216e-012 -2.32149e-011 -6.94682e-012 -1.09676e-011 1.70509e-011 -4.47393e-012 3.71631e-012 1.87516e-011 2.25345e-011 5.0836e-012 1.68772e-011 2.07346e-011 -1.66493e-011 -1.09183e-012 -3.02414e-012 -2.10423e-011 -2.51164e-012 1.72146e-011 1.15475e-011 2.31123e-011 2.02887e-011 5.88596e-012 -6.52809e-012 -3.82066e-012 -8.41621e-012 3.28954e-012 2.37892e-011 -1.84529e-011 1.08092e-011 -5.9167e-012 -3.25356e-013 -1.7477e-011 -8.63542e-012 -1.09736e-011 1.26002e-011 -1.65446e-011 1.66973e-011 1.58697e-012 -6.2248e-012 1.38401e-011 7.83126e-013 -7.35697e-013 -2.17584e-011 -1.11251e-011 -1.11173e-013 -4.63546e-012 -1.8159e-011 1.52334e-011 -1.0747e-011 -2.11884e-011 8.60267e-012 1.40123e-011 1.09559e-011 -1.71133e-011 -1.95482e-012 2.29362e-011 -1.07822e-011 -1.15937e-011 -1.99901e-011 -6.36732e-012 -6.36736e-012 1.94175e-011 -2.24314e-011 -1.66844e-011 -1.49396e-011 -1.37354e-011 2.33568e-011 -1.93216e-011 9.81985e-012 -2.89418e-014 -2.23896e-011 2.61068e-012 1.18177e-011 -1.40149e-011 2.86194e-012 -2.26193e-011 1.27255e-011 5.96525e-012 8.31037e-012 -1.30154e-011 2.23753e-011 -1.13507e-011 -1.75532e-011 2.24023e-011 -2.37526e-012 -2.52066e-013 5.07239e-012 1.7335e-011 1.04177e-011 -6.46305e-012 1.49742e-011 -5.5115e-013 1.3985e-011 2.33205e-011 3.2735e-012 -8.18211e-013 -2.0939e-011 2.27845e-011 -1.00848e-011 -1.65871e-011 3.23226e-012 2.08067e-013 2.32749e-011 1.06932e-011 6.42875e-012 -5.5518e-012 -8.18826e-012 -1.94522e-011 1.5105e-011 4.71117e-012 1.19782e-011 -1.76807e-011 -1.9493e-011 1.37626e-011 -9.6537e-012 1.21431e-011 7.34563e-013 -7.19599e-012 -1.37024e-012 -7.69455e-012 -2.13558e-011 4.44661e-012 7.11298e-012 1.55674e-011 -1.8832e-011 2.16981e-011 -1.62247e-011 -2.12894e-011 1.4929e-011 1.98443e-012 1.25089e-011 -1.87568e-011 -1.37051e-011 -9.82544e-012 -2.12309e-011 -9.34033e-012 1.37556e-011 -1.58001e-011 -9.26749e-012 9.37754e-012 -9.39124e-012 1.57319e-011 4.92617e-012 -2.16519e-011 2.02235e-011 1.55171e-011 1.18317e-011 1.16579e-011 -1.8548e-011 -2.22446e-012 1.66503e-013 -2.08046e-011 -6.9753e-012 -1.82452e-011 -7.89615e-012 -2.09917e-011 -1.92088e-012 1.2588e-012 -2.24825e-011 -1.54137e-011 -1.53796e-011 1.6829e-011 -9.61328e-012 6.51385e-012 1.04226e-011 1.25316e-011 -2.0748e-011 -6.90995e-012 6.40891e-012 -2.14901e-011 -7.30621e-012 -5.04463e-012 -8.76758e-012 -1.77179e-011 -1.64698e-011 5.93968e-012 2.17665e-011 2.25012e-011 -7.81795e-012 -4.58841e-012 9.86691e-012 3.59029e-012 1.71419e-011 1.23049e-011 -1.20415e-011 -5.2792e-013 8.56468e-012 1.43594e-011 -2.16739e-011 7.89068e-013 -6.95427e-012 1.44254e-011 -2.10881e-011 2.26897e-011 2.02303e-011 2.19328e-011 -1.95522e-011 2.12446e-011 -5.03765e-012 2.88945e-012 1.4963e-011 1.37392e-011 1.8702e-011 -1.04657e-011 2.85877e-012 -1.48462e-011 -1.39299e-011 1.08346e-011 -1.62797e-012 -1.84595e-011 -1.22563e-011 -8.12026e-013 -1.087e-011 -5.30503e-012 -2.07862e-011 2.32645e-011 1.87459e-011 -1.38905e-011 1.0628e-011 -2.30461e-011 4.66161e-012 -1.09505e-011 -6.54121e-012 1.97213e-011 7.51071e-012 1.22891e-011 -4.56777e-012 -2.2299e-012 2.01169e-011 -1.96403e-011 6.10328e-012 1.26867e-011 -1.31151e-011 1.81705e-011 -4.31449e-012 -2.16127e-011 7.93394e-012 -2.95324e-012 2.15456e-011 6.5786e-012 4.14292e-012 -1.96823e-011 1.24862e-011 -4.49172e-014 -1.7085e-011 1.24246e-011 -3.72597e-012 -1.87145e-011 -1.79529e-011 -1.57913e-011 -7.62982e-014 1.75935e-011 9.78755e-012 -9.89946e-012 -6.76839e-012 1.68103e-011 1.86588e-011 1.1635e-011 1.01155e-011 8.49102e-012 -8.16748e-012 1.50695e-011 1.89642e-011 5.33681e-012 1.08844e-011 -1.57354e-012 -1.02488e-011 -1.02617e-011 -1.87557e-011 -1.02031e-011 1.92885e-012 2.35539e-011 -1.2036e-011 -1.60322e-011 2.95333e-012 -2.68395e-012 -1.18883e-011 -2.00129e-011 -1.8001e-011 -1.03378e-011 8.4306e-012 -3.34664e-012 -1.57628e-011 1.62026e-011 3.85765e-012 -1.37505e-011 -6.19202e-012 1.11835e-011 -2.97696e-012 6.65862e-012 2.07988e-011 -3.36425e-012 8.33661e-012 -3.70298e-012 1.75265e-011 -1.28634e-011 7.18428e-012 1.77142e-011 -1.51867e-011 -9.04743e-012 4.67977e-012 3.49537e-012 -4.31712e-012 -1.46076e-011 -1.34778e-011 1.48859e-011 -2.28237e-011 2.27057e-011 -1.02861e-011 2.32722e-011 1.16346e-011 -1.94559e-011 -1.67641e-011 4.28121e-012 -1.9887e-011 -3.55868e-012 2.29235e-011 1.03917e-011 2.35191e-011 1.60333e-011 6.1312e-012 -2.30943e-011 4.25171e-012 9.28456e-012 -1.61522e-011 2.03826e-013 -1.12391e-011 1.6206e-011 5.77987e-012 4.65971e-012 -1.62824e-011 -1.07492e-011 1.93003e-011 -1.73594e-011 2.33822e-011 -1.05727e-012 -3.77307e-012 -1.59631e-011 -2.00795e-011 -5.55165e-012 -1.27036e-011 1.37434e-011 1.81299e-011 1.41084e-011 -1.78266e-011 -3.96759e-012 2.17882e-011 1.78545e-011 -3.1465e-012 1.80113e-011 2.21652e-011 -1.67552e-012 1.42388e-011 6.69274e-012 2.84875e-012 -1.56146e-011 -7.32288e-012 -1.7305e-012 8.91373e-012 1.5781e-013 1.08371e-011 -3.76129e-012 -2.87484e-012 -1.37191e-011 1.1185e-011 1.29832e-011 -6.16057e-012 1.86215e-011 4.97457e-013 6.25967e-012 -7.85807e-012 -1.36208e-011 1.33327e-011 2.09601e-011 -7.63344e-012 8.64168e-012 -1.1189e-011 5.48155e-012 -1.64987e-011 -1.72224e-011 -1.81375e-011 1.16349e-013 1.71998e-011 1.96693e-011 6.14513e-012 -1.54738e-011 2.20527e-011 -1.94528e-011 -1.85554e-012 -1.16418e-011 1.86597e-011 -2.07388e-011 -3.2725e-012 -1.79506e-012 1.30782e-011 -3.28096e-012 -5.06742e-013 -2.05099e-011 2.08187e-011 9.7519e-012 -2.1457e-011 1.52979e-011 -4.74247e-012 -3.56358e-012 -1.00477e-011 -4.00843e-012 8.24149e-012 1.72656e-011 -1.65265e-011 1.4004e-011 -2.17614e-012 4.55219e-012 -1.05062e-011 -1.94893e-011 -2.13581e-011 1.90584e-011 -1.73261e-011 2.25122e-011 -1.9509e-011 7.68451e-012 5.79452e-012 -4.50863e-012 -1.33887e-011 -1.73359e-011 -2.85707e-012 9.01088e-012 2.16306e-012 -1.19181e-011 -2.14502e-011 -3.02879e-012 -1.44154e-011 -1.9857e-011 -1.58418e-011 1.99425e-011 2.25843e-011 -2.31289e-011 1.9047e-011 1.2974e-011 -1.41902e-011 -1.34922e-011 -8.36203e-012 6.57309e-012 -1.65691e-011 7.75968e-012 -1.17454e-012 4.69083e-012 -1.30202e-011 2.05222e-012 9.30391e-012 -2.19136e-011 -3.08798e-012 -2.26363e-011 -1.99753e-011 -1.20257e-011 -2.17778e-011 -2.27589e-011 1.88036e-011 -1.77127e-011 -1.08481e-011 2.25728e-011 -4.74921e-013 -1.78507e-011 1.81986e-011 2.01156e-011 -4.76993e-012 2.13107e-011 2.7954e-012 4.28275e-012 -1.21411e-011 -2.36849e-011 9.46806e-012 -2.29624e-011 -1.77579e-011 2.04911e-011 -3.33948e-012 9.90902e-012 -1.48165e-011 1.06114e-011 1.87178e-011 -5.427e-012 -1.82606e-011 -1.19493e-011 -2.0304e-011 -8.10782e-012 -2.37841e-011 -4.43348e-012 2.31519e-011 8.57185e-012 1.91364e-011 -1.72867e-011 -2.35661e-011 -1.71323e-011 -1.82733e-011 1.03527e-011 -1.57167e-011 1.97461e-011 -1.57619e-011 -1.27295e-011 6.69029e-012 1.32734e-011 2.24304e-011 9.44527e-012 -1.79794e-011 1.13265e-011 6.58819e-012 1.35292e-011 4.50104e-012 -1.46631e-011 1.39668e-011 7.67781e-012 2.3407e-011 1.34739e-011 1.58182e-011 1.97819e-011 -1.20695e-011 5.64141e-012 1.71949e-011 -9.47021e-012 -1.15978e-011 7.21264e-013 8.6651e-012 9.57573e-012 -2.12325e-011 8.51766e-012 -1.03268e-012 1.49561e-011 1.34916e-011 -8.94986e-012 -5.45235e-013 -4.42611e-012 5.29711e-012 1.21244e-011 2.0453e-011 1.98006e-011 1.07571e-011 5.31139e-012 -1.66904e-012 -4.32812e-012 -1.53946e-012 -1.83228e-011 -1.9561e-011 1.56878e-011 2.17965e-011 5.5415e-013 -3.82334e-012 -2.11783e-011 2.29541e-011 2.08381e-011 -4.49625e-012 -9.12146e-012 -6.63121e-012 8.89492e-012 -5.21499e-012 1.20576e-011 -2.03139e-011 1.33166e-012 -1.97319e-011 4.90023e-012 2.09726e-011 2.09663e-011 -1.6117e-011 -1.1327e-011 9.30516e-012 1.38544e-011 -2.1706e-011 -7.34209e-012 1.35342e-011 -9.43519e-012 2.22893e-011 8.29998e-012 9.51628e-012 -1.34557e-011 -6.6283e-012 1.54907e-011 -2.02892e-011 -1.06581e-011 -9.15637e-012 8.17512e-012 -1.86266e-011 -1.37045e-012 -2.8124e-012 -1.45896e-011 7.75645e-012 -1.00688e-012 -1.9244e-011 -1.16613e-011 1.91394e-011 -3.42286e-012 -1.68937e-011 3.15249e-012 1.41341e-011 -8.3175e-012 -1.59722e-011 -9.3705e-012 -2.88771e-012 -1.76127e-011 -1.19596e-011 1.7513e-011 -4.41829e-012 -1.08844e-011 1.04422e-011 -1.68029e-011 1.30035e-011 1.06175e-011 -1.0441e-012 1.44928e-011 1.34144e-011 1.27509e-011 -2.2568e-011 -3.90303e-012 6.04797e-013 2.50403e-012 1.01711e-011 -8.23161e-012 1.16256e-011 3.53622e-012 1.50151e-011 -1.2805e-011 -3.46949e-012 -1.40563e-011 1.51883e-011 -2.21077e-011 -8.64624e-013 3.16702e-012 -8.04148e-013 1.56582e-011 -9.13686e-012 2.13543e-011 3.74722e-012 1.50594e-011 -1.00948e-011 -2.10757e-012 2.13761e-011 -1.47153e-011 -4.0063e-012 -8.96336e-012 -2.35585e-011 -1.58954e-011 -1.73213e-011 4.31666e-012 1.34322e-011 1.17281e-012 -5.38768e-012 6.77167e-012 -1.33969e-011 -3.26905e-012 1.15947e-011 -2.0746e-011 1.96322e-011 -2.12573e-011 1.34839e-011 2.11806e-011 -1.17652e-011 -1.58614e-011 -2.31722e-011 -1.21428e-011 -6.94132e-013 1.14262e-011 -2.23621e-011 -2.12224e-011 -2.0096e-011 -6.96231e-013 -1.251e-011 2.24399e-011 8.30856e-012 -9.17036e-012 2.30863e-011 6.83696e-012 -8.81415e-012 -2.13193e-011 2.14489e-011 2.33525e-011 1.26363e-011 -3.02776e-012 -2.96931e-012 -1.38268e-011 6.03999e-012 -1.63939e-011 -1.21726e-011 2.10054e-011 -1.20336e-011 -1.42271e-011 -1.81749e-011 -2.1309e-011 8.73469e-013 -2.23936e-012 -1.87911e-011 1.35667e-011 1.70474e-011 1.70706e-011 1.38608e-011 1.50495e-011 -2.09432e-011 -6.02621e-012 -1.70843e-011 8.68571e-012 -2.09334e-011 -2.28669e-011 2.15423e-012 1.97743e-011 -9.814e-012 2.88942e-012 -1.18264e-011 1.17555e-011 1.32394e-011 3.54232e-012 7.74781e-013 -1.72053e-011 -1.3655e-011 9.12771e-012 1.22856e-011 -8.60795e-012 1.96553e-012 -2.52273e-012 -1.77808e-012 2.09536e-012 2.46292e-012 2.11815e-011 7.49304e-012 -1.42085e-011 -5.77492e-012 -1.72269e-011 -5.33626e-012 5.81645e-012 -1.62248e-011 2.29181e-011 -8.95472e-012 1.04393e-011 -9.82502e-013 -1.1472e-011 -9.58437e-012 -1.05476e-011 -2.25399e-012 5.93453e-012 1.25964e-011 -8.17166e-012 -1.36615e-011 1.35404e-011 1.18343e-012 1.35185e-012 1.53614e-011 -5.38492e-012 -6.49805e-012 2.14844e-011 8.14755e-012 1.74555e-011 -1.48253e-012 1.80717e-011 -1.77468e-011 1.89083e-011 -8.28816e-013 1.01037e-011 9.62223e-012 -2.37057e-011 8.81673e-012 4.29569e-013 -3.46175e-012 -1.75723e-011 5.77673e-012 -1.51618e-011 1.23095e-011 1.44421e-011 1.4284e-011 6.89469e-012 2.30535e-011 -1.79187e-011 -7.31632e-012 -2.07258e-011 1.84489e-011 2.46414e-012 1.93684e-011 -5.83228e-012 -4.21166e-012 5.21406e-012 4.34722e-012 1.04248e-011 1.82945e-011 9.36442e-012 8.93995e-012 -9.74922e-012 -2.09184e-011 5.2985e-014 2.02997e-011 -1.13499e-012 4.64895e-012 -1.94382e-011 8.77697e-012 1.96054e-012 -9.58494e-012 -2.21663e-011 -1.0662e-011 -6.46543e-012 -7.54996e-014 3.35583e-012 1.31585e-011 1.79339e-011 -1.40888e-011 1.20264e-011 1.64189e-011 -1.25288e-011 -1.75794e-011 8.14783e-012 -1.34931e-011 2.23757e-011 1.67331e-011 -1.03268e-011 1.88972e-011 -2.21668e-012 2.88336e-013 6.8364e-012 1.2451e-011 7.317e-012 -1.48833e-012 1.92388e-013 1.25232e-011 -8.33086e-012 -1.60531e-011 -3.7998e-012 -1.76567e-011 -3.64423e-012 7.47652e-012 2.29857e-013 2.35892e-011 5.16206e-013 9.16991e-012 1.18733e-011 -1.57123e-012 6.06938e-012 -9.73155e-012 1.99882e-012 2.35819e-011 4.15078e-012 -7.17043e-012 3.08724e-012 1.38122e-011 -2.33285e-011 -7.9582e-012 9.3801e-012 1.17074e-011 -2.34283e-011 3.97067e-012 -1.08367e-011 -3.06048e-012 -1.38595e-011 6.94604e-012 -5.32351e-012 7.12006e-012 -3.2747e-012 1.33892e-011 -6.74806e-012 1.29467e-011 -1.47662e-011 -7.77601e-012 -1.40392e-013 5.19621e-012 5.03791e-012 -5.10188e-012 9.94835e-012 1.88626e-011 5.05894e-013 -1.81731e-012 3.44424e-012 -1.32354e-011 -4.50994e-012 -3.9396e-012 2.04905e-011 1.16665e-011 -2.03415e-011 1.51168e-011 -1.49998e-011 -9.09877e-012 -7.82194e-012 1.46179e-011 2.52518e-012 4.03473e-012 2.40566e-012 -1.95435e-011 -1.16116e-011 2.1307e-011 1.70901e-011 5.79551e-012 2.2335e-012 1.78823e-011 -1.35698e-011 7.33364e-012 -1.16212e-011 2.32238e-011 -2.23774e-011 8.41475e-012 1.44418e-011 2.01507e-011 -3.31177e-012 -8.49606e-012 2.23549e-011 -1.12224e-011 2.13694e-011 -1.96109e-011 1.40972e-011 -3.18844e-012 -2.10399e-011 -2.24776e-011 -1.31457e-011 3.22498e-012 -1.96936e-011 -9.98565e-013 -1.78015e-011 -1.23415e-011 1.62671e-011 -6.08612e-012 -8.02948e-013 -9.84493e-012 1.47665e-011 7.4092e-012 9.24007e-012 -2.09894e-011 1.58757e-011 -8.80511e-012 -4.47541e-012 -1.28411e-011 -7.37713e-012 1.9237e-011 1.65553e-011 5.70197e-013 -2.22858e-011 -3.56171e-012 -1.5224e-011 -2.13674e-011 -1.97917e-011 -3.04714e-014 2.14906e-011 4.07536e-012 -3.60488e-012 1.0228e-011 3.23072e-012 7.09543e-012 -8.76018e-012 -7.44937e-012 -1.41979e-011 5.11817e-012 -1.3271e-011 5.90086e-012 -7.48064e-012 -9.91066e-012 -1.05637e-011 -3.80598e-012 1.52856e-012 1.95513e-011 -5.82334e-012 -1.28797e-011 -1.88441e-012 1.4927e-011 -4.20129e-012 1.91338e-011 -9.71666e-012 5.50389e-012 -1.5432e-011 2.3631e-011 -2.28133e-011 9.07508e-013 -7.89601e-012 1.6218e-011 2.14469e-011 2.197e-011 -1.77277e-011 -7.05664e-012 -1.29439e-012 3.29434e-012 2.27651e-011 4.51133e-013 -1.17163e-011 -1.99896e-011 -1.91807e-011 6.10537e-012 -1.06241e-011 2.67993e-012 1.1989e-011 -1.37221e-011 6.39572e-012 1.68521e-011 -1.43465e-011 9.01686e-013 1.76436e-011 -1.75321e-011 8.82984e-013 -1.88588e-011 -9.97589e-012 1.42126e-011 1.8913e-011 -4.87991e-012 1.7499e-011 8.2806e-012 -1.58321e-011 2.25586e-011 -1.09204e-011 -3.33535e-013 -1.83366e-011 9.72712e-012 4.59032e-012 -1.06654e-011 1.80492e-011 -1.35667e-011 4.85005e-012 1.22243e-011 -2.32704e-011 6.55741e-012 -3.46273e-012 1.30756e-011 -1.13367e-011 -1.61815e-011 9.84134e-012 2.04424e-011 9.43466e-012 -1.43379e-011 -1.15487e-011 2.77993e-012 2.30292e-011 -9.43416e-012 -2.19362e-011 -4.64354e-012 -2.36329e-011 1.23748e-011 2.2271e-012 -7.08744e-012 1.74049e-011 -1.3302e-011 -2.18026e-011 2.11241e-011 -2.36288e-011 1.28842e-011 2.19676e-011 1.15042e-011 1.45351e-012 1.3314e-011 -1.57888e-011 1.11466e-011 -2.91326e-012 -1.00514e-011 1.44212e-011 -2.06462e-011 -2.2069e-011 1.53256e-011 -1.65442e-011 8.02483e-013 1.33264e-011 1.52359e-011 1.60613e-011 1.63664e-011 -2.09959e-011 2.2277e-011 -7.96111e-013 -1.76134e-011 -8.12712e-012 -1.95203e-011 -6.20733e-012 2.27802e-011 2.2898e-011 -1.13955e-011 -2.04409e-011 -9.5854e-012 8.11206e-012 -2.08194e-011 -8.8618e-012 -1.00366e-013 -1.24584e-011 -2.56219e-012 5.15633e-013 8.51389e-012 2.08608e-011 -7.42071e-012 -1.38824e-011 3.23343e-012 -5.35415e-012 6.2296e-012 2.12912e-011 1.73575e-012 2.24894e-011 1.98432e-011 -2.06176e-011 9.69283e-012 -7.9658e-012 -2.36924e-011 1.16504e-011 3.9334e-012 3.06861e-012 1.89025e-012 1.89519e-011 -2.00559e-011 -8.02634e-012 1.73321e-011 2.37945e-011 -1.23828e-012 -1.95248e-011 1.57739e-011 5.60566e-012 -6.37851e-012 1.6974e-011 -1.05649e-011 2.24333e-011 -2.15766e-011 1.52151e-011 4.54575e-012 -2.15132e-011 -9.73762e-012 -1.29799e-011 1.33685e-011 -1.96673e-012 -9.90533e-012 7.37087e-012 -2.23568e-011 -5.74109e-012 1.81151e-012 -2.77167e-012 -8.3272e-012 1.61973e-011 1.55007e-011 -4.61554e-012 -1.48336e-011 9.10798e-012 4.3414e-013 -1.01837e-011 -2.28832e-011 2.41017e-012 -2.70763e-012 1.59746e-011 1.78635e-012 -2.28271e-011 -2.28634e-011 2.17182e-011 -2.76261e-012 1.30889e-011 2.23846e-011 -9.71504e-012 8.81637e-012 -1.92704e-011 -1.90235e-011 7.73598e-012 -7.10121e-012 -8.27528e-012 1.63232e-011 1.08641e-011 2.18222e-011 -1.91236e-011 -9.96287e-012 -1.44725e-011 1.18175e-011 1.04936e-011 -1.42385e-011 -5.96993e-012 -1.29514e-011 8.73484e-012 2.37561e-011 -7.09791e-014 2.25637e-011 -1.72773e-011 -8.44197e-012 1.18668e-012 1.4037e-011 7.73646e-012 -8.69589e-012 1.5837e-011 -8.10643e-012 4.45015e-012 -2.12327e-011 -9.01265e-012 -1.7206e-011 1.96235e-011 2.19343e-011 -1.17117e-011 -4.311e-012 6.99366e-013 -5.94293e-012 -5.50274e-013 7.24664e-012 6.19058e-012 3.00902e-012 1.71723e-011 2.33215e-011 -2.53918e-012 9.7653e-012 1.5768e-011 -2.20224e-011 -1.06785e-011 -1.84286e-011 -8.17453e-012 -1.03583e-012 -1.54806e-011 -2.16951e-012 1.52788e-011 -9.32069e-012 1.00349e-011 1.53741e-011 1.53298e-011 2.07149e-011 2.02229e-011 -2.33443e-011 -2.37351e-011 -2.11275e-011 -1.3454e-011 1.9972e-011 -1.12597e-011 1.55355e-011 -1.48403e-011 3.4377e-012 -4.90635e-012 1.6153e-011 -2.95255e-012 -1.3415e-011 1.12699e-011 1.73119e-011 1.87287e-011 -8.12183e-012 -1.24314e-011 1.15822e-011 7.01715e-012 -4.78309e-012 1.42635e-011 -9.20866e-012 5.63141e-012 1.91033e-011 1.27404e-011 1.04839e-011 1.85133e-012 1.66954e-011 8.76459e-012 -3.79683e-012 -6.2405e-013 1.90691e-011 -2.4085e-012 -1.93591e-011 -1.55355e-011 -2.30677e-011 1.77091e-011 -2.02809e-011 1.6953e-011 6.70641e-012 2.71206e-012 -7.72568e-012 2.31851e-011 1.97031e-011 -2.63309e-012 -5.82723e-012 1.36621e-011 2.19217e-011 -1.52313e-011 -1.64899e-012 -1.12959e-014 -1.34382e-012 -7.35952e-012 -2.17481e-011 4.34938e-012 5.14899e-012 -1.98035e-011 -1.88169e-011 -1.86075e-011 1.2349e-011 1.84361e-011 -3.74621e-012 -8.96251e-012 5.15929e-013 -9.95156e-012 -2.78245e-012 1.89937e-011 -1.54634e-011 -1.73731e-011 2.11668e-011 1.07935e-011 1.45734e-011 2.23037e-012 -7.27573e-012 -5.71088e-013 1.23756e-011 1.34015e-012 -2.20276e-011 6.81749e-012 -5.89223e-012 8.844e-012 4.13893e-012 -7.51093e-012 2.13572e-011 5.80901e-012 -6.07505e-012 1.51599e-011 2.18791e-011 1.23909e-011 -1.70734e-011 1.93497e-011 4.6748e-012 2.06255e-011 1.63453e-011 -2.06538e-011 2.60137e-012 1.44739e-011 -2.30765e-011 1.34328e-011 -1.12109e-011 -7.88283e-012 1.91018e-011 1.16318e-011 -2.08076e-011 7.56736e-012 7.68729e-012 2.16885e-011 1.64657e-011 6.44162e-012 1.56776e-011 6.38837e-012 1.38543e-011 2.44835e-012 -1.36861e-013 1.46968e-011 2.68139e-012 -1.61609e-011 -7.2511e-012 9.74743e-012 -4.80677e-012 -1.29563e-011 2.06181e-011 -2.11267e-011 -4.32198e-012 -1.97454e-011 1.54597e-011 -7.53161e-012 3.04269e-012 1.55147e-011 5.62229e-012 1.77341e-011 -8.20529e-012 -2.08414e-011 -4.43976e-012 5.51003e-012 -1.12815e-011 5.57414e-012 1.39089e-011 5.22918e-012 -9.41926e-013 -6.02637e-012 -1.3923e-012 1.64736e-012 -8.92166e-012 1.98868e-011 2.258e-011 2.14059e-011 -5.99644e-012 -7.17449e-012 -1.31231e-011 2.0102e-011 2.25513e-012 1.91264e-011 5.43554e-012 -9.38229e-012 7.0565e-013 -1.38502e-011 5.24137e-012 1.34801e-011 1.21114e-011 -4.18497e-012 2.22142e-011 -2.37171e-011 -3.20211e-013 -4.15829e-012 -2.02732e-011 -8.01324e-012 7.42966e-012 -9.25925e-012 1.53747e-012 -9.4331e-012 2.18221e-011 -2.23774e-011 -1.92536e-012 6.28677e-012 -9.45853e-012 -8.35995e-012 -1.75634e-011 -9.67393e-012 1.53771e-011 4.69131e-013 -1.54238e-011 -4.81715e-013 4.90997e-012 4.11922e-012 -1.26644e-011 -9.08934e-013 -1.49256e-011 -1.98655e-011 1.25234e-011 -3.9068e-012 1.37052e-011 -2.21542e-011 1.00341e-011 3.51316e-012 3.86407e-012 -1.51506e-011 -1.41879e-011 2.42759e-012 6.00275e-012 1.49567e-011 6.12668e-012 1.07659e-011 -9.85285e-012 -8.73652e-014 -8.3573e-012 -7.47452e-012 3.56817e-012 -1.55919e-011 2.29535e-011 1.76244e-012 -1.91006e-011 7.23737e-012 5.30119e-012 1.95824e-011 2.35447e-011 1.77063e-011 -6.8785e-012 9.29837e-012 -1.90477e-011 1.92988e-011 -1.63452e-011 1.28576e-011 1.43685e-011 -1.00973e-011 -8.874e-012 1.61283e-012 1.01485e-011 1.55438e-012 6.35135e-012 1.88359e-011 9.90716e-012 9.46627e-012 2.20472e-011 1.23835e-011 1.43914e-011 1.64873e-011 -3.94129e-012 -1.73097e-011 -1.61334e-011 2.8571e-012 1.76313e-011 1.92464e-011 9.50866e-012 -2.20457e-011 1.51478e-011 -1.8297e-011 9.92917e-012 5.66148e-012 6.60743e-012 5.01714e-012 -2.22345e-011 1.55671e-011 -2.14363e-011 2.1489e-011 1.19403e-011 1.53821e-011 -1.2391e-011 1.23093e-011 -9.95991e-012 -6.51395e-012 1.73214e-012 1.5885e-011 -7.47913e-012 -2.23639e-012 -6.19629e-016 -1.58932e-012 -1.17228e-011 6.79175e-012 7.03844e-012 -1.78504e-011 -4.56541e-012 -2.10646e-011 -2.2625e-011 -8.26559e-012 1.4636e-011 -6.99198e-012 7.41508e-013 7.16687e-012 -8.81302e-012 -3.86576e-012 1.30839e-012 -1.16042e-011 1.09671e-011 -1.12054e-011 1.88874e-011 1.82291e-011 -5.96324e-013 2.254e-011 7.68621e-012 -1.4472e-011 -1.76295e-011 -8.26538e-012 1.60665e-011 -6.48684e-012 -2.14665e-011 1.46146e-011 2.29731e-013 9.73912e-012 2.35686e-011 -1.47385e-011 -1.25539e-011 1.23724e-012 -1.89009e-011 2.37238e-011 -1.97338e-011 -6.77159e-012 1.77392e-011 3.7405e-012 -1.80155e-011 -1.90644e-011 -1.86185e-011 1.36165e-011 6.8981e-013 -6.04526e-012 -2.19755e-011 1.78482e-011 1.94991e-011 -1.78907e-011 -1.77463e-011 1.89761e-011 1.49429e-011 -1.29837e-011 1.55968e-011 1.47201e-012 2.23218e-011 -6.89955e-014 -2.27019e-012 9.20945e-012 -2.35349e-011 1.15677e-011 3.96635e-012 9.95068e-012 1.37725e-011 2.10818e-011 -4.88013e-012 -1.54853e-011 -6.64338e-012 -8.784e-012 7.35226e-012 1.11606e-011 -1.72075e-011 -2.11084e-011 -2.18327e-011 7.93205e-012 2.16404e-011 9.06996e-012 1.47332e-011 1.9782e-011 1.84664e-011 -2.12701e-011 2.13959e-011 1.41185e-011 1.9001e-011 -1.5645e-011 2.73771e-012 -1.42375e-011 1.31248e-011 2.18265e-011 4.74516e-012 1.22815e-011 1.22525e-011 -2.20671e-011 -5.02903e-013 -3.41037e-012 2.20434e-011 -2.10564e-011 9.34262e-012 1.21597e-011 -3.94868e-012 -3.17776e-012 -2.06415e-011 2.26061e-011 -1.66409e-011 -2.18965e-011 -7.91113e-012 1.65694e-011 -2.68285e-013 -2.35117e-011 -2.06511e-012 -1.36162e-011 2.05791e-011 8.27507e-012 -5.73591e-012 -1.41425e-011 -2.1708e-011 2.27045e-011 -1.18369e-011 -1.58307e-011 2.15272e-011 -6.89465e-012 1.99195e-011 1.00201e-011 3.93074e-012 -8.35967e-012 -6.3236e-012 6.55623e-012 -2.34402e-011 6.03633e-012 -3.21916e-012 4.96956e-012 4.62029e-012 -5.92849e-012 1.18819e-011 3.16595e-012 1.82463e-011 -1.11462e-011 -1.59056e-011 4.19047e-013 1.60078e-012 2.1354e-011 6.22579e-012 -6.79315e-012 -9.80294e-012 1.48064e-011 1.50418e-011 1.16425e-011 6.94366e-012 2.00704e-011 -2.38292e-012 5.74548e-013 1.74437e-012 2.30192e-011 1.64857e-012 -1.09159e-011 1.68721e-012 -1.678e-011 -1.30053e-011 -1.67889e-011 -1.40484e-011 4.52147e-012 1.32578e-012 -3.36553e-013 -2.15914e-011 2.26963e-011 3.42297e-012 7.5275e-012 2.27663e-011 -4.18033e-012 5.18079e-012 -9.66631e-012 -2.09346e-011 7.87422e-012 9.04504e-012 2.2012e-012 -1.68089e-011 1.73406e-011 -1.40457e-011 -1.60511e-011 -2.37598e-011 4.8535e-012 -1.16841e-011 8.10296e-012 -2.11317e-011 -1.89344e-011 -1.61399e-011 -6.57627e-012 -1.26795e-011 -4.30232e-012 -3.27381e-012 1.71888e-011 -4.97598e-012 -1.07598e-011 -3.47932e-012 -1.05898e-011 -1.14666e-011 -2.01769e-011 4.72186e-012 1.45988e-011 1.43097e-011 4.22914e-012 1.34284e-011 2.19388e-011 2.46736e-012 2.12562e-011 6.85732e-013 1.3016e-011 1.42619e-011 5.22872e-012 -8.97024e-012 -1.63537e-011 1.63241e-011 2.18396e-011 -5.25451e-013 4.03739e-012 -8.45318e-012 1.16582e-011 -3.20851e-012 6.93715e-012 2.09676e-011 2.06047e-011 5.40119e-012 -9.56083e-013 -2.73324e-012 1.68823e-011 2.35638e-011 -1.49194e-011 4.54715e-012 -8.56661e-012 -2.23682e-011 -1.841e-011 -1.52759e-011 -1.01792e-012 -1.68775e-011 -2.78018e-013 1.9707e-011 -9.57383e-012 -9.1077e-012 8.67618e-012 1.95209e-011 -2.17629e-011 -3.00597e-012 -2.71771e-012 4.77686e-012 -1.62297e-011 -6.28627e-012 -1.80263e-011 9.6509e-012 2.17853e-011 -8.11575e-012 -6.39003e-012 1.89114e-011 -2.04121e-012 -1.38877e-012 -2.28167e-011 -1.69637e-011 7.45696e-012 2.07203e-011 2.39434e-012 -3.57399e-012 -4.01924e-012 1.10756e-011 9.32826e-013 2.37003e-011 1.62365e-012 6.80363e-012 7.65567e-012 -4.23832e-012 -3.15169e-012 -1.34724e-011 -9.64766e-012 -4.13632e-012 1.07931e-012 1.30252e-011 2.35235e-012 -3.07949e-012 -1.09772e-011 1.94501e-012 -1.94121e-011 1.53685e-011 4.85073e-012 1.08363e-011 3.71214e-012 -5.38036e-012 1.33751e-011 8.68995e-012 -2.316e-011 -9.30919e-012 3.77769e-012 -1.84034e-011 2.0628e-011 -5.09138e-012 -1.95057e-012 1.97243e-011 -2.2087e-011 2.65595e-012 1.23849e-011 -8.44399e-012 2.02411e-011 -4.43447e-012 -1.96998e-011 -3.20363e-012 1.7381e-011 1.86476e-011 -2.14138e-011 1.22579e-011 1.03316e-011 5.82402e-013 -3.32076e-012 -1.33468e-011 1.22646e-011 1.22331e-011 1.52631e-011 -1.93074e-011 1.37718e-012 -1.4544e-011 1.40056e-011 1.0739e-011 -3.96639e-012 -2.36507e-011 4.39481e-012 -1.11753e-011 -1.74837e-011 -6.30766e-012 7.42186e-012 6.04142e-012 1.67568e-011 -1.33246e-011 2.17965e-011 -9.13503e-012 -6.94047e-012 -3.30332e-012 -1.33665e-011 -2.69381e-012 -1.86572e-011 7.14345e-012 1.1353e-011 -2.28965e-011 4.67517e-012 2.22471e-012 -1.08786e-011 2.35704e-012 -2.80612e-012 -1.11389e-011 2.34753e-011 -1.64067e-011 2.13696e-011 2.09842e-011 -2.03254e-011 1.62785e-012 5.17894e-013 -4.2327e-012 1.22399e-011 -2.23892e-011 3.91941e-012 -7.23964e-012 1.53778e-011 1.97621e-011 1.37354e-011 7.6013e-012 1.55747e-011 -1.93964e-011 -1.52414e-011 -5.15058e-012 -2.05546e-011 1.02989e-011 -2.30845e-011 -8.09716e-012 -1.63739e-011 -7.30238e-012 1.56683e-012 -1.20072e-011 -2.15043e-011 4.80508e-012 7.89601e-012 2.00892e-011 1.21367e-012 9.53395e-012 -2.58225e-012 2.28441e-011 1.93107e-011 -7.39446e-012 8.64208e-012 2.32212e-011 -1.65303e-011 7.74516e-012 -2.05282e-011 1.45191e-011 1.83949e-011 -5.96232e-012 1.6972e-011 8.42039e-012 -1.02039e-011 1.73213e-011 1.72497e-011 -1.46897e-011 -1.86842e-011 2.23111e-011 2.03601e-011 1.83045e-011 -1.08003e-011 1.52235e-011 -1.97855e-011 -2.11424e-011 1.03373e-011 2.23215e-011 8.94871e-012 2.10672e-011 2.21442e-011 1.37827e-011 -5.16828e-012 -1.44898e-011 1.328e-011 7.35626e-012 7.97247e-012 1.90065e-011 1.62491e-011 -9.66649e-012 1.13869e-011 2.19769e-011 1.76537e-013 1.94241e-011 -8.39495e-012 8.85797e-014 -6.43892e-012 -1.77264e-011 -2.01714e-011 2.09994e-011 -2.26637e-011 2.13997e-011 -1.92919e-011 -8.02874e-012 5.81919e-012 1.03067e-013 2.54398e-012 -4.59357e-012 1.07047e-011 1.95874e-011 -1.9285e-011 2.35346e-011 -1.88364e-011 1.23737e-011 7.79687e-012 9.6285e-013 -2.17271e-012 4.3885e-012 3.62305e-012 9.47519e-012 1.40997e-011 -1.86305e-011 4.27525e-012 4.92621e-012 1.63321e-011 -1.78701e-011 2.37475e-011 -3.85944e-012 -1.47377e-011 -1.81296e-011 2.30957e-011 -1.48127e-011 -9.85785e-012 -1.33861e-011 1.53147e-011 1.52344e-011 1.30209e-011 2.11565e-011 5.60191e-012 -2.07507e-011 1.38988e-011 1.92221e-011 1.21902e-011 -2.14313e-011 -2.58863e-012 3.47802e-012 2.28966e-012 -2.00117e-011 2.24338e-011 -1.96953e-011 7.35322e-012 -1.73414e-011 6.28264e-012 -1.71335e-011 4.26496e-012 5.28538e-012 -1.82618e-011 1.59251e-011 -1.10026e-011 -2.14063e-011 -2.42672e-012 1.56992e-011 -3.82403e-012 1.367e-011 2.33877e-011 -1.67443e-011 -1.32767e-011 -8.38731e-012 2.1184e-012 5.79987e-012 -1.79607e-011 -8.21775e-012 -7.35806e-012 8.8431e-012 7.34338e-012 5.98941e-012 -2.36639e-011 -2.00635e-011 6.84856e-012 -2.5188e-012 2.57465e-012 8.16458e-012 6.05889e-012 4.47461e-012 -1.61503e-011 3.58779e-012 1.21066e-011 -1.07549e-011 -1.0764e-011 -1.08965e-011 4.21601e-012 1.72664e-011 -5.29735e-012 -1.72126e-012 -3.02714e-012 -2.29502e-011 -2.17204e-012 1.11224e-011 3.08773e-012 -1.27654e-011 1.73491e-011 -8.13597e-012 1.16133e-011 8.30422e-012 1.59104e-011 1.61836e-011 1.05218e-011 1.14654e-011 -5.83356e-012 -1.15721e-011 6.15988e-012 -5.88748e-012 1.15737e-011 2.18816e-011 9.00079e-013 -1.40096e-011 1.53454e-011 1.21405e-011 -1.5641e-011 -9.77572e-012 -9.82399e-012 5.50925e-012 8.14629e-012 1.47865e-011 1.37587e-011 -1.64895e-012 -2.45802e-012 -1.99217e-011 -1.50485e-011 1.67971e-012 -2.12086e-011 4.01088e-012 -1.14879e-011 7.90587e-012 -1.05229e-011 1.05998e-011 -1.2975e-011 -1.83052e-011 -1.10411e-012 2.09066e-011 -4.27461e-012 -1.31951e-011 -3.95281e-012 -1.39001e-011 -6.78888e-012 2.63217e-012 1.39507e-011 -9.02882e-012 -4.67557e-013 5.83355e-012 9.49887e-012 -4.46303e-013 2.13783e-011 -3.56692e-012 2.32238e-011 1.23593e-011 2.00697e-012 1.01091e-012 5.30201e-012 1.72694e-011 9.93989e-012 -2.04462e-011 -1.41472e-011 -1.55579e-011 2.01598e-011 2.09405e-011 -1.3727e-011 2.05167e-011 -2.2461e-011 -1.55312e-011 2.92805e-012 -2.00857e-011 1.57579e-011 1.34588e-011 1.5583e-011 -1.74558e-011 -2.1238e-011 -2.06332e-012 1.11453e-011 -1.35096e-011 -1.69429e-011 -1.55175e-011 1.70114e-011 -6.72334e-012 -1.81786e-011 1.09806e-011 -3.57417e-012 7.75045e-012 -1.61847e-011 -1.40165e-011 4.70181e-012 -1.40575e-011 2.11325e-011 1.43918e-011 1.22848e-011 -3.31228e-012 5.9269e-012 8.88948e-013 2.01672e-011 -2.24827e-011 -8.09066e-012 7.02611e-013 1.82029e-011 -5.07598e-013 1.709e-011 7.80384e-012 -1.62606e-012 -2.15907e-011 -2.22093e-011 2.21262e-011 -1.84102e-011 -1.18885e-011 -1.02442e-011 -1.44562e-011 2.1976e-011 1.75854e-011 -1.78864e-011 -1.92684e-011 -2.06778e-011 -9.25978e-012 -7.06351e-012 6.67964e-012 -1.95179e-011 2.35295e-011 1.12932e-011 2.48757e-012 2.00322e-011 -2.77999e-012 2.69349e-012 -8.62821e-013 2.25774e-011 2.32079e-011 1.80953e-011 -1.74414e-011 1.76198e-011 2.91771e-013 1.01497e-011 2.37232e-011 -1.2634e-011 3.09589e-012 -7.57985e-012 -4.80314e-012 1.97254e-011 -1.59703e-011 7.53372e-012 1.68806e-011 -2.46243e-012 -7.0678e-012 -1.3702e-011 1.83218e-011 1.8359e-011 1.31259e-011 -1.85605e-011 2.01458e-012 2.14006e-011 1.78306e-011 1.09567e-011 -1.76116e-011 -1.85312e-011 9.07412e-012 1.07187e-011 1.72827e-011 -5.52721e-012 -1.90455e-011 -1.47e-011 -1.25131e-012 -2.28612e-011 -1.28069e-011 2.22282e-011 -1.34121e-011 2.71794e-012 -1.05325e-011 -1.70012e-011 -8.93128e-012 -7.21936e-012 -2.10649e-011 -1.52477e-011 -1.93088e-011 1.26999e-011 -1.52087e-011 -1.62231e-012 -1.6829e-011 -4.69308e-012 2.31088e-011 1.39988e-011 2.33498e-011 -1.60264e-011 3.46333e-012 -4.33514e-013 2.10221e-011 4.41036e-012 6.44634e-012 6.55528e-012 -1.53327e-011 1.71047e-012 2.01792e-011 8.49096e-012 2.37778e-011 -3.5811e-012 2.78246e-012 -1.12749e-011 1.41504e-011 -1.77846e-011 7.6652e-012 -6.80602e-012 -1.41818e-011 -2.25425e-011 2.20636e-011 -1.03583e-011 -7.42894e-012 3.92483e-013 1.01534e-011 -1.49557e-011 7.06098e-012 2.15695e-011 -1.93145e-011 2.52747e-012 -1.74894e-011 2.08544e-011 1.69513e-011 6.34958e-012 4.69552e-013 -1.84021e-012 2.70149e-012 -1.62303e-011 -5.27327e-012 3.18818e-013 8.22135e-012 -2.07809e-011 -1.16064e-011 1.10696e-011 -2.17361e-012 -3.77066e-012 4.81103e-012 4.5758e-012 9.59074e-012 -1.68453e-011 3.40595e-012 6.74796e-012 -8.83009e-012 1.50883e-011 5.01958e-012 6.02627e-012 -1.18709e-011 -1.99778e-011 1.95572e-012 1.97884e-011 6.11105e-012 2.23941e-011 6.15358e-012 -1.82211e-011 -2.88351e-012 -1.34009e-011 1.1195e-011 1.17455e-011 1.47232e-011 -9.77274e-013 1.07614e-011 -1.5922e-011 1.74562e-011 2.30292e-011 -1.29012e-011 4.10473e-012 -5.12573e-012 2.29358e-011 -1.65351e-011 9.41701e-012 -1.88172e-011 5.49137e-012 -3.78218e-012 1.0904e-011 -3.29298e-012 2.16773e-011 4.15333e-012 1.75634e-011 2.04396e-013 -1.25523e-012 2.24068e-011 1.96482e-011 -6.09275e-013 -7.68109e-012 -1.95571e-011 3.57846e-012 4.12535e-012 -1.19654e-011 -1.37891e-012 1.50726e-011 -6.15986e-012 -1.22811e-011 -2.0247e-011 1.09796e-011 -6.63832e-012 -1.58607e-011 -1.07597e-011 1.12997e-011 1.19209e-011 1.60946e-011 -4.40288e-012 1.74191e-012 1.66336e-011 -1.13617e-011 -6.07645e-012 1.35706e-011 -9.40157e-013 -1.70161e-011 -1.28326e-011 1.12383e-011 3.65205e-013 2.23824e-011 -9.95521e-012 1.38567e-011 1.84304e-011 8.52702e-012 -3.66908e-012 -1.09597e-011 -6.23863e-012 7.84331e-012 -2.36106e-011 1.42431e-011 4.12995e-012 -1.14343e-011 9.42539e-013 -1.50682e-011 1.28355e-012 -4.35313e-013 -1.37855e-011 1.08539e-011 -1.7622e-011 -4.0938e-012 1.8012e-011 1.52054e-012 -2.31845e-011 -1.47425e-011 -2.01899e-012 -2.08452e-011 1.18174e-011 -1.33419e-011 1.98381e-011 -1.34578e-012 -6.68698e-012 1.3564e-011 -8.13282e-012 -1.27172e-011 -9.60999e-012 -2.28464e-011 -2.03656e-011 -1.87786e-011 5.28052e-012 -2.27459e-011 -1.92812e-011 2.19877e-012 -1.39326e-011 3.71586e-012 -6.83628e-012 1.56703e-011 -1.19517e-011 4.61375e-012 -1.07617e-011 6.53645e-012 -1.26447e-011 1.32289e-011 -1.3456e-011 4.15285e-012 1.12124e-011 2.18248e-011 -2.3483e-011 -4.1217e-012 -2.50587e-012 -1.24984e-011 -1.99666e-011 -9.37268e-012 1.41884e-011 3.49431e-013 1.72506e-011 -1.52817e-011 -2.05207e-011 -1.286e-011 -4.11285e-012 9.61633e-012 -1.70765e-011 1.70313e-011 -2.07701e-011 2.30926e-011 2.18543e-011 -1.64164e-011 1.48202e-011 -9.92355e-012 5.96929e-012 1.76047e-011 -1.60323e-011 2.023e-011 -8.83609e-012 2.47829e-012 5.91637e-012 -1.69159e-011 -9.95135e-012 1.85897e-011 2.21359e-011 -1.01776e-011 5.99271e-012 -4.5091e-012 3.68413e-012 7.92528e-012 -2.75594e-012 5.44079e-012 7.06875e-012 1.62632e-011 -1.96621e-011 8.79787e-012 -1.13494e-011 2.08672e-011 -2.40947e-012 4.2142e-012 -1.13637e-011 -1.95997e-011 9.90594e-012 6.58737e-012 1.28394e-011 -8.77256e-014 3.72015e-012 -1.73217e-011 -2.31752e-011 -1.3124e-011 -1.88872e-012 1.96257e-011 -2.86302e-012 -1.42897e-011 1.02432e-011 -2.73278e-012 -1.5689e-011 8.54614e-012 -1.36219e-011 -1.20433e-011 1.5808e-011 -1.96008e-011 -1.22108e-011 1.61597e-011 6.3352e-012 4.27897e-012 4.7511e-012 1.39733e-011 1.02108e-011 1.86648e-011 1.33313e-011 -1.60505e-011 1.2473e-011 1.15293e-011 -1.23858e-011 -1.76684e-011 1.72855e-011 1.31123e-012 2.02951e-011 2.48067e-012 1.11752e-011 -7.45455e-012 1.85735e-011 1.79026e-011 -1.28035e-011 -4.42207e-012 2.25731e-012 -1.31675e-011 -2.21869e-011 -2.3628e-011 -1.609e-011 -1.75197e-011 -1.38418e-012 -2.18551e-011 3.61452e-012 -7.68657e-012 -1.5209e-011 -8.97623e-012 -1.08635e-011 -8.55954e-012 2.36234e-011 -2.29206e-011 -1.07546e-011 -1.38626e-011 7.54742e-013 1.30088e-011 1.20695e-011 -1.60921e-011 -1.48872e-013 -1.48928e-012 2.12653e-011 -7.04906e-012 7.53647e-012 -2.27613e-011 -7.16951e-012 -1.21762e-011 1.91494e-011 -7.30487e-012 1.27047e-011 -2.12653e-011 -5.01412e-012 8.49186e-012 9.21316e-012 1.95642e-011 -1.59212e-011 -2.66941e-012 -2.44032e-012 -2.30902e-012 5.1124e-012 -1.77641e-011 1.42678e-011 -2.36032e-011 1.52367e-011 5.24437e-012 5.76738e-012 -2.14267e-011 -1.89766e-011 1.71269e-011 -2.35586e-011 -9.21476e-012 -4.91074e-012 -1.75108e-011 -3.45633e-012 -1.06736e-011 7.93992e-012 1.45859e-011 9.70137e-012 -1.77189e-011 -1.35208e-011 -1.18566e-011 -3.85777e-012 -1.76033e-011 -2.1309e-011 5.70062e-012 -1.1716e-011 -1.46231e-012 5.62547e-012 9.2815e-012 -4.4732e-012 -1.88101e-011 -1.56377e-011 3.12593e-012 -9.34723e-012 -2.13975e-011 2.68287e-012 -3.19627e-012 -1.91054e-011 -1.30666e-011 1.40682e-012 -5.38153e-012 1.06523e-011 -2.09221e-011 2.58581e-012 1.86231e-011 2.08292e-011 -1.62744e-011 -1.43326e-011 1.71457e-011 -2.51448e-012 -2.33999e-011 2.02483e-011 9.87215e-012 2.12587e-011 5.92048e-012 -7.56676e-012 8.81025e-012 1.27433e-011 3.95812e-012 2.11403e-011 -1.64099e-011 -5.00146e-012 -2.13123e-011 -6.44551e-012 1.21755e-012 -4.02664e-012 6.80266e-012 -2.00092e-011 1.59295e-011 1.11397e-011 1.75421e-011 -1.82761e-011 -1.19624e-011 -1.87371e-012 -3.68387e-012 9.04871e-013 -2.58296e-012 -4.03036e-012 -1.25906e-011 2.2474e-011 -4.49133e-012 -1.43815e-011 -4.00355e-012 1.5019e-011 -8.32184e-012 2.26519e-011 1.18393e-011 1.37126e-011 7.42367e-012 -2.28223e-011 9.6893e-012 -1.48856e-011 -1.23832e-011 -1.80882e-011 -1.21954e-011 1.15486e-011 3.2219e-015 1.7159e-011 -8.36855e-013 -1.43431e-011 2.10213e-011 1.10473e-011 -1.00759e-011 -7.5804e-012 2.37642e-012 -1.5944e-011 6.49574e-012 6.84414e-012 -2.00839e-011 6.59627e-013 -1.88921e-011 -1.04027e-011 1.13868e-011 -7.25598e-012 3.87018e-012 -4.71434e-012 -8.31459e-012 -1.31119e-011 -1.0372e-011 2.08605e-011 8.80215e-012 2.01965e-012 -1.52705e-012 2.04838e-011 1.3411e-011 -8.05882e-012 -2.63978e-012 5.63118e-012 1.30216e-011 -1.05617e-011 1.97625e-011 1.51978e-011 -1.98738e-011 1.48385e-011 2.16991e-011 -7.66446e-012 2.32041e-011 1.45971e-011 1.76517e-011 -2.35033e-011 1.70175e-011 -5.35236e-012 -1.75116e-011 -1.22887e-011 9.10775e-012 1.70305e-011 -1.29104e-012 -1.78934e-011 -1.76513e-011 6.46814e-012 7.65796e-012 -1.05322e-011 2.319e-011 2.22773e-011 9.8866e-012 9.66135e-012 3.38888e-012 2.31412e-012 -2.20917e-011 -2.09564e-011 -6.54112e-012 1.45358e-011 1.37683e-011 -9.00167e-012 1.36948e-011 -1.10037e-011 2.51909e-012 -1.6282e-011 -2.23256e-011 -1.22679e-011 -1.84523e-011 -8.70127e-012 -1.57306e-011 -3.14955e-012 -2.26542e-011 3.88793e-012 -2.18021e-011 -2.34774e-011 2.20796e-012 -6.4749e-012 1.24285e-011 -2.17282e-011 4.69575e-013 7.77633e-012 2.34268e-011 -1.15558e-011 3.1599e-012 8.01245e-012 2.21729e-011 -2.27284e-011 -2.27826e-011 5.64852e-012 -1.98808e-011 -2.33634e-011 2.05902e-011 -2.35418e-011 -1.19848e-012 8.57207e-012 -2.11797e-011 -1.94357e-011 4.71697e-012 -1.40792e-011 2.45326e-012 2.02774e-011 -5.67834e-012 9.47091e-012 -1.38912e-011 2.12166e-011 -2.06294e-011 -1.52504e-011 6.70858e-012 4.71703e-012 -1.04115e-011 4.2e-012 1.92595e-011 -5.05464e-013 2.85848e-012 -1.93851e-011 1.70436e-011 2.51042e-012 1.27503e-011 2.06213e-011 -2.13792e-011 -3.11208e-013 2.11834e-011 -1.52751e-011 -1.09266e-012 2.17693e-011 -8.78694e-013 4.51951e-012 2.27122e-011 -1.90753e-011 1.09454e-011 -2.05762e-011 -1.32915e-011 -4.56275e-012 4.49545e-012 -1.5134e-011 -2.26789e-011 -9.2819e-013 7.37559e-012 -7.16263e-014 3.862e-012 -9.08077e-012 -1.72321e-011 -7.19418e-013 1.33753e-011 1.56808e-012 1.69159e-011 1.34826e-011 2.112e-011 1.48432e-014 -1.04862e-011 2.12407e-012 2.05223e-011 -1.61422e-012 1.74713e-011 1.66512e-011 -5.00452e-012 -2.64935e-012 1.17888e-011 -9.7204e-012 4.54262e-012 1.20528e-011 -2.37856e-011 -8.42451e-012 -5.57406e-012 -1.50454e-011 -1.13777e-011 1.3773e-011 1.09497e-011 2.31967e-012 -1.15541e-011 2.33587e-011 -2.34059e-011 1.21819e-012 -9.29909e-012 -1.46561e-011 5.12148e-012 1.38917e-011 -1.04683e-011 -1.92255e-011 -7.72338e-012 1.32452e-012 7.48974e-012 1.06414e-011 2.00353e-011 1.97513e-011 -1.09007e-011 -7.09701e-012 -1.66303e-011 -1.55229e-011 -1.99959e-011 -2.23178e-011 -8.19449e-012 -1.02422e-011 -1.30715e-011 1.6161e-011 -1.74343e-011 1.51981e-011 -2.31683e-011 -9.45736e-012 -6.08467e-012 -9.91148e-012 -2.36417e-012 8.40752e-012 -1.65092e-011 1.52056e-012 1.10013e-011 -3.51342e-012 -8.80646e-012 1.90423e-011 1.50262e-012 2.21668e-012 2.27079e-011 -5.54383e-013 -1.46907e-011 -7.76817e-012 -2.8398e-012 1.29433e-011 -2.01283e-011 -3.14824e-012 -1.61488e-011 8.1766e-012 -3.59847e-012 -1.86987e-011 1.90525e-011 -8.42589e-012 1.88625e-011 2.07004e-011 6.35552e-012 1.12368e-011 -1.85733e-011 -9.5024e-012 -4.3081e-013 3.244e-013 2.19725e-011 1.48254e-011 -2.32696e-011 1.26021e-011 1.87452e-011 -1.24302e-011 -1.99488e-011 6.32907e-012 -1.63488e-011 -1.7917e-011 -9.66694e-012 1.29322e-013 8.40275e-012 -1.18164e-011 6.51735e-013 -6.39009e-012 1.81113e-011 2.37219e-011 2.00504e-011 -2.10963e-011 5.92763e-012 1.39282e-011 -2.08102e-012 1.37182e-011 -4.60644e-012 -1.09604e-011 -1.80502e-011 1.00957e-011 -9.59962e-012 1.45101e-011 -1.87789e-011 1.67892e-011 7.80884e-012 4.57544e-012 1.77866e-011 -1.24179e-011 4.67998e-013 -2.36654e-011 -3.24382e-012 -2.30946e-011 2.16982e-011 -4.96261e-012 -1.5244e-011 -1.72783e-013 7.25873e-012 -1.26934e-011 1.18759e-011 -1.46555e-011 -1.01404e-011 2.23195e-011 1.81932e-011 -1.03186e-011 -7.22241e-012 1.11587e-012 2.01812e-012 -3.90394e-012 6.51525e-012 2.19279e-011 -1.62235e-011 -4.86323e-013 -1.1456e-011 -5.03665e-012 -4.90831e-012 -5.76785e-012 -1.77551e-011 -7.06057e-012 -4.32015e-012 -4.45885e-012 -9.8126e-012 3.21367e-013 1.9764e-011 1.68628e-011 2.98685e-012 2.19837e-011 -6.18146e-012 -1.85139e-011 5.94746e-012 -1.01508e-011 1.90781e-011 1.80114e-011 2.26731e-011 -9.42116e-012 7.70022e-012 -1.12484e-011 1.52226e-011 -1.79716e-011 -2.11787e-011 -9.38909e-013 -1.3664e-011 -4.0716e-012 -5.567e-013 6.97748e-012 1.92181e-011 1.44934e-011 -6.54878e-012 -1.99114e-011 -1.39062e-011 9.6257e-012 1.23063e-011 1.89773e-011 1.18344e-011 3.2459e-012 -1.7981e-011 1.97751e-011 4.92554e-012 1.16554e-011 -8.59874e-013 -1.26545e-011 -1.00168e-011 -3.48173e-012 -1.39664e-011 -2.60712e-012 2.99844e-013 5.96441e-012 2.429e-012 -1.45397e-011 -1.51033e-011 -1.78589e-012 1.73197e-011 -1.79472e-011 1.60988e-011 1.12529e-011 -1.9802e-011 -1.33712e-011 1.96559e-011 -1.90369e-011 1.48746e-011 1.24711e-011 -4.15906e-012 -2.29417e-011 2.32317e-011 1.0838e-011 2.21854e-011 4.75227e-012 -1.37761e-011 -7.4603e-012 -4.70374e-012 -7.98556e-012 -6.53868e-012 1.56583e-011 -2.0158e-011 1.00838e-012 -1.68871e-011 -1.36675e-011 5.04135e-013 -1.80903e-011 -1.41538e-011 1.11813e-011 2.31916e-012 1.57477e-011 -4.41751e-012 1.39459e-011 1.68905e-011 -4.27327e-012 -8.93208e-012 1.38108e-011 -2.23891e-011 -1.25123e-012 -1.96193e-011 -8.05327e-012 2.193e-011 8.18457e-012 -1.41666e-011 -2.02251e-012 1.0715e-011 1.70942e-011 2.8395e-012 -9.6493e-012 1.64697e-012 -3.69095e-012 -2.23369e-011 1.94189e-011 5.41322e-012 -7.65994e-012 -2.1093e-011 1.28905e-011 8.37421e-012 -2.12491e-011 1.25614e-011 1.14346e-011 1.82809e-011 -6.55982e-012 -1.80742e-011 -1.61125e-011 1.84701e-012 2.8962e-012 -2.05116e-011 1.28079e-011 -2.27726e-011 -1.19155e-013 -2.22199e-011 7.43054e-012 -9.48166e-012 2.29625e-011 -1.92884e-011 -2.20155e-011 -7.05229e-012 -1.51067e-011 2.09211e-011 -2.08432e-012 -8.38703e-012 -2.36036e-011 1.07161e-011 -1.07588e-012 7.48189e-012 2.11894e-011 -1.69762e-011 1.42767e-011 3.3221e-012 1.96372e-011 1.40702e-011 1.43253e-011 7.2065e-012 -3.18112e-012 -2.18739e-011 1.15309e-011 -2.10227e-011 -7.84e-012 -1.06944e-011 1.30239e-011 8.47202e-012 2.12544e-011 -2.09206e-011 -1.08845e-011 1.54151e-011 -1.94398e-011 -8.20678e-012 1.47607e-011 -1.65973e-011 2.13979e-011 1.02167e-011 -4.19689e-012 -2.24023e-011 -1.78679e-011 9.8758e-012 5.72845e-012 -1.08737e-011 -1.42638e-011 3.81063e-012 2.14832e-012 -5.12197e-012 9.95266e-012 3.87934e-012 2.27899e-011 1.50965e-011 1.59952e-011 5.12914e-012 -8.2627e-012 -1.30051e-011 1.38451e-011 1.90014e-011 -3.72042e-012 -8.34525e-012 -1.33112e-012 -7.75216e-012 -1.6855e-011 1.16161e-011 5.86507e-012 -1.02368e-011 7.2533e-012 7.19996e-012 -4.43603e-012 1.08866e-011 -1.54428e-011 1.45236e-011 -3.2941e-012 -7.75502e-012 8.2085e-012 1.81588e-011 -7.49999e-012 2.18696e-011 -1.37392e-011 3.60032e-012 2.27851e-011 1.4306e-011 -6.4525e-012 1.15624e-011 5.03933e-012 -1.9657e-011 -1.84556e-012 1.58505e-011 -1.49299e-011 -2.37845e-011 1.68609e-011 5.76707e-012 4.80003e-012 -5.63983e-012 4.82361e-012 -1.21276e-011 -2.21736e-011 1.34296e-011 -2.07752e-011 -1.42106e-011 -1.33254e-011 1.40388e-012 -1.83111e-011 -1.35037e-012 -1.76562e-012 -6.65037e-012 1.96904e-011 6.04768e-012 5.97614e-012 2.17643e-011 1.81451e-011 1.33864e-011 -1.08065e-011 2.19474e-011 7.77287e-012 1.14994e-011 9.16838e-012 -6.53382e-012 -1.31197e-011 -3.59563e-012 -1.49682e-011 -1.26841e-012 1.80203e-011 -7.96467e-012 2.08115e-011 1.28354e-011 -8.19893e-012 -8.00518e-012 9.82156e-013 -2.08817e-013 -4.3157e-012 -7.20389e-012 -1.98017e-011 5.9001e-012 -1.36653e-011 1.99259e-011 2.0821e-011 8.07136e-012 -2.35524e-011 2.02403e-011 -1.99097e-011 -3.20033e-012 1.1533e-011 1.80033e-011 -9.97734e-012 -6.47772e-013 -1.34834e-011 -1.09732e-011 -3.83222e-012 -2.31981e-011 8.48829e-012 1.35326e-011 1.35432e-011 1.18988e-011 -1.03618e-011 2.18105e-011 -1.41198e-011 -2.29164e-011 9.73302e-012 -1.51155e-011 -1.5626e-011 -2.09027e-011 -9.71659e-012 9.24103e-012 7.3365e-012 -1.06593e-011 -2.17442e-011 -2.02493e-011 -1.77965e-011 1.68872e-011 -1.88678e-011 2.15742e-011 -1.31405e-011 1.47412e-011 2.69986e-012 2.06578e-011 -1.59243e-011 5.22528e-012 -2.30503e-011 -5.75449e-012 6.01846e-012 -7.82789e-012 -1.85212e-011 -3.72243e-012 -1.34766e-011 -6.41128e-012 -2.2194e-011 -1.24187e-011 -3.74102e-013 -2.13243e-011 4.0085e-012 -1.40539e-011 1.40632e-011 1.02093e-011 -1.33043e-011 -2.36423e-011 -2.13327e-011 -9.02426e-012 7.57499e-012 1.74242e-011 1.82545e-011 -3.7701e-012 1.97406e-011 1.79225e-011 1.91814e-011 -3.24653e-012 -1.10747e-011 -2.37783e-011 6.98224e-012 -1.4319e-011 4.44019e-012 1.19692e-011 1.46519e-011 5.23271e-012 9.08625e-012 1.01696e-011 2.0862e-011 -2.34471e-011 -9.0399e-012 -6.4027e-012 -1.88766e-011 3.5086e-012 -1.27046e-011 -1.34789e-011 8.15169e-012 -5.34183e-014 -2.93682e-012 -9.18083e-012 1.14555e-011 -1.03093e-011 -7.22874e-012 -1.68359e-011 2.01572e-011 -2.65962e-012 -1.73659e-011 -1.74681e-011 -2.25239e-011 -5.22647e-012 1.74929e-011 5.07902e-012 -1.7363e-012 -9.88365e-012 1.54895e-011 -9.07902e-012 -6.2171e-012 -8.97797e-012 -7.15997e-012 1.85561e-011 1.64195e-011 2.12327e-011 -8.29159e-012 -1.61519e-011 1.91994e-011 6.23923e-013 -8.5385e-012 -1.11047e-011 1.90222e-011 -1.68423e-011 -1.86075e-011 -1.73855e-011 5.1302e-012 -1.4084e-011 4.80487e-012 1.71134e-011 1.88947e-011 -1.44523e-012 -2.36149e-011 2.34795e-011 1.48162e-011 -9.66469e-012 -1.89549e-011 1.55865e-011 1.02539e-011 1.25589e-011 -1.83428e-011 -1.10177e-011 2.0921e-011 1.29219e-011 2.16789e-011 2.27903e-012 -9.40168e-012 -1.94177e-011 9.89487e-012 1.25706e-011 -2.11807e-011 6.20354e-012 -2.2201e-011 3.22005e-012 -1.96277e-011 -1.28155e-011 -6.07227e-012 1.8348e-011 -1.3001e-011 -7.04105e-012 -9.06364e-012 2.07359e-012 9.66941e-012 -1.55863e-011 -2.29921e-012 -2.08e-011 1.82657e-011 -1.128e-011 -1.2915e-011 1.56219e-011 -2.11484e-011 1.44063e-011 1.51627e-011 -1.09592e-011 2.25814e-011 -8.14159e-012 1.85651e-011 1.14849e-011 -2.22981e-011 8.15003e-012 -1.12063e-011 -7.00149e-012 1.87147e-011 -1.8746e-013 5.09085e-012 1.03887e-011 1.90186e-011 7.21351e-012 1.28733e-011 9.79899e-012 9.4183e-012 -1.24917e-011 2.37713e-011 1.86074e-011 -6.37854e-013 2.24791e-011 -2.05455e-011 1.21835e-011 1.75177e-012 7.44656e-012 -2.27912e-011 1.79038e-011 -1.24871e-011 1.33e-011 2.29453e-011 -1.42053e-011 2.05507e-012 -8.38187e-012 1.58691e-011 1.56278e-011 6.01984e-012 2.05098e-011 -4.41671e-012 -1.39313e-011 1.27273e-011 -6.34442e-012 1.01256e-011 -1.75526e-011 1.13133e-011 4.16487e-012 -1.76925e-011 -1.59389e-011 -1.84549e-011 -5.42989e-012 -1.14061e-011 -7.9415e-012 2.12493e-011 -1.3781e-011 1.28539e-011 -8.27634e-012 -6.386e-012 -1.8305e-011 2.05198e-011 1.26525e-011 -8.73603e-012 -2.29312e-011 -5.13158e-013 -1.47494e-011 5.94388e-012 -3.63157e-012 8.29009e-012 -1.39902e-012 1.88748e-011 2.09028e-011 2.63298e-012 2.18477e-011 1.19943e-011 2.06167e-011 -9.81783e-012 -9.03217e-013 1.37651e-011 1.58711e-011 -1.08594e-011 7.22575e-012 1.42762e-011 -2.2168e-011 4.17546e-013 1.91973e-011 2.78793e-012 1.71176e-011 2.1773e-012 5.9306e-012 -1.93028e-011 -9.77486e-013 1.59524e-011 -6.75176e-013 1.626e-011 2.11562e-011 4.41979e-012 7.30451e-013 -1.45809e-011 -1.44213e-011 9.08623e-012 -1.63375e-011 1.40503e-011 -1.95379e-011 -1.37268e-011 -2.22744e-011 -3.0872e-012 8.85466e-012 -2.10209e-011 -7.00037e-012 -4.79127e-013 3.11844e-012 -1.6844e-011 1.31412e-011 1.44219e-011 -2.02362e-011 -1.12114e-011 1.29668e-011 1.11709e-011 6.33221e-012 -5.16017e-012 2.75674e-012 8.19235e-012 8.9173e-012 1.43774e-011 -1.04221e-011 2.1762e-011 -1.59789e-011 -4.84145e-012 1.47939e-011 -1.57864e-011 1.86424e-011 -2.27657e-012 -2.13792e-011 1.53008e-012 1.02993e-011 -1.64363e-011 -4.57627e-012 -1.51746e-011 2.06675e-011 1.68252e-011 -2.05115e-011 -8.35167e-012 -2.38667e-012 1.41018e-011 3.05785e-012 -2.34147e-011 7.99295e-012 4.71179e-012 -5.18483e-012 1.30927e-011 -2.06349e-011 -8.6807e-012 9.76332e-012 3.06608e-013 -9.0711e-012 -8.22444e-012 -1.55933e-011 -1.17612e-011 4.84672e-012 -4.86761e-013 5.07735e-012 6.72031e-012 8.66338e-012 -1.6783e-011 7.21732e-012 -1.6614e-011 1.15262e-011 -1.92542e-011 -1.87148e-011 -7.99818e-012 -1.35843e-011 8.50673e-012 1.62682e-011 -9.666e-012 1.70306e-011 -2.12542e-011 -1.99374e-011 -1.16474e-011 -8.8147e-012 4.08454e-012 -6.27611e-012 -6.39503e-013 -1.82705e-011 1.7354e-011 9.55677e-012 -5.57688e-012 -1.60629e-012 1.00341e-011 1.21489e-011 -1.63803e-012 -5.57898e-012 -1.09829e-011 -1.9166e-011 9.19011e-012 -4.95841e-012 -1.18942e-011 -9.51275e-012 7.88368e-012 -1.72201e-013 2.06988e-011 -6.9345e-012 3.46707e-012 -2.24333e-011 -1.44624e-011 -4.32113e-012 -1.9482e-011 -9.89854e-012 1.98812e-011 2.23457e-012 1.22169e-011 5.54988e-012 -1.88909e-011 -1.91056e-011 -3.25222e-012 -2.66092e-012 -4.10342e-013 1.87444e-011 -9.39728e-012 8.32038e-012 1.68486e-011 9.44009e-012 -2.04458e-011 1.00149e-011 -9.76569e-012 -2.24798e-011 1.3688e-011 -1.01133e-011 -1.67621e-011 1.53452e-011 -5.75794e-013 -2.13294e-011 1.3182e-011 -4.18089e-012 -1.76835e-011 5.64749e-012 4.21993e-012 1.43116e-011 -7.05707e-012 -2.12545e-011 1.26967e-011 -7.90043e-012 1.02442e-011 2.23905e-011 9.23606e-012 3.04724e-012 -1.14949e-011 1.77897e-011 -1.66427e-011 1.04048e-011 4.39691e-012 -8.97975e-012 2.14134e-011 1.89623e-012 -2.29639e-011 -1.82022e-011 -1.73949e-011 1.6818e-012 -7.45677e-012 1.61096e-011 -2.72253e-012 -1.49268e-011 -9.05557e-012 -1.13062e-011 -1.23981e-011 -1.82816e-011 9.83253e-012 -4.21894e-013 1.55274e-011 1.80194e-011 -1.33979e-011 2.26202e-011 -2.30235e-011 -4.49058e-012 -1.50207e-011 -6.53715e-013 -1.25102e-011 -1.07507e-011 -2.17727e-011 7.22386e-012 -5.53742e-013 -1.51817e-011 2.14966e-011 1.94074e-011 1.15308e-011 1.76209e-011 -1.0909e-011 -1.94298e-011 1.18451e-011 1.53992e-011 2.26175e-011 -9.50146e-012 4.05567e-012 2.55603e-012 1.22185e-011 -1.24369e-011 -2.06614e-011 1.40654e-011 -6.87529e-012 1.24434e-011 1.18203e-011 -1.40133e-011 -5.35959e-012 2.20184e-011 -2.15538e-011 1.17313e-011 -1.32977e-011 2.02736e-011 -4.44066e-013 -3.21671e-012 -1.10363e-011 -1.88047e-011 9.95994e-012 -9.63066e-014 -8.46195e-012 2.19398e-011 6.43895e-012 8.90775e-012 -2.01778e-011 -9.21896e-012 -3.95051e-012 1.87661e-011 2.15665e-011 -5.27198e-012 -1.39072e-011 -1.21389e-011 -2.92524e-012 1.45725e-011 -1.99281e-011 2.3176e-012 -1.21613e-011 3.38531e-012 -8.51845e-012 -1.30263e-011 1.26718e-011 4.67628e-013 1.79473e-011 -4.27161e-012 2.2755e-011 1.83701e-011 4.27183e-012 -6.33532e-012 1.15063e-011 -1.39159e-011 -1.7406e-011 1.72868e-011 1.90003e-011 4.30436e-012 1.07385e-011 1.17425e-011 -8.56195e-012 2.23878e-011 -8.07414e-012 -2.57538e-012 -1.80006e-011 2.00835e-011 9.7058e-013 -8.88222e-012 -9.20301e-012 1.92354e-011 -1.2182e-011 -1.21324e-011 1.4021e-011 -2.25827e-011 9.04571e-012 -1.29573e-011 -1.01826e-011 -1.78327e-011 1.3711e-011 1.79192e-011 -7.15086e-012 1.79149e-011 -1.60571e-011 7.92665e-012 2.32555e-011 1.01656e-011 -2.33507e-011 9.71998e-012 -2.35464e-011 2.21022e-011 -1.1821e-011 1.61285e-013 -1.36078e-012 1.13811e-011 1.97517e-011 -8.18094e-012 1.17725e-011 3.46007e-012 -8.3862e-012 2.21535e-011 -2.01915e-013 1.49627e-011 -6.5931e-012 8.37313e-012 -2.62527e-012 2.00535e-012 -2.01088e-011 -1.72295e-011 -2.58787e-012 -7.87362e-012 -2.24934e-011 1.84314e-011 7.10305e-012 9.10696e-012 -4.87424e-013 1.50325e-011 -1.08943e-011 -1.60599e-011 1.20671e-012 1.78814e-012 6.25864e-012 -2.04581e-011 -2.07217e-011 2.3053e-011 1.47561e-012 4.0562e-013 2.21228e-011 -9.73213e-012 2.74132e-012 1.68736e-011 1.92596e-011 -1.90599e-011 -1.58786e-011 -2.97917e-012 1.74019e-011 2.01037e-011 -2.1991e-011 1.01171e-011 -1.2101e-011 -1.8134e-012 9.82749e-012 2.34073e-011 1.94823e-011 8.32173e-012 2.37649e-011 -9.3049e-012 -1.90553e-011 3.54549e-012 -3.11536e-013 2.86439e-012 1.91422e-011 -3.01509e-012 1.13916e-011 -1.5476e-012 -8.92376e-012 8.34317e-012 3.98864e-012 2.11934e-011 2.03151e-011 2.37289e-011 8.84873e-012 -1.30398e-011 2.08091e-011 1.19651e-011 -7.5185e-012 1.35198e-011 2.2397e-011 6.01944e-012 8.93553e-012 -5.35407e-013 -2.19756e-011 8.41509e-012 -1.07226e-011 -2.02225e-011 2.36209e-011 -7.55809e-012 -1.97004e-011 -6.77098e-012 1.89034e-012 2.01652e-011 1.54053e-011 1.54664e-011 2.30047e-011 4.61845e-012 -1.27555e-011 8.34597e-013 7.78748e-012 -2.26556e-011 -1.35307e-011 1.81245e-011 -4.75667e-013 -2.18176e-011 -5.0942e-012 8.88603e-012 -1.08495e-011 3.68289e-012 -2.63698e-012 1.66985e-011 -1.95569e-011 -1.84473e-011 4.4677e-012 -5.94664e-012 -3.61654e-012 -1.36393e-011 1.82877e-011 5.77126e-012 2.16908e-011 -2.12503e-011 4.83361e-012 8.55638e-012 -1.42558e-011 -2.12497e-011 1.46684e-011 -5.53714e-012 1.11724e-011 1.28888e-011 -1.80342e-011 1.65642e-011 1.54076e-011 1.99389e-011 -1.91697e-011 1.30743e-011 1.46522e-011 -2.12602e-013 3.56017e-012 1.92289e-011 -1.09462e-012 -8.06536e-012 2.18356e-011 1.59646e-011 1.58516e-011 2.06604e-011 1.67959e-011 4.9637e-012 -2.24705e-012 -1.8424e-011 1.64458e-011 -1.92851e-011 -2.64552e-012 -6.22136e-012 1.40405e-011 -8.67584e-012 5.826e-012 2.38833e-012 1.68567e-012 -2.30421e-012 -2.05294e-011 -1.31979e-011 9.95686e-013 -1.13222e-011 2.27957e-011 1.83977e-011 1.12848e-011 -1.2371e-011 -1.66566e-012 -1.60074e-011 -6.72227e-012 7.41757e-012 1.2176e-011 -1.95878e-011 1.20475e-011 -1.7409e-011 -2.23747e-011 -4.53601e-012 -1.34097e-011 -2.17026e-011 -1.01777e-011 1.04231e-011 -1.02525e-011 -1.21902e-011 -3.8813e-012 -1.24762e-011 -2.00166e-011 -3.29278e-012 2.28768e-011 -9.51005e-012 -8.30884e-012 -1.14019e-012 1.08342e-011 2.09781e-011 2.34497e-011 1.85769e-011 -2.27519e-011 -7.26371e-012 1.41203e-011 8.37488e-013 -2.24522e-011 3.3727e-012 -1.59874e-011 3.06418e-013 -1.17003e-011 7.42492e-012 1.13239e-011 2.00078e-011 1.01985e-011 -2.29599e-011 -2.41161e-012 -7.49016e-012 -9.12518e-012 2.3063e-011 -5.44788e-012 7.44011e-012 7.42417e-012 2.41113e-012 1.42362e-011 2.10738e-011 -1.91011e-011 -1.49254e-011 1.4662e-011 1.05144e-011 1.6959e-011 -3.78047e-012 1.38248e-011 6.43629e-012 2.25993e-011 -4.48484e-012 -1.66816e-011 -2.1026e-011 -4.10859e-012 -2.4208e-012 -2.27793e-011 1.46407e-011 1.14035e-011 -4.07357e-012 1.59384e-011 -1.38187e-011 -5.51246e-012 -2.19491e-011 -1.82275e-011 -1.02598e-011 -1.52773e-011 -8.16701e-012 -7.59189e-012 5.92428e-012 -1.43112e-011 5.77474e-013 2.7243e-012 1.64676e-011 1.37708e-011 9.3455e-012 -9.03628e-012 -1.85284e-011 8.56403e-012 -1.77228e-011 5.67973e-014 -6.46147e-012 -1.34912e-011 -2.2856e-011 -3.87491e-012 -6.04094e-012 1.66395e-011 1.47754e-011 1.25263e-011 1.6825e-012 1.36511e-011 7.16499e-012 1.53444e-012 1.24603e-011 -6.00839e-012 1.38737e-011 -2.16197e-011 1.11835e-011 -1.04861e-011 -1.94687e-011 -1.84961e-011 2.1538e-011 2.09811e-011 1.28765e-011 -2.36231e-011 -7.04682e-012 -1.95376e-011 5.49839e-012 1.70494e-011 -1.61437e-011 -5.10075e-012 -1.88459e-011 3.77321e-012 2.35273e-011 1.50089e-011 5.07484e-012 -1.43882e-011 1.31558e-011 -3.5015e-012 -9.0455e-012 -1.83718e-011 -1.60203e-011 1.5176e-011 -1.16373e-011 4.07274e-012 -2.36254e-011 1.32953e-011 -1.7832e-011 5.81267e-012 3.42444e-012 2.44184e-013 8.91945e-012 1.50725e-011 -2.26378e-011 -1.13271e-011 -1.95321e-011 1.59098e-011 -3.08559e-012 -1.85407e-011 2.08505e-011 2.08103e-011 -2.22238e-012 8.73267e-012 -2.30703e-011 1.67352e-011 -2.11661e-011 1.19067e-011 1.24328e-011 1.65918e-011 -2.2818e-011 -6.67277e-012 8.12828e-012 1.65656e-011 -4.26486e-012 -1.15627e-012 -2.01858e-011 9.48357e-012 -4.7732e-013 1.96621e-011 -6.51732e-012 1.55729e-011 -5.62739e-012 6.91982e-012 -1.25353e-011 -2.92405e-012 4.16909e-012 2.19576e-012 -1.72474e-011 -8.58023e-012 -9.60022e-012 -2.06498e-011 2.21508e-012 -3.03968e-013 7.35938e-012 1.51453e-011 -1.25869e-011 3.92186e-012 1.79359e-011 -1.7563e-011 -5.65196e-013 5.12079e-012 1.07066e-012 -1.73099e-011 -3.83631e-012 3.48701e-013 -1.04023e-011 7.26514e-012 8.42975e-012 1.5926e-011 -1.71449e-012 1.84084e-011 -7.19897e-012 1.96391e-011 -2.33182e-012 -1.83609e-011 1.35753e-012 -1.20908e-011 4.14395e-012 -1.65923e-011 4.11648e-012 -9.45535e-012 -3.39945e-012 2.85627e-013 -2.01157e-011 -1.28491e-011 -7.92096e-012 8.19173e-012 -1.25532e-011 7.53035e-012 1.77459e-011 2.22038e-011 -1.7858e-011 2.12478e-012 1.63568e-011 8.17775e-012 -1.95015e-011 1.61074e-011 -3.61876e-012 -1.09232e-011 2.30393e-011 -1.18081e-011 -3.63621e-012 -2.40971e-012 1.95228e-011 -1.0981e-011 2.91133e-012 2.12629e-012 -1.79657e-011 -1.75838e-011 -1.00276e-011 2.12006e-012 1.38858e-011 -4.71974e-012 -8.90342e-013 -6.73099e-012 1.58628e-011 -1.36943e-011 1.37296e-011 1.52812e-011 2.0129e-011 8.27255e-012 1.88933e-012 -4.2073e-012 -1.39094e-011 1.28241e-011 1.90432e-012 -4.35365e-012 -6.87017e-013 -2.27322e-011 -2.09952e-011 -2.00183e-012 1.86356e-011 -2.33628e-011 5.75236e-012 -1.08844e-011 -2.3127e-011 8.56392e-012 -2.07816e-011 9.02001e-012 2.36523e-011 -6.15332e-012 -6.73986e-012 3.21477e-012 -1.89764e-011 2.01107e-011 9.66494e-012 1.72682e-011 -8.22361e-012 1.56768e-011 -8.71673e-012 -1.11595e-011 1.06986e-011 1.05482e-011 -1.80872e-011 -6.40518e-012 1.50991e-011 1.78494e-011 7.34151e-012 2.16804e-011 1.86587e-011 1.15426e-011 -5.55374e-012 1.88489e-011 2.13078e-011 -1.55837e-011 -1.18738e-011 -1.58058e-011 1.84624e-011 -1.93226e-011 2.18532e-011 1.53343e-011 1.28425e-011 1.86079e-011 6.0835e-012 3.49245e-012 2.00102e-011 -7.5606e-013 -1.88936e-011 1.0205e-011 -2.28739e-011 -2.34563e-011 -1.08783e-011 1.663e-011 1.95012e-011 1.01672e-011 9.03492e-012 1.03802e-011 -4.41075e-013 -3.66224e-012 1.93613e-011 9.75596e-012 -2.16016e-011 1.68337e-011 -6.31256e-012 -1.95994e-011 -9.17537e-012 1.50846e-011 -3.45388e-012 -2.13868e-011 -1.00948e-011 7.7937e-012 -2.31289e-011 -1.00394e-012 1.22877e-011 1.70263e-011 -1.46487e-011 -8.76539e-013 4.91716e-012 -1.28813e-011 -3.43913e-012 7.41818e-012 1.14167e-011 5.85834e-012 -8.87125e-012 -5.7241e-012 1.94944e-012 -1.62576e-011 -1.58093e-011 -6.4061e-012 1.5004e-012 1.84701e-011 -2.07199e-011 -2.37731e-011 -1.0152e-011 1.353e-012 8.37376e-012 1.1444e-011 -1.72114e-011 -1.66994e-011 3.88266e-012 -1.74012e-011 6.9052e-012 -2.00987e-011 -8.6572e-012 1.62998e-011 2.23523e-011 2.32475e-011 -9.30917e-012 1.01919e-011 -1.43262e-011 -8.9138e-012 2.33843e-012 2.34955e-011 1.99063e-011 1.1437e-011 1.92656e-011 -7.8192e-013 5.69346e-012 -1.22686e-011 -1.75426e-011 -1.54628e-011 -8.87774e-012 -1.29636e-011 -1.81617e-011 6.18777e-012 -2.09147e-011 -1.95865e-011 1.45225e-011 1.75858e-011 7.86617e-012 -3.02941e-012 -1.03093e-011 1.87458e-012 4.2525e-012 2.27799e-011 -1.01388e-012 1.35468e-011 1.8093e-011 9.36797e-012 -1.92579e-011 2.26694e-011 -1.71651e-011 6.46869e-012 1.70301e-014 -8.98508e-012 8.51057e-012 -6.48632e-013 -1.75155e-012 2.24435e-012 -4.62292e-012 -1.70299e-011 -1.97267e-011 1.30568e-011 -2.14039e-011 -2.14131e-011 -1.55472e-011 1.61608e-011 -1.71514e-011 -1.73789e-011 2.32704e-011 -3.63941e-012 -1.33166e-011 -2.2547e-011 -7.53439e-012 1.64319e-011 -2.02144e-011 1.63275e-011 -2.26085e-011 -1.06709e-012 -1.72409e-011 1.93771e-012 8.65497e-012 9.48719e-012 1.67193e-011 -1.53244e-011 7.90414e-012 -1.46144e-012 2.01885e-011 9.93221e-012 1.8463e-011 -4.13754e-012 -1.23704e-011 -8.4866e-012 6.26034e-012 -1.3966e-011 2.22294e-012 -1.3278e-011 -1.49184e-011 2.32528e-011 -1.83626e-011 2.0804e-011 4.96787e-012 -9.23881e-012 -1.73062e-011 7.78629e-012 2.05951e-012 1.22409e-011 -1.52793e-011 -7.34473e-012 -9.77712e-012 6.22898e-012 -1.04551e-011 -6.64055e-012 1.7011e-011 1.08344e-011 -2.34422e-011 -1.98914e-011 1.41435e-011 -1.42846e-011 -2.69574e-013 -8.36625e-012 2.01166e-011 -1.56671e-012 -1.33062e-011 1.88219e-011 2.00206e-011 1.08871e-011 -7.00302e-012 -1.99061e-011 1.17211e-011 4.07156e-012 8.91031e-012 -5.29541e-012 9.07217e-012 -2.15957e-011 1.41669e-011 2.37663e-014 -2.1017e-011 2.47863e-012 1.91229e-011 -4.88954e-012 -6.37254e-012 -6.5982e-012 -9.75108e-013 -1.14943e-011 -1.1247e-012 -1.62419e-011 -8.66436e-012 -1.46211e-011 6.3522e-012 1.11211e-011 2.17942e-011 -1.47582e-011 -2.22863e-011 1.58824e-011 -1.78964e-011 -1.0053e-011 -7.60502e-012 9.84515e-012 -2.37397e-011 2.82949e-012 1.94513e-011 1.14622e-011 -5.42822e-012 1.26201e-011 -6.77184e-012 -1.31409e-011 -1.33418e-011 4.72301e-012 1.68386e-011 1.9522e-011 2.00591e-012 1.70723e-011 1.7198e-011 2.15955e-011 9.51847e-012 6.41678e-012 7.43646e-012 1.82339e-011 1.06065e-012 2.16514e-011 1.70233e-011 6.69908e-012 -1.97517e-011 -1.73893e-011 6.02189e-012 -1.95544e-011 -1.96238e-011 1.9827e-012 -2.04547e-011 5.90757e-012 1.12195e-011 -1.59903e-011 -3.47478e-013 -3.14191e-012 8.12737e-012 2.14321e-011 -1.21558e-011 7.91091e-012 1.36334e-011 -2.24887e-011 1.91151e-011 3.34766e-013 -2.25137e-011 5.2889e-012 -5.89866e-012 -6.64529e-012 2.3526e-011 2.13557e-011 -1.00639e-011 2.30917e-011 1.57116e-011 -1.72971e-011 5.17544e-012 -1.67945e-012 2.35377e-011 1.61072e-011 6.94538e-012 -2.36691e-012 3.747e-012 -1.88337e-011 1.73911e-011 -5.4586e-012 1.9824e-011 -5.12259e-012 -1.88475e-012 -1.4687e-011 8.82461e-012 1.07562e-011 -1.37452e-011 -2.32824e-011 -1.2819e-011 2.06463e-011 2.90604e-012 1.88131e-011 -7.195e-012 3.15661e-012 1.33143e-011 -1.87581e-011 -1.63052e-011 -9.21473e-012 -1.71612e-011 2.18232e-011 2.28424e-011 2.13497e-011 2.25416e-011 -1.29744e-011 -5.43568e-013 1.19737e-012 5.33362e-012 -2.06766e-011 -1.76968e-011 -2.29665e-011 -9.18562e-014 -5.42679e-013 -1.07774e-011 2.39765e-012 -7.50578e-012 1.94027e-011 -1.87186e-011 -2.13605e-011 -4.38282e-012 1.29852e-011 -1.7741e-011 1.152e-011 -2.27533e-011 -1.11159e-011 -1.42962e-011 -6.41982e-012 -1.73061e-011 2.34347e-011 -1.57916e-013 1.05107e-011 4.14001e-012 3.96492e-012 -1.42229e-011 -1.76217e-011 -7.66768e-013 3.18013e-012 -1.46979e-011 1.57738e-011 1.72869e-011 3.76047e-012 2.35477e-011 -1.49966e-011 -1.54421e-012 -1.10556e-011 7.17181e-012 -1.2072e-011 -2.64994e-012 -1.33687e-011 1.39266e-011 3.95569e-012 -7.3917e-012 1.58732e-011 -1.63366e-011 -4.43496e-012 6.05625e-012 2.25997e-011 1.04918e-011 -9.82687e-012 2.30506e-011 -3.17709e-012 2.27397e-011 1.64083e-011 -1.13391e-011 1.56658e-013 -6.78363e-012 -1.82195e-011 2.67278e-012 -3.82727e-012 1.5794e-012 1.37342e-011 -6.05739e-012 1.64851e-011 -6.25821e-012 3.31201e-012 -1.33935e-011 -9.93262e-012 9.54346e-012 -1.61589e-011 1.07744e-011 -6.33831e-012 2.18449e-012 -2.21349e-011 6.29078e-012 1.45421e-011 -8.68107e-012 -2.19009e-011 1.86652e-011 -8.9148e-012 -2.18986e-011 -1.88264e-011 1.44428e-011 -2.5016e-012 1.345e-011 1.71243e-011 -3.84094e-012 8.26322e-012 8.66165e-012 7.30801e-012 1.01458e-011 -1.55707e-011 -4.43516e-012 -2.22655e-012 1.1453e-011 1.0236e-011 -6.06738e-012 -1.36219e-012 -1.26808e-011 1.65425e-011 1.9269e-011 1.59091e-011 3.68945e-012 1.07396e-011 1.87022e-011 -1.64046e-011 -9.89758e-012 6.89687e-012 -5.4944e-012 -6.40312e-012 8.45483e-012 7.13998e-012 4.84199e-013 2.23041e-011 -1.65626e-011 -1.48634e-011 -1.64861e-011 -6.66041e-012 -1.17497e-011 -7.68132e-012 1.826e-011 1.07904e-011 1.01866e-011 -4.32538e-012 5.01795e-012 1.56546e-011 1.58679e-011 -1.593e-011 7.1427e-012 1.34e-011 1.42087e-011 -2.311e-011 1.47026e-011 -1.09245e-011 -2.24494e-011 -1.90258e-011 8.37263e-012 -2.08245e-011 -2.5532e-012 1.68737e-011 -1.45514e-011 2.03689e-011 7.13743e-012 2.28048e-011 1.05642e-011 -2.06814e-011 -1.35775e-012 -1.75913e-011 -9.48757e-012 2.26275e-011 -2.04932e-011 1.65386e-011 8.53499e-012 -1.95443e-011 -8.82011e-012 -1.72837e-011 -1.30421e-011 -7.1564e-012 1.68502e-011 -1.6295e-011 2.26288e-011 -1.03807e-011 2.33898e-011 1.85654e-011 1.73086e-011 1.07064e-011 1.34886e-012 -1.34141e-012 -1.21445e-011 1.66648e-011 -4.24237e-012 8.33993e-012 -3.2147e-012 2.61843e-013 -2.16727e-011 2.23833e-011 1.29885e-011 2.19878e-011 -2.05968e-011 -2.28141e-012 -1.75989e-011 -7.41268e-012 1.23909e-011 1.06992e-011 -1.91267e-011 5.57081e-012 1.59224e-011 -1.42993e-011 -5.69896e-012 -1.64686e-011 -1.78257e-011 -1.01221e-011 6.87033e-012 -2.19326e-011 -2.35343e-011 -2.08282e-011 -1.41656e-011 -1.46143e-011 1.76221e-011 -1.52186e-011 -8.94731e-012 1.91289e-011 1.37552e-011 -2.00342e-011 -1.28612e-011 -1.14804e-011 -1.40157e-011 -6.77698e-012 -1.80604e-011 -5.40068e-012 2.03673e-011 5.62407e-012 -2.29322e-011 -1.7751e-011 2.49976e-012 -2.12498e-012 1.70824e-012 2.03795e-011 8.59611e-012 -4.66635e-012 -2.24392e-011 1.03637e-012 -1.82443e-011 1.1861e-011 -9.51865e-012 3.49484e-012 -1.60737e-011 -2.37342e-011 2.11858e-011 1.83932e-011 2.17618e-012 -8.32449e-012 1.95426e-011 -1.01645e-011 1.15983e-011 -1.54748e-011 1.62486e-012 -1.4261e-011 -1.23291e-011 -1.52675e-011 2.30714e-011 -2.6072e-013 1.58374e-011 4.12376e-012 -1.44335e-011 1.55585e-011 -1.04191e-011 -6.28502e-012 -1.65363e-011 -1.12387e-011 1.19278e-011 -1.55891e-011 2.35136e-011 1.92808e-011 -1.78115e-011 -2.14611e-011 -1.06621e-011 1.47959e-012 -6.67344e-012 -1.71562e-013 2.06091e-011 3.96495e-013 1.60321e-011 -1.40117e-011 -1.80806e-011 2.00851e-011 2.0455e-011 2.2746e-011 2.92226e-012 -1.72505e-011 3.99256e-012 1.06679e-011 -1.04164e-011 -4.61924e-012 2.20164e-011 1.2239e-011 7.3237e-012 1.72519e-011 1.15755e-011 2.00522e-011 -1.81812e-011 -2.13495e-011 -2.63656e-012 2.01126e-011 -1.53985e-011 2.15474e-012 1.07305e-011 1.00594e-011 -1.63693e-012 1.26714e-011 -1.73393e-011 -1.02823e-011 -5.15252e-012 1.9887e-011 1.20579e-011 -2.00028e-011 -2.05804e-011 1.38246e-011 2.34703e-011 -1.35842e-011 -1.25957e-011 1.16141e-011 -6.15918e-013 1.38204e-011 -1.81562e-011 -1.01706e-011 -3.42875e-012 2.25418e-012 6.11921e-012 1.71826e-011 -9.74763e-012 -1.29004e-011 4.75334e-012 1.64741e-011 -2.11219e-012 -1.08958e-011 4.70714e-012 8.78073e-012 2.365e-011 -1.49142e-011 2.336e-011 1.79205e-011 2.19041e-011 -3.99311e-012 -1.12573e-011 6.6132e-012 -7.31779e-012 -1.04524e-011 -1.06005e-011 -7.25088e-012 -1.32154e-012 9.07222e-012 3.04383e-012 1.39791e-011 1.6871e-011 -2.17648e-011 -1.57508e-011 -1.54955e-012 -2.75497e-012 -1.03136e-011 1.78471e-013 -5.1779e-012 1.10592e-011 4.55134e-012 1.55721e-011 -1.62404e-011 -2.1258e-011 -1.75915e-011 -2.68818e-012 -1.00483e-011 -1.73457e-011 1.2678e-011 -1.43644e-011 -6.30105e-012 4.94869e-012 -1.03359e-011 2.11827e-011 1.16694e-011 -2.09141e-011 -2.08597e-011 4.49449e-012 -1.59369e-011 -1.0008e-011 -2.16264e-011 7.2861e-012 -1.09976e-011 2.3245e-012 1.7989e-011 1.70505e-011 -1.57371e-011 -2.25097e-011 -9.5473e-012 -4.20773e-012 -6.00924e-012 -1.55617e-011 5.32846e-012 1.74547e-011 6.97814e-012 1.66329e-011 1.36725e-011 -8.97803e-014 -1.31474e-011 2.31453e-011 8.62164e-013 1.40993e-011 -4.97004e-012 8.76854e-012 1.50874e-011 6.33865e-012 1.10876e-011 -6.36073e-012 -5.29409e-012 2.07144e-011 -9.91965e-012 1.61085e-012 1.14633e-011 3.98589e-012 5.09754e-013 -3.05093e-012 -8.371e-012 -1.44236e-011 -1.0154e-012 1.56585e-011 2.23237e-011 1.03695e-011 -2.00285e-011 -2.04076e-011 -5.35967e-012 -5.94302e-012 9.73555e-012 -1.75591e-011 -3.60769e-012 7.91813e-012 -2.13744e-011 2.37648e-011 6.95786e-012 -5.50162e-012 -1.82874e-011 -1.84102e-011 -1.35573e-011 -1.65002e-011 7.51674e-012 -7.02388e-012 -1.27178e-011 -1.42218e-011 1.92228e-011 -1.22062e-011 -5.22071e-012 1.15259e-011 1.15477e-011 2.01148e-011 -1.00039e-011 6.55159e-012 -8.95769e-012 -2.47667e-012 7.57958e-012 -1.85483e-011 1.32667e-011 1.48011e-011 7.68379e-012 -1.08032e-011 -1.347e-011 -1.76e-011 1.97982e-011 5.35427e-012 5.25472e-012 8.57925e-012 1.45985e-011 -1.57811e-011 -4.31526e-012 -2.05471e-011 -7.40724e-012 -1.83323e-011 -2.36337e-011 1.40201e-011 7.07407e-013 2.22899e-011 1.02047e-011 -1.01684e-011 -8.38092e-012 -2.49364e-014 -4.27196e-012 2.71939e-012 -2.94888e-012 4.26747e-012 -6.61424e-012 -1.29415e-011 -1.16539e-011 2.23746e-011 1.42457e-011 7.87432e-012 -8.54203e-012 -1.23288e-011 1.1353e-011 -8.34448e-012 4.14688e-012 -8.49778e-012 -1.24971e-011 -1.54548e-011 1.97897e-011 -1.36771e-011 -1.65824e-011 -2.79775e-012 1.31929e-011 3.11463e-012 -2.01776e-011 2.31221e-011 -1.54699e-011 1.20736e-011 1.65204e-011 2.32309e-011 1.54119e-011 1.81032e-011 -8.72104e-012 2.29694e-012 -2.25401e-011 -1.72689e-011 1.53765e-011 -1.67108e-011 -2.06727e-011 -1.18862e-011 1.14987e-012 -1.55486e-011 2.15049e-011 9.97439e-013 -1.84734e-013 -5.69687e-013 1.68785e-011 -9.48898e-012 -2.22454e-011 -1.44791e-012 9.10591e-012 3.81083e-013 8.48801e-012 -5.85194e-012 -5.93451e-013 6.42963e-012 -1.11343e-011 2.1807e-011 1.14839e-011 -1.92699e-011 1.78072e-011 7.84947e-012 -3.5244e-013 -1.69355e-011 1.41097e-011 1.04416e-011 1.42475e-011 1.85131e-011 -1.17965e-011 -1.2852e-011 2.16501e-011 -8.6814e-012 -1.90919e-011 1.28931e-011 -3.5141e-012 -1.74728e-011 9.78165e-012 2.52815e-012 -4.04775e-012 -2.13478e-011 2.17247e-011 -1.05932e-011 1.46508e-011 1.64572e-011 -1.98308e-011 -1.85617e-011 1.94088e-011 -1.50396e-011 5.42589e-012 -2.23865e-011 -1.11235e-011 3.87127e-012 -6.13932e-012 1.84763e-011 -2.18986e-011 -1.51539e-011 -1.20567e-011 2.18398e-011 9.09604e-012 1.00587e-011 -1.09246e-011 -1.44972e-011 2.2923e-011 6.37878e-012 -7.87113e-012 -1.97081e-011 1.99233e-011 -2.09879e-011 -1.98835e-011 1.89484e-011 -7.03863e-012 -1.51526e-011 -6.33559e-012 2.15847e-011 -1.12952e-011 -1.50328e-011 -1.26122e-011 1.03245e-011 1.30592e-011 1.85227e-011 -1.33344e-011 -1.42507e-011 2.13826e-011 1.28487e-011 1.56902e-011 -1.04089e-011 8.72286e-012 -1.77216e-011 -2.1399e-011 -1.86993e-011 9.6629e-014 2.21772e-011 2.01609e-011 7.34453e-012 8.89097e-012 -3.07435e-012 -1.89793e-012 1.89053e-011 4.26381e-013 -1.76871e-011 -4.65648e-012 -1.41951e-011 -4.2034e-012 -5.32053e-012 1.1833e-011 -4.92924e-012 -1.8555e-012 -2.36741e-011 3.03273e-012 1.24057e-011 -2.09666e-011 -1.85634e-011 2.28077e-011 -7.57291e-012 1.50994e-011 1.94601e-011 -3.89571e-012 -9.3742e-012 -5.07676e-012 1.71471e-011 1.24389e-011 9.6788e-012 2.13458e-011 -1.54876e-011 2.50485e-012 1.807e-011 8.55209e-012 -1.41931e-011 1.51576e-011 -1.18977e-011 -2.16397e-012 8.48483e-012 1.98774e-011 1.52852e-011 -8.45104e-012 1.61894e-011 -2.42757e-012 -1.17637e-011 -1.33643e-011 1.85741e-012 -1.67247e-011 -6.67848e-012 7.42007e-012 1.35361e-011 -1.24547e-011 1.85452e-011 6.0638e-012 -2.13279e-011 8.42794e-012 -2.37123e-011 -1.78744e-011 1.77406e-011 7.07821e-012 1.95514e-011 1.34317e-011 -1.33435e-011 1.73101e-011 -1.85104e-011 -2.67536e-013 -1.5718e-011 1.97976e-011 9.47569e-012 2.06687e-011 -1.30624e-011 -2.12321e-011 2.11373e-011 2.6872e-012 -1.77294e-011 -9.43426e-013 -9.44587e-012 1.19207e-011 -1.94452e-011 1.80691e-011 -1.43902e-011 8.43473e-012 1.96741e-011 1.14915e-011 -1.45433e-011 -1.29734e-011 6.84057e-012 1.26719e-011 -2.03263e-011 3.1971e-012 -1.63499e-011 2.08692e-011 2.18654e-011 -1.42694e-011 -2.30455e-011 2.01812e-011 -5.1152e-012 -1.58221e-011 -1.71759e-011 2.26358e-011 -1.17241e-011 4.58701e-012 2.14316e-011 2.08156e-011 -8.98832e-012 1.13358e-011 1.75982e-011 -1.54475e-011 3.12662e-012 1.66648e-011 2.37951e-011 1.51908e-011 -4.7343e-012 2.35255e-011 1.68137e-012 -2.09308e-011 8.52182e-013 1.60173e-012 1.29176e-011 -5.59924e-012 1.81241e-011 -1.11055e-012 -1.21793e-011 -2.20776e-011 -2.26057e-011 -7.60466e-012 1.93374e-011 -2.05422e-011 6.9202e-012 2.20465e-011 -1.08291e-011 1.0499e-011 -5.55362e-012 1.65979e-011 -1.16863e-011 2.00802e-011 -6.39938e-012 1.05277e-011 -5.24061e-012 -5.51448e-012 -1.08627e-011 5.02318e-012 4.3079e-012 4.72979e-013 1.54038e-011 -1.71023e-011 -2.85516e-012 1.97792e-011 9.3426e-012 1.86589e-011 1.44605e-011 -1.0158e-011 7.24002e-012 2.23854e-012 -1.99988e-011 1.79866e-011 -3.32593e-012 1.36342e-011 1.74207e-011 -2.15922e-011 2.01149e-012 1.11967e-011 1.31243e-011 -1.31415e-011 -1.76101e-011 2.10609e-011 -4.09782e-012 -1.57484e-011 1.07367e-011 9.78606e-012 1.34575e-011 1.46843e-013 1.35569e-012 2.95804e-012 1.07313e-011 -6.95341e-012 2.05255e-011 -1.7604e-012 2.01333e-011 2.41384e-012 -2.30012e-011 -1.92728e-011 -5.62077e-012 4.1462e-012 -2.7626e-012 -8.36936e-012 -9.79745e-012 -5.5304e-013 -1.19782e-011 4.63855e-012 2.36517e-011 -1.77559e-011 2.22187e-011 1.56201e-011 -2.27118e-011 1.30808e-011 8.5504e-013 1.51799e-011 1.15514e-011 -1.38794e-011 1.7407e-011 2.24154e-011 -4.5852e-012 -2.58554e-012 1.15761e-011 5.75081e-013 -4.04018e-012 -2.08152e-011 -8.86056e-012 -8.43699e-012 1.29479e-011 2.35519e-011 6.50226e-012 3.4534e-012 -1.46527e-011 1.30003e-011 -3.44829e-012 1.10011e-011 -1.19987e-011 -1.6578e-011 7.73431e-012 1.39613e-011 -1.45926e-011 -2.02091e-011 -3.90059e-012 -1.03195e-011 1.68376e-011 2.35009e-011 -1.077e-012 5.75948e-013 -9.39685e-012 1.3047e-011 -1.84678e-011 1.70899e-011 1.56219e-011 -2.2056e-011 -2.17819e-011 1.73171e-011 -2.21864e-011 -1.61439e-011 8.71998e-005 1.06759e-006 9.88915e-006 1.74142e-006 2.58892e-006 1.77569e-006 -1.93117e-005 2.80578e-005 -5.40379e-007 9.07878e-006 2.2687e-007 1.52312e-005 3.45343e-005 -7.33463e-007 7.47383e-006 5.13163e-006 1.21379e-005 -6.82833e-006 1.27434e-005 -9.79265e-007 8.19171e-006 1.4489e-005 -7.58432e-007 -1.14988e-006 4.61425e-005 8.40242e-008 5.70926e-006 0.000174741 -4.42059e-005 2.18246e-005 5.52623e-006 -2.22739e-006 1.16596e-005 9.62398e-006 4.84638e-005 -1.78186e-005 4.3111e-005 -2.21566e-006 1.48897e-005 1.59595e-005 -3.99941e-005 3.30039e-006 -9.16144e-006 -3.56666e-005 3.77507e-006 8.15298e-005 5.70067e-006 4.30329e-005 -4.71098e-005 1.21357e-006 1.34268e-005 4.53745e-005 -5.63886e-006 -4.55351e-008 -2.09604e-005 -1.73959e-005 7.68583e-007 1.31203e-005 -1.63884e-005 1.6622e-005 -5.17465e-006 -5.43083e-005 2.83352e-007 0.000113083 9.82982e-006 5.43733e-006 -3.35975e-005 -8.79654e-005 6.79755e-007 9.24236e-006 5.01086e-008 -5.12595e-006 7.33323e-006 1.07897e-005 -4.02782e-005 1.21765e-005 -6.17776e-007 0.000116945 -9.98312e-006 6.0984e-006 7.04344e-005 2.17836e-005 1.10347e-005 3.34814e-005 9.06219e-005 5.51119e-005 1.19972e-005 -5.09527e-006 1.61232e-006 1.56676e-005 2.26206e-005 -3.42379e-009 2.4837e-005 6.85086e-006 -5.6078e-007 1.19576e-006 2.46166e-005 -3.84889e-007 -1.85276e-006 2.62099e-006 -1.88492e-007 3.58934e-005 5.07144e-005 -3.69437e-006 3.8265e-005 8.84788e-006 5.23733e-006 -2.59203e-006 -8.92575e-006 3.77364e-005 3.68609e-005 -7.29403e-007 2.63861e-007 4.06895e-006 2.2341e-006 1.92966e-005 1.32705e-007 4.72899e-005 -1.2862e-006 -1.08726e-005 -2.77749e-005 3.88921e-005 7.71437e-006 1.96246e-005 2.96351e-005 8.10108e-005 4.22345e-005 9.26009e-007 -7.90788e-005 1.04885e-006 2.13745e-005 -6.6765e-006 5.56504e-005 -3.21529e-006 6.31632e-007 5.20537e-005 -1.83781e-006 9.38644e-006 -9.81362e-006 9.76742e-006 -3.23511e-007 2.40975e-006 8.81614e-007 4.02957e-005 -1.96789e-006 7.02247e-005 6.78106e-006 6.63854e-007 -3.29645e-006 1.43022e-006 1.27388e-005 -2.92359e-005 7.14461e-007 -5.03345e-006 6.9299e-005 2.93693e-006 -3.10141e-005 4.23974e-005 2.75346e-005 1.1352e-006 -1.04982e-005 1.47234e-005 -5.89318e-005 -6.27234e-007 3.50348e-006 6.4851e-005 -7.60582e-006 4.38481e-007 -9.11501e-006 -9.90629e-007 -7.82337e-006 8.08423e-007 -4.65117e-006 -1.37927e-005 3.45472e-007 0.000184081 5.59339e-007 3.65978e-005 7.17507e-007 0.000100994 3.1168e-006 2.9012e-007 6.61855e-006 1.57737e-005 8.47784e-005 4.84016e-008 -3.2568e-005 -2.47192e-006 3.61578e-006 4.01098e-005 4.56082e-007 9.2048e-007 2.67824e-005 0.000122759 -1.41008e-006 -3.55739e-005 3.48209e-005 2.14792e-005 -4.86666e-007 4.74929e-007 -1.97817e-011 -3.75155e-012 8.32163e-012 1.40066e-011 6.26726e-012 -1.8363e-011 2.24144e-011 -2.28298e-011 1.28817e-011 1.85325e-011 1.54605e-011 9.53846e-012 -3.83718e-012 -4.60106e-012 4.14827e-012 -5.31313e-012 -6.82494e-012 3.0283e-012 1.5086e-011 1.80237e-011 -2.94925e-012 3.12193e-012 3.77859e-012 -1.78515e-011 -1.5538e-011 -3.67309e-012 -9.65131e-012 2.36494e-011 2.11879e-011 -1.64897e-011 1.26514e-011 -4.00817e-012 -5.10797e-012 -6.14813e-013 -1.27327e-011 1.91901e-011 1.73416e-011 -1.75418e-011 -1.75257e-011 1.76737e-011 2.82431e-012 1.97058e-011 -1.85854e-011 -2.37744e-011 -2.32705e-012 -1.23426e-011 -2.54964e-012 1.7391e-011 7.26359e-012 1.21471e-011 9.67533e-012 1.79516e-011 9.32885e-012 -1.4238e-011 1.19504e-011 -1.16357e-012 -1.59272e-011 -2.25906e-011 -2.978e-013 1.75322e-011 -6.89847e-012 2.23057e-011 2.19319e-012 5.52172e-012 1.40074e-011 8.64964e-012 -1.86976e-011 6.9619e-012 -1.48851e-011 -2.15454e-011 1.4186e-011 -2.01499e-011 -2.27808e-011 -1.14865e-011 -1.45527e-011 -1.69329e-012 1.80618e-012 -2.47986e-012 -7.87865e-012 2.10982e-011 1.94691e-011 -7.00213e-012 -1.62528e-011 -1.52809e-012 -1.55541e-011 -1.79156e-011 -1.23104e-011 1.31089e-011 1.54772e-011 -1.54822e-011 -2.17462e-011 1.88758e-011 1.76337e-011 4.93776e-012 8.07107e-012 -4.50519e-012 -1.74235e-011 -5.05932e-012 9.0575e-012 1.83884e-011 9.2977e-012 -1.2412e-011 2.08494e-011 1.97582e-011 5.37166e-012 1.12739e-011 -1.76789e-011 1.23227e-011 -1.99513e-011 7.30411e-012 3.17655e-012 1.73336e-011 1.91789e-011 5.14845e-012 2.3476e-011 -8.12365e-013 -8.15868e-012 -2.00493e-011 1.91987e-012 1.42929e-011 1.03717e-011 1.95779e-011 2.29052e-012 1.77636e-011 -1.85509e-011 2.0145e-011 2.35517e-012 -4.98725e-012 -2.25638e-011 -1.03521e-012 -4.99864e-012 6.11991e-012 1.41342e-011 -2.28976e-011 -2.04719e-011 1.26068e-012 3.74154e-012 -9.08862e-012 -6.62473e-013 -1.78433e-011 1.7317e-011 1.8619e-012 7.53347e-012 1.17766e-011 1.03966e-011 -2.4191e-012 1.4183e-012 -8.80814e-013 1.11642e-011 1.6476e-011 -4.75977e-012 1.70473e-011 1.51997e-011 -1.29338e-011 -1.16335e-011 -7.37852e-012 -2.03171e-011 9.01582e-012 -8.14962e-013 2.35276e-011 9.66957e-012 6.84981e-012 -6.19149e-012 1.65933e-012 -1.89941e-011 -1.7339e-011 -2.52678e-013 1.80826e-011 1.2284e-011 -1.89214e-011 -7.97661e-012 -1.21991e-011 1.88527e-011 -7.4387e-012 1.92428e-012 -1.16491e-012 3.2317e-012 -3.19969e-012 -2.23974e-011 -1.68875e-011 -9.42511e-012 -2.05911e-012 2.71187e-012 -8.80503e-012 -3.20751e-012 -1.23592e-012 -2.72334e-012 7.62175e-012 1.18366e-011 1.96376e-011 1.59867e-011 -2.93832e-013 2.29466e-012 -1.27373e-011 -1.91481e-011 -1.17227e-011 1.40074e-011 2.2851e-011 8.62826e-012 2.15354e-011 -1.57218e-011 1.48816e-011 -8.91443e-012 -1.21348e-011 2.29897e-011 6.57615e-012 -1.5885e-011 -8.22888e-012 -1.835e-011 -1.90215e-011 2.23345e-012 6.53826e-012 7.614e-012 1.5199e-011 -1.39808e-011 -1.56157e-011 -3.63901e-012 1.6131e-012 -1.5169e-011 2.17388e-011 9.61156e-012 -9.4293e-012 -5.27177e-012 6.30204e-012 -7.86278e-012 2.15948e-011 -1.22987e-012 -6.14418e-012 6.20713e-012 1.43798e-011 1.45207e-011 -1.51077e-011 1.51566e-011 -8.31081e-013 -2.3176e-011 1.59884e-011 2.23536e-011 1.99397e-011 -1.83146e-011 2.18346e-011 -3.99145e-012 -1.45862e-011 -2.09943e-011 1.4484e-011 9.07746e-012 -5.06409e-012 -1.6704e-011 5.25572e-012 3.97503e-012 -9.84427e-012 -2.30003e-011 3.22932e-012 4.54773e-012 -7.25247e-012 -1.6366e-011 -3.71129e-012 8.51556e-013 -1.91997e-011 1.08184e-011 -7.83359e-012 -1.1417e-011 -2.25319e-011 1.07441e-011 2.29674e-011 -2.33291e-011 2.22827e-011 4.6185e-012 1.03502e-011 -8.05573e-012 -5.27416e-013 2.20156e-011 3.37306e-012 7.97488e-012 8.85734e-013 7.62538e-012 -2.03208e-011 -1.03345e-011 -2.17249e-011 -1.52941e-012 -1.14504e-011 1.84115e-011 1.35944e-011 1.93185e-011 1.05353e-011 1.35156e-011 2.2319e-011 1.39444e-011 -1.94175e-012 8.79416e-012 -4.44725e-012 2.33755e-012 -1.86147e-012 -7.98711e-012 -6.71104e-012 -1.24169e-011 -2.0799e-011 -3.93103e-012 1.93129e-011 -1.58779e-011 7.394e-012 -8.21931e-012 1.92463e-011 9.36367e-013 -2.15218e-012 -6.15826e-012 -2.67958e-012 2.00718e-011 8.4134e-012 6.73732e-012 -1.23031e-011 -2.50986e-012 4.75353e-012 4.96053e-012 1.80599e-011 -9.37313e-012 2.78183e-012 -1.56082e-011 2.01164e-011 2.20555e-012 1.06989e-011 -1.03956e-012 -1.17449e-011 6.81012e-013 -1.8209e-011 1.77874e-011 1.75591e-012 -2.36341e-011 2.9376e-013 -1.1956e-011 1.33474e-011 2.08622e-011 -1.20557e-011 -8.28083e-012 3.36016e-012 -9.57025e-012 4.11621e-012 -1.02135e-011 -1.01564e-011 1.30139e-011 -4.21124e-012 -1.31984e-011 9.38447e-013 3.46787e-012 -2.75552e-012 1.58804e-011 2.08033e-011 5.88824e-012 -3.32169e-013 1.02664e-011 -1.69373e-011 1.35718e-011 -3.84001e-012 -2.29557e-011 8.66523e-013 1.79054e-011 1.12764e-011 2.317e-012 -2.3362e-011 -2.36667e-011 1.73431e-011 1.46031e-012 -9.60728e-012 1.99412e-011 1.81145e-013 -7.01764e-012 1.7063e-011 2.25958e-011 1.27505e-012 1.72107e-011 1.00697e-012 -1.3556e-012 2.32816e-011 -1.73299e-011 -4.03119e-012 -1.52889e-011 -2.98745e-012 -8.80887e-012 -8.69899e-012 2.05505e-011 2.33356e-011 9.53649e-012 4.30291e-012 -5.00657e-012 7.75285e-012 -9.44939e-012 -1.44753e-011 -2.17444e-011 -1.23971e-011 -3.88975e-012 -3.51867e-012 -3.39744e-012 -2.03382e-011 2.31446e-011 1.68007e-011 -1.99328e-011 -4.95842e-012 3.31206e-012 -5.44834e-012 6.87905e-012 -8.95376e-012 2.10052e-011 1.62731e-011 -1.78489e-011 -8.89195e-012 -1.65809e-011 -3.93183e-012 -7.06208e-012 1.01299e-011 1.64593e-011 7.72471e-012 -5.59035e-012 7.45179e-012 -2.36814e-011 1.14533e-011 -2.27547e-011 3.36303e-013 2.01891e-011 -1.99343e-011 -1.8207e-011 -7.36071e-012 -3.06215e-012 1.89043e-011 -2.13051e-011 -7.81988e-012 1.19627e-012 1.48136e-011 3.87899e-014 -1.449e-011 1.54696e-012 1.55323e-011 2.58793e-012 1.2507e-011 4.78061e-012 5.96474e-012 2.16142e-011 2.28464e-011 6.47121e-013 2.67227e-012 -1.9396e-012 2.08697e-011 -1.3388e-011 -8.95451e-012 -2.0139e-011 1.79219e-011 2.20553e-013 -1.3097e-011 1.03297e-011 1.02621e-011 9.78552e-012 -1.19499e-013 8.79814e-012 1.8444e-011 2.13877e-011 -1.34071e-011 5.63271e-012 1.73983e-011 -1.91368e-011 -1.73068e-011 -6.52143e-012 6.27994e-012 -1.21342e-011 -7.94603e-012 9.35026e-012 -1.66303e-011 -4.31678e-012 -8.01601e-012 -1.95187e-012 1.00044e-011 -9.42005e-012 -2.31242e-011 1.6582e-011 -1.56044e-011 7.51249e-012 -1.99017e-013 -2.23898e-011 -1.51372e-011 -1.73311e-011 -2.00016e-011 4.3222e-012 1.54925e-011 -1.73485e-011 9.33071e-012 1.10692e-011 -6.62834e-012 1.90043e-011 -1.46401e-011 -1.6149e-011 7.3227e-012 1.33586e-011 6.27041e-012 -2.21204e-011 -6.8121e-012 -4.01951e-012 -1.14232e-011 1.30019e-011 -2.14665e-011 -1.9101e-011 -1.89049e-011 -2.09436e-011 1.38384e-011 1.66312e-011 -4.06762e-012 -7.57087e-012 1.23324e-012 -7.52145e-012 1.3077e-011 1.25277e-011 -1.56414e-011 -1.74448e-012 -1.41157e-011 -1.49494e-011 7.08471e-012 -6.96185e-012 -1.28864e-011 1.53972e-011 9.08648e-012 6.12425e-012 8.6498e-012 -1.47411e-011 -1.77111e-011 -1.6443e-011 4.31584e-012 1.04863e-011 1.79126e-011 1.03724e-011 -8.64128e-012 -1.93056e-011 6.91948e-012 -2.08495e-011 -9.09986e-012 2.3139e-011 1.18377e-011 1.64185e-011 -1.06047e-012 2.31029e-011 9.47161e-012 2.0833e-011 1.93169e-011 5.60274e-012 -7.67981e-013 -2.15666e-011 1.56044e-011 -6.44015e-012 4.01604e-012 2.28525e-011 1.02656e-011 1.54704e-011 -2.24653e-011 -1.67104e-012 5.79076e-012 1.26894e-011 1.93861e-011 1.62523e-011 2.07343e-011 1.22805e-011 -2.17006e-011 1.19473e-011 9.59729e-012 -1.41685e-011 2.23525e-011 1.4598e-011 -1.43942e-011 -2.34689e-011 -8.08446e-012 6.49135e-012 -6.44158e-012 8.92591e-012 7.10121e-012 -1.52824e-011 -8.36764e-012 -6.66373e-012 -9.19575e-012 -1.43246e-011 -1.5088e-012 2.14513e-011 -1.96846e-012 -7.36187e-012 -1.65586e-011 6.2962e-014 1.70481e-011 -1.46898e-011 -1.05303e-011 -2.14358e-011 2.07969e-011 1.04644e-011 -2.2166e-011 -3.03534e-012 -2.0187e-012 2.66596e-012 1.33999e-011 -1.92219e-011 1.4291e-011 1.74437e-011 -1.23402e-011 1.6079e-011 -2.21833e-011 -9.86726e-012 -1.20134e-011 -6.15105e-012 1.23383e-011 6.90159e-012 -5.78049e-012 -2.32177e-011 3.94215e-012 2.18695e-011 -1.40329e-011 2.00202e-011 2.10345e-011 -5.92791e-012 -1.76547e-011 3.7517e-012 1.84234e-012 -9.71943e-012 1.47826e-011 3.08614e-012 -1.6367e-011 1.57115e-011 -5.1405e-012 -8.32407e-012 -1.6536e-011 -2.72428e-012 -7.86369e-012 1.84784e-011 -3.67927e-012 8.44127e-012 1.74187e-011 -1.19891e-012 -1.97639e-011 1.95062e-011 -8.29449e-012 -1.66237e-011 -2.2685e-011 2.97725e-012 1.86412e-011 -2.07156e-011 4.50978e-012 2.31202e-012 6.36281e-012 -6.79061e-012 -1.0281e-011 3.53211e-012 1.16143e-011 -1.81569e-011 9.38271e-013 -1.83736e-011 -1.83245e-011 -1.86453e-011 -1.44827e-011 1.08226e-011 -5.60027e-013 1.14246e-011 2.00532e-011 1.7644e-011 1.26929e-011 -1.33221e-011 1.72366e-011 -1.82762e-011 -9.87017e-012 -9.83831e-012 1.05306e-011 -3.80641e-012 2.34877e-011 -1.85624e-012 -1.11972e-011 4.35629e-012 -1.54307e-011 -1.36913e-011 -5.48672e-012 2.13852e-011 1.17325e-011 -1.32918e-011 -3.40198e-012 1.66367e-011 2.96098e-012 -1.41865e-011 -1.69133e-012 1.03654e-011 -7.82977e-013 4.74303e-012 -6.14985e-013 2.38161e-012 2.9922e-012 -2.26857e-011 4.16727e-013 -2.08928e-011 1.03463e-011 -3.52759e-012 -1.9373e-012 -2.15089e-012 1.21456e-011 -2.32375e-011 1.32841e-011 -1.26871e-011 -1.58655e-011 -2.10625e-011 -2.32661e-011 -8.6662e-012 1.23237e-011 2.03025e-011 6.83846e-012 -2.12559e-011 -2.27383e-012 9.39731e-012 2.25614e-011 2.24729e-011 1.83485e-011 1.55891e-011 1.28075e-011 9.93162e-012 -1.10394e-011 1.08787e-011 -2.03263e-011 6.33245e-012 1.83394e-011 -1.77435e-011 5.29424e-012 7.70575e-013 1.71975e-011 -8.93399e-012 -2.07071e-011 -2.61716e-012 1.97491e-011 -2.17453e-011 4.25181e-012 -1.17922e-011 -7.07444e-012 1.76176e-011 6.70874e-012 8.20198e-012 -1.34913e-012 -1.12567e-011 -1.24696e-011 5.98859e-012 2.05774e-011 -2.19561e-011 1.95078e-011 -1.17538e-011 2.3111e-011 -1.88867e-011 -1.98375e-011 6.92565e-012 2.35356e-011 -3.5719e-012 1.74128e-011 1.24461e-011 -1.89011e-011 -1.91601e-011 -1.19857e-011 1.49341e-012 9.41276e-012 2.77532e-012 3.49977e-012 -3.8439e-012 -1.10909e-011 -1.34585e-011 -1.89328e-011 2.05832e-011 -7.21896e-012 -6.95609e-012 -1.51239e-011 2.06058e-011 -2.20022e-011 -9.98311e-012 1.39408e-012 -1.03939e-012 -1.57034e-011 -1.86881e-011 -1.74473e-011 -4.59478e-012 -1.65982e-011 -1.7127e-011 -1.18092e-011 -1.35696e-011 5.36941e-012 -3.73246e-012 4.91458e-012 6.77619e-012 2.07132e-011 -1.43552e-011 -6.71506e-013 2.35962e-011 -2.27461e-011 -1.77365e-011 -1.76735e-011 6.99336e-012 -1.88878e-011 -1.03778e-011 -4.52369e-012 8.79034e-012 -7.87765e-012 -2.27484e-011 -2.27983e-011 -1.80531e-011 1.40192e-011 -2.75364e-012 3.36594e-012 2.57221e-012 -1.4612e-011 7.78647e-012 2.57762e-012 9.01982e-012 -3.17669e-012 -2.37651e-011 2.26467e-011 1.9469e-011 -2.32115e-011 6.51928e-012 -7.16975e-012 -1.77606e-011 1.86205e-011 -9.3722e-012 1.36683e-011 1.17711e-012 1.60845e-011 -1.29985e-011 1.95507e-011 2.76147e-012 -1.66969e-011 1.90786e-011 -1.99628e-011 -1.8016e-011 2.77067e-012 -1.42058e-011 6.66602e-012 1.84053e-011 -1.18638e-011 -1.97544e-011 -1.42714e-011 -1.13597e-011 1.6235e-011 5.4518e-012 -2.3551e-011 2.62762e-012 3.89694e-012 -1.68174e-011 1.47576e-011 -1.5728e-011 1.78506e-011 -2.33582e-011 3.20927e-012 2.10169e-011 -1.05763e-011 -9.80455e-012 -2.41529e-012 -8.45166e-012 -1.8905e-011 -4.94929e-012 1.71479e-011 1.84697e-011 -1.94911e-011 6.01335e-012 -6.69027e-012 1.7088e-011 -1.27142e-011 1.08388e-011 -2.34923e-011 -1.69392e-011 -1.97886e-011 -7.30043e-012 1.0429e-011 -1.89659e-011 1.71651e-011 -2.19301e-011 -9.40158e-012 1.86304e-011 -5.96791e-014 1.55398e-011 1.9462e-011 5.1775e-012 -1.24864e-011 -1.62414e-011 2.22888e-011 6.6333e-012 1.215e-011 8.21878e-012 -1.28209e-011 -7.842e-012 1.58327e-011 2.0536e-011 5.61795e-013 -4.19479e-012 -1.94188e-011 -2.34336e-011 -1.29766e-012 3.00306e-012 2.12473e-011 -1.36006e-012 -1.394e-011 2.1754e-011 -1.1156e-011 -8.7537e-012 6.5927e-012 -1.31414e-011 6.70468e-012 1.7998e-011 1.26508e-011 1.78929e-011 -2.29869e-011 2.07776e-011 2.69596e-012 1.41872e-011 -1.36419e-011 9.35418e-012 2.1268e-011 2.20608e-011 -1.1815e-011 2.30187e-011 5.41686e-013 -8.4636e-012 2.599e-012 -1.52209e-011 -1.80429e-011 -1.92491e-011 1.63373e-011 -1.53342e-011 -1.67843e-011 2.16822e-013 1.47714e-011 2.77773e-012 -1.54683e-011 1.86323e-011 6.83539e-012 -2.2984e-011 -2.05233e-011 -1.08471e-011 2.21192e-012 2.14503e-011 -2.19677e-011 2.10363e-011 9.90995e-012 -1.30455e-011 9.05455e-012 -2.05667e-013 