-0.00478307 -0.703633 -0.493267 -0.177267 -0.430222 -0.230942 -0.451997 -0.809463 0.1645 -0.0615399 -0.725241 -0.420824 -0.754841 -0.846558 -0.202306 -0.384728 -1.22556 -0.0966572 -0.623062 -0.43497 0.230237 -0.303704 -0.0237518 -0.769688 -0.205617 0.742484 0.758939 0.0118717 -0.650042 0.000685785 0.430246 0.502766 -0.166998 -0.156452 0.0950888 -0.0936656 -0.20716 -1.18202 0.397615 -2.05212 0.678078 -1.9434 0.587463 0.0488679 -0.0668748 0.341597 0.293665 0.963074 0.740388 -1.74938 -0.613998 -0.369289 0.329765 -0.804341 -0.320194 -0.43577 -0.0827622 -2.06844 -0.584478 -0.0126378 0.482098 -0.52601 0.293073 1.33246 0.0104057 0.241786 -0.886843 -0.0847399 0.0658677 0.0927959 -1.95216 -0.195949 0.765274 -0.887145 -0.183845 0.294354 -1.03431 0.296047 -1.17426 -0.106741 -0.0475032 -0.197808 -0.0310345 -0.33525 -0.13397 0.241941 -0.921507 -0.199821 -0.14228 0.831711 -0.219561 -0.386798 -0.208581 -0.187946 0.0106901 -2.05203 0.264641 -0.0639642 0.207205 -0.0528103 -0.629761 0.444841 1.04017 -2.01177 0.149522 -0.316158 -0.652678 0.468751 0.0478076 -0.244856 -0.0736044 0.23312 -0.168034 -0.31111 0.622166 -1.11442 -1.02954 -1.992 0.515078 0.533618 -0.587091 -1.42081 0.225738 -1.00353 0.0710392 -0.550082 1.10349 -0.241863 0.159315 -0.29117 -0.376775 -0.218344 -0.76387 -0.639408 -1.57692 -0.322233 -2.11949 -0.0249777 -0.800868 -0.0676171 0.0372801 -0.697684 -1.42345 -1.28422 0.356617 0.733653 0.495858 -0.164906 0.709399 0.220098 -0.0855879 0.0487274 1.19978 -0.358674 0.552314 -0.533387 0.412228 0.780355 0.234619 -1.35567 0.531493 0.581905 0.0170694 0.100167 0.434891 0.521839 -0.49205 -1.16922 -1.72757 0.571548 -0.311929 0.0886014 -0.603005 -0.493506 -0.281886 0.294437 -0.26141 0.0653149 0.321884 0.272928 -0.474805 0.160063 0.164699 -0.291809 -0.925102 -0.482412 -0.785418 -0.16459 0.273023 1.76604 0.365947 -0.218703 -1.96286 0.692592 0.116521 0.167678 0.126223 0.392296 0.526544 0.457993 -2.34158e-009 -1.31285e-009 2.08241e-009 9.1479e-010 9.7234e-010 1.98471e-009 -1.46821e-011 1.41928e-009 2.77938e-009 -2.76646e-009 1.3538e-009 -5.87554e-010 -2.29526e-009 1.61408e-009 -5.8828e-010 -1.3057e-009 -2.04834e-009 5.96422e-010 2.72343e-009 -1.29445e-009 -1.95921e-009 -1.35856e-009 -5.60057e-010 1.52122e-009 -1.11175e-009 1.49928e-010 9.0955e-010 1.14984e-009 2.24679e-009 -2.74682e-009 1.41864e-009 -2.04075e-010 5.81311e-010 1.55503e-009 1.47745e-009 8.43032e-010 -1.08442e-009 -2.30487e-010 -5.79999e-010 -2.39698e-009 1.30006e-010 -1.89116e-009 2.77381e-009 -2.54301e-009 -8.51609e-011 1.8211e-009 2.38078e-009 2.13449e-009 6.31018e-010 2.58571e-009 -1.18231e-009 2.16775e-009 2.18392e-009 1.20646e-009 -4.69992e-010 -2.75251e-009 1.57478e-009 -2.16069e-009 1.68991e-009 -2.60223e-010 -1.17117e-009 -2.41104e-009 -1.95325e-009 -7.58367e-010 1.61846e-009 2.15074e-009 1.26571e-009 -9.54314e-010 -1.47965e-009 2.48634e-009 -2.41989e-009 1.61756e-009 4.58601e-010 2.13424e-009 2.1221e-009 -7.30455e-010 1.84275e-009 -2.6291e-009 -2.60782e-009 1.53371e-009 1.26216e-009 1.49261e-009 -5.30506e-010 -9.86489e-010 1.24387e-009 -2.30618e-009 -7.14189e-010 -1.3401e-009 -2.1481e-009 2.31873e-009 -1.84018e-009 2.55172e-010 8.23636e-011 -1.24267e-010 -3.39545e-010 2.11949e-009 -2.34793e-009 -1.52883e-009 2.65053e-009 1.27362e-009 -1.30082e-009 -2.41264e-009 5.85477e-010 1.64983e-009 4.21289e-010 2.71809e-010 -7.79904e-010 1.04573e-009 -2.79779e-009 4.36536e-010 -1.39181e-009 3.33117e-010 6.10918e-010 1.08508e-009 -8.92927e-010 1.39869e-009 1.93397e-009 1.73465e-009 4.81805e-011 -5.39613e-010 4.9341e-010 8.59065e-010 2.49777e-011 -1.23641e-009 2.76459e-009 2.55599e-009 -1.33032e-009 2.44682e-009 4.15435e-010 3.59451e-011 1.03313e-010 -1.32486e-009 -9.52845e-010 -1.81343e-009 1.15451e-009 -2.07154e-009 5.33821e-010 2.37149e-010 -9.10387e-010 -2.71585e-009 -1.54083e-009 -9.23543e-010 -5.86681e-011 -2.20931e-009 2.79807e-009 2.04916e-009 1.45045e-009 -1.15086e-009 -6.67817e-010 -1.44314e-009 -1.72562e-010 1.00071e-009 -9.25046e-010 3.77824e-010 1.72949e-009 5.30604e-010 -1.68777e-010 -5.83447e-010 1.3959e-009 2.6764e-009 1.16621e-009 -2.56617e-009 -7.81716e-010 1.8964e-009 -2.20484e-009 -1.30364e-009 1.03069e-009 -1.23977e-009 -1.6447e-009 6.49828e-010 2.26784e-011 1.60161e-009 2.34267e-009 -1.33716e-009 1.50695e-009 -1.51693e-009 -1.6399e-009 9.92039e-010 1.25119e-009 -7.0752e-010 -5.33376e-010 6.61033e-010 1.72437e-010 -1.76421e-009 1.86516e-009 1.39606e-009 -9.28323e-011 -1.57052e-009 1.56191e-009 1.70939e-010 2.13716e-009 -2.04329e-009 -2.07793e-009 1.42785e-009 2.72936e-009 -1.21364e-009 -1.42734e-009 2.65733e-009 3.85437e-010 1.94753e-010 6.15107e-010 -1.27065e-009 -2.29913e-009 1.25722e-009 1.79818e-009 2.12468e-009 2.41661e-009 -1.21482e-009 1.07456e-009 -8.16487e-010 -1.55036e-009 -2.41689e-009 2.46608e-009 -1.4563e-009 5.90624e-010 -9.54206e-010 -2.44812e-009 -2.33791e-009 4.9343e-010 2.2008e-009 2.58141e-011 -1.7844e-009 -2.29329e-009 6.01847e-010 -1.91758e-009 -4.02161e-010 2.24279e-009 -9.64975e-010 3.37743e-010 -7.48851e-011 8.18195e-010 -9.96213e-010 1.06296e-009 1.99253e-009 1.31616e-009 9.24116e-010 1.70768e-009 1.49602e-009 7.31575e-010 8.52785e-010 -2.20802e-009 -2.76611e-009 -2.65359e-009 -6.72199e-011 1.64575e-009 8.66073e-010 -2.15159e-009 -2.63484e-009 2.76815e-009 -1.05531e-010 2.10111e-009 -2.77806e-009 -2.37333e-009 1.69426e-009 5.54993e-010 -1.60543e-009 1.11049e-009 2.59134e-009 -2.82122e-009 -2.04604e-009 -9.83015e-010 -1.08392e-009 1.01406e-009 -2.13957e-009 1.90673e-010 -1.22491e-009 -2.08633e-009 -2.32162e-009 8.66305e-010 -8.2683e-010 -1.87822e-009 -1.89065e-009 -1.01093e-009 1.97336e-011 2.74943e-009 -4.85239e-010 8.42183e-010 -2.32497e-010 2.42299e-010 1.93887e-009 -1.09104e-009 1.25748e-009 -1.06463e-009 -2.00069e-009 2.48395e-009 -2.06018e-010 -6.60762e-010 -2.4127e-009 7.00644e-010 2.38611e-009 2.43978e-009 2.51978e-009 -1.41875e-010 -1.73738e-010 -2.15295e-010 8.37727e-011 1.0459e-009 1.11827e-009 2.3596e-009 -1.64753e-009 2.54562e-009 -1.82893e-009 -2.65745e-009 8.75951e-010 -1.50157e-010 1.61327e-009 -1.00205e-009 -8.78828e-010 1.31202e-009 -2.10423e-009 -1.23335e-009 -1.36356e-009 2.36071e-009 2.74777e-009 -1.09871e-009 -1.64694e-009 1.13064e-009 -2.3382e-009 1.48079e-011 -6.96218e-010 -5.89245e-010 -1.85907e-009 5.44466e-010 -2.25656e-009 -1.08214e-009 1.26342e-009 4.16641e-010 -2.06217e-009 1.40578e-009 -2.02239e-009 -1.69407e-009 -1.58637e-009 -2.69488e-009 -6.5411e-010 2.46854e-009 1.3087e-009 2.14743e-009 2.45819e-009 2.4384e-009 -2.46811e-010 -1.68874e-009 -1.32902e-009 -5.13627e-010 1.47198e-009 1.98256e-009 -1.56911e-009 -6.16309e-010 1.82901e-009 -4.14214e-010 -6.94165e-010 -2.69811e-009 2.67289e-009 -1.34575e-009 -1.72444e-009 -1.12636e-009 1.47697e-009 -1.94131e-009 7.64884e-011 7.94095e-010 2.52258e-009 -7.51059e-010 2.84164e-009 -3.81197e-013 1.93858e-009 -2.78411e-009 2.94507e-010 -1.74948e-009 2.71962e-009 -2.52982e-009 -1.14299e-009 -2.64232e-009 -1.82315e-009 5.37405e-010 6.50837e-011 -1.32376e-009 -1.50783e-009 -1.7903e-009 9.24609e-010 2.29045e-010 -3.30709e-010 1.04432e-009 2.10557e-009 -1.15008e-009 -3.73651e-010 -2.82139e-009 1.10217e-009 -2.2476e-010 -2.2413e-009 1.11774e-009 -2.06315e-009 -1.09122e-009 2.50332e-009 -1.82178e-009 1.61487e-009 -8.08965e-010 -1.01978e-009 -7.08088e-010 -1.78619e-010 -2.5685e-009 2.4194e-009 2.8551e-010 -6.10874e-010 1.06796e-010 -1.51694e-009 -2.10447e-009 2.03263e-009 -6.90221e-010 2.22796e-009 1.88385e-009 -2.23012e-009 2.54309e-009 6.67127e-010 -1.70557e-009 -2.57525e-009 -2.03313e-009 2.31248e-009 1.28206e-009 -2.74536e-009 5.92478e-010 2.91099e-011 1.34168e-009 -1.43942e-009 -1.16229e-009 -8.60903e-010 -2.18055e-009 -8.75935e-010 2.18422e-009 -9.01788e-011 1.63386e-009 -5.0964e-010 -2.56845e-009 2.03995e-009 1.27629e-009 3.41359e-010 -1.4133e-009 -1.57077e-009 7.79153e-010 1.71621e-009 -1.67868e-009 -7.72097e-010 -4.80408e-010 1.78109e-009 -5.11741e-010 -5.18732e-010 2.5527e-010 -1.88539e-009 1.89192e-009 -1.87893e-009 -1.63716e-009 -5.93082e-010 8.65008e-010 6.88255e-011 -1.48545e-009 -2.05248e-009 -3.61987e-010 -1.00279e-009 6.6552e-010 -2.26688e-009 -3.771e-010 -2.55126e-009 2.18389e-009 -3.60078e-010 -2.74446e-009 -2.09772e-009 1.16775e-010 -1.85017e-009 2.34638e-009 -5.97292e-010 2.39058e-009 -2.749e-009 -2.23692e-009 -9.32945e-010 2.0752e-009 -2.69578e-009 -1.12202e-009 2.78259e-009 -2.27908e-009 -1.44466e-009 1.14776e-009 1.2291e-009 1.61124e-009 -7.10976e-010 7.67507e-010 -2.06827e-009 -2.48774e-009 1.25662e-009 1.76498e-009 -2.05465e-009 1.19104e-009 -2.78301e-009 1.52045e-009 -1.58627e-009 4.71756e-010 1.43437e-009 -2.70753e-009 2.11601e-009 2.16005e-009 1.41244e-009 -9.73359e-010 8.31215e-010 -1.66796e-009 -2.22684e-009 -1.48103e-009 2.75179e-009 1.98314e-009 1.14439e-009 2.7154e-009 2.31788e-009 -2.62256e-010 2.6557e-009 9.70315e-011 7.26387e-010 -1.8045e-009 2.75609e-009 2.31392e-009 -1.83458e-009 -1.96087e-009 2.3768e-009 -2.19283e-010 -1.83631e-010 2.65448e-009 2.01128e-010 -1.46951e-009 8.11587e-010 -8.95571e-010 -1.86531e-009 -1.84395e-009 1.99221e-009 -1.3842e-009 8.20214e-010 -2.40254e-009 3.46479e-010 -6.17085e-010 -9.41753e-011 6.10103e-010 -2.6735e-009 2.31562e-009 1.70774e-009 -4.59911e-010 2.0485e-009 -1.31301e-009 5.8397e-010 -2.25174e-009 2.14177e-009 -4.04304e-010 2.55125e-009 -1.00427e-009 1.54342e-009 -2.67348e-010 2.65956e-012 -1.76845e-009 -2.7452e-009 1.8594e-009 -1.21726e-010 1.85027e-009 2.64042e-009 1.69109e-009 -1.77181e-009 -1.60144e-009 2.71165e-009 7.79464e-010 1.12054e-009 -2.32431e-009 -1.66698e-009 -1.58164e-009 3.11061e-010 2.01667e-009 -9.23346e-010 4.4799e-010 -1.78759e-009 -9.02049e-010 2.36079e-009 -2.70398e-009 2.00887e-010 -1.99141e-009 3.71392e-010 -1.1104e-009 5.5102e-010 -1.04631e-009 2.30708e-009 7.81911e-010 -9.91578e-010 1.31054e-009 2.07866e-009 -3.82157e-010 1.2335e-009 -6.1869e-010 2.44141e-009 -1.71457e-009 -1.42557e-009 2.73285e-009 8.39706e-010 1.94356e-009 1.73716e-009 1.19344e-009 -1.36469e-009 -1.96338e-009 2.77576e-009 -5.56554e-010 -2.82744e-009 3.57614e-011 -2.71606e-009 -1.798e-009 1.62099e-009 9.16351e-010 2.33037e-010 -4.2115e-010 5.93847e-010 -8.33138e-010 -2.0006e-010 5.73057e-010 1.70895e-009 2.70541e-009 1.52847e-009 -2.11765e-010 -1.64521e-009 1.24949e-009 -2.43272e-009 -1.25464e-009 2.1479e-009 9.58754e-010 3.88445e-011 2.55705e-009 -1.8272e-009 -1.65291e-009 2.33347e-009 -6.98346e-011 -1.94843e-010 -2.23651e-009 4.35241e-010 2.30909e-010 1.44743e-009 -5.92028e-010 2.50929e-009 -2.47342e-009 -4.37396e-010 -2.84205e-009 2.58135e-009 -1.23815e-009 1.47151e-009 -2.80771e-009 -8.06543e-010 -3.45046e-010 2.43203e-009 -2.82829e-009 -2.08554e-009 -2.99389e-010 6.92823e-010 1.09766e-009 2.32658e-009 2.04304e-009 -2.22703e-009 1.6241e-009 6.42453e-010 9.68775e-010 2.82738e-009 -1.7891e-009 2.79582e-009 1.94375e-009 -8.07664e-010 1.47341e-009 3.44293e-010 -2.45285e-009 -2.18404e-009 -9.31329e-010 -2.61114e-009 -1.34729e-009 -2.76292e-009 -6.64961e-012 -1.01589e-009 -2.69268e-009 5.86535e-010 -2.48229e-009 1.79444e-009 1.67874e-009 -6.30255e-011 -2.23992e-009 -5.5941e-010 -1.83527e-009 1.10514e-009 2.47843e-009 7.54194e-010 1.9553e-010 1.46809e-009 2.69425e-009 -1.33398e-009 2.29795e-009 1.6073e-009 5.56622e-010 -9.62303e-010 -7.88547e-010 -2.53986e-009 1.03484e-009 -2.20908e-009 -1.00537e-009 -1.84956e-009 -1.52417e-009 1.10485e-009 2.30974e-009 5.93416e-010 -2.1401e-009 -1.9714e-009 -9.25952e-010 2.59303e-009 -4.10753e-010 -1.70147e-010 -1.82031e-009 -8.70866e-010 6.61015e-010 -9.96455e-010 -4.1714e-010 1.15226e-009 -1.22037e-009 1.5209e-009 -1.33469e-009 -1.50786e-010 -2.78929e-009 2.60099e-009 6.55816e-010 2.12294e-009 -6.97706e-010 1.44785e-009 2.58257e-009 2.74509e-009 -2.46296e-009 -1.80718e-009 -6.26086e-010 -4.89703e-010 1.34048e-009 -3.51189e-010 -1.9633e-009 -7.69164e-010 1.00428e-009 8.39406e-010 5.2062e-010 -2.75582e-009 -4.08306e-010 -1.12264e-009 -1.71404e-009 3.11669e-010 -2.37334e-009 5.95117e-010 -2.6589e-009 1.8739e-009 1.31814e-009 9.21412e-011 1.93153e-009 2.43868e-009 -1.2695e-009 -2.63075e-009 -1.6795e-009 -2.01615e-009 -2.38093e-009 2.67999e-009 -8.75035e-010 -2.60022e-009 -2.52297e-009 5.34506e-010 -1.71424e-009 -8.3203e-010 1.55956e-009 1.63839e-009 9.35426e-010 1.06245e-009 -6.76288e-010 2.74788e-009 -5.28726e-011 2.39653e-009 -1.74785e-009 6.82163e-010 2.774e-009 1.70039e-009 -2.57135e-010 -3.41765e-010 -1.20957e-009 -3.22813e-010 -4.44751e-010 -2.14772e-009 2.04677e-009 2.2942e-009 8.40134e-010 2.24603e-009 5.69838e-010 -7.43724e-010 2.69763e-009 2.39196e-009 -2.15494e-009 2.46597e-009 -2.84543e-009 2.905e-010 9.74243e-010 -8.8243e-010 1.52976e-009 -2.55244e-009 -1.29044e-009 -6.22949e-010 1.84245e-009 1.95457e-010 -1.35237e-009 -4.82476e-011 -1.07949e-009 1.11674e-010 1.56028e-009 -2.76762e-009 -2.04114e-009 3.69808e-010 -2.00637e-009 -5.61286e-010 1.58977e-009 -3.38952e-010 -2.37991e-009 -2.43743e-009 2.36735e-009 -1.54718e-009 -1.09707e-009 2.14935e-009 -2.034e-009 5.16003e-010 -1.29363e-009 1.44726e-010 7.04097e-010 -9.22853e-011 -1.69825e-009 2.28522e-009 -7.64175e-010 1.48715e-009 -6.01683e-010 -6.09419e-010 -9.59169e-010 -1.22495e-009 -1.44105e-009 -7.38662e-010 2.03157e-009 4.86623e-010 -1.90556e-009 -1.15491e-009 -5.60167e-010 -2.74326e-009 1.00707e-010 -7.35314e-010 -2.34429e-009 -2.74437e-011 1.10382e-009 -1.6022e-009 1.26542e-009 -9.95564e-010 1.54356e-009 2.0699e-009 8.84715e-010 2.49105e-009 1.44407e-009 -3.43142e-010 1.35897e-009 -1.27673e-009 3.75231e-010 -2.3616e-009 4.80304e-010 -1.26687e-009 -1.14428e-009 2.76747e-010 -8.68363e-010 -1.88548e-009 9.98347e-010 -1.14835e-009 -9.80312e-010 -1.07951e-009 2.40414e-010 4.06654e-010 5.15659e-011 -2.4755e-010 -1.18548e-009 -2.29893e-010 -1.56807e-011 -1.8273e-009 4.35261e-010 -1.53501e-009 -1.46393e-009 2.26984e-009 2.60018e-009 5.89212e-011 -2.68222e-009 -1.20386e-009 1.85924e-009 -1.65633e-009 2.10252e-009 -1.14146e-009 1.45542e-009 1.73038e-009 1.32602e-009 2.14257e-009 -8.29038e-010 -5.40596e-010 -1.36281e-009 1.20556e-010 1.23147e-009 -2.42418e-009 2.05516e-009 -1.85836e-009 -1.8869e-009 -2.48075e-009 -4.02227e-010 9.78943e-011 -5.30335e-010 -1.40092e-009 -2.58364e-009 -4.13285e-010 -4.68949e-010 -2.13461e-009 1.7759e-010 1.16817e-009 2.44192e-009 1.21836e-009 2.33351e-009 1.92925e-009 -1.10613e-009 -1.94767e-009 -3.24005e-010 -1.76254e-009 1.86972e-009 -8.28831e-010 2.48966e-009 2.31337e-009 2.33427e-009 1.21683e-010 1.35824e-009 -3.51596e-011 2.44605e-009 -1.34826e-009 3.3511e-010 -1.75339e-009 -9.28223e-010 1.15257e-009 -2.69022e-009 2.54647e-009 -4.59572e-010 -8.02723e-010 4.15245e-010 -2.36633e-009 2.61415e-010 -1.81682e-009 -2.56318e-009 2.45179e-009 9.53866e-010 -1.08254e-009 2.35618e-009 -9.81257e-010 1.90928e-009 -2.05699e-009 -2.12632e-009 -1.15005e-009 1.93594e-009 -1.28551e-009 -1.54365e-009 5.23568e-010 -2.98431e-010 2.78189e-009 -9.80933e-010 2.17597e-009 6.13233e-010 -1.01693e-009 -2.74978e-010 -2.47776e-009 1.51685e-009 1.35894e-009 2.40105e-011 -2.5567e-009 2.64101e-009 1.03538e-009 -6.83803e-010 1.39891e-009 4.75398e-010 -1.0907e-010 2.78486e-009 -1.76373e-009 -1.11495e-009 1.8391e-009 -5.88103e-010 2.72398e-009 -1.06596e-009 -1.52727e-009 -2.22792e-009 -1.74559e-009 -5.30095e-010 5.17731e-010 2.2448e-009 -1.05289e-009 6.91416e-010 2.31438e-009 2.2965e-009 -1.23561e-009 -9.77284e-011 2.4623e-009 -2.02498e-009 2.33481e-009 -8.45329e-010 -1.92734e-009 -1.17779e-009 -4.0975e-010 2.44116e-009 -1.23831e-009 -3.317e-010 -1.633e-009 1.54475e-009 1.65048e-009 5.9129e-011 1.08366e-009 9.08467e-011 4.4308e-010 -1.37036e-009 -1.38317e-010 1.92491e-009 2.80769e-009 -1.85451e-010 1.51551e-009 -2.45578e-010 2.56213e-009 2.57937e-009 -1.25266e-009 -1.93949e-009 -1.44572e-009 -1.19359e-009 1.85949e-009 -2.58744e-009 -2.5158e-009 1.91366e-009 -2.07255e-009 3.22588e-010 1.8201e-009 1.21271e-009 3.8244e-010 -3.84899e-010 4.66958e-010 1.33059e-009 8.93388e-010 -6.86699e-010 1.46919e-009 -2.38291e-010 1.97545e-009 -2.59634e-010 2.33576e-009 -1.14087e-009 9.45943e-010 9.59406e-010 1.80046e-009 1.03938e-010 -2.51037e-010 1.73178e-009 8.78497e-010 -4.65608e-010 4.58338e-010 -1.63654e-009 1.08889e-009 -1.46958e-009 4.30528e-010 -2.05255e-009 1.4107e-009 -2.23613e-009 1.28336e-009 -5.21004e-010 -2.11995e-009 2.79259e-009 2.36434e-009 -2.02044e-009 -2.66234e-009 -2.7644e-010 2.14639e-009 8.57907e-010 -2.73914e-009 4.48961e-010 -4.99339e-010 -2.13169e-009 -4.03921e-010 2.84635e-009 -1.41919e-009 -1.12248e-009 -2.61278e-009 -1.86492e-010 -1.49566e-009 7.22592e-011 2.16967e-009 -9.93457e-010 1.18564e-009 -1.82928e-009 -2.12107e-009 -2.78093e-010 1.09723e-010 -2.80085e-009 1.20774e-009 -1.76862e-010 3.75491e-010 -2.18685e-009 9.49221e-010 1.76273e-009 2.04134e-009 5.47413e-010 -3.50158e-011 2.26307e-009 -1.53016e-009 -1.77878e-010 -2.0701e-009 -2.46991e-009 2.81946e-009 7.93514e-010 -1.94408e-009 -1.03847e-009 6.93527e-010 2.38694e-009 2.4819e-009 1.99337e-010 -4.74295e-010 6.99147e-010 1.91879e-009 4.37917e-010 -8.26328e-010 -1.36519e-009 -8.9707e-010 3.75753e-010 2.22521e-009 2.27139e-009 -5.03611e-010 4.58089e-010 1.82019e-010 2.68675e-009 2.06211e-009 -2.64749e-009 1.19403e-009 1.96516e-009 -2.52412e-009 1.47875e-009 -3.27404e-010 1.47262e-009 -2.52159e-009 1.72603e-009 2.69524e-009 -1.76862e-009 2.32637e-009 2.03051e-009 -5.29706e-010 -1.51267e-009 2.48819e-009 -1.53016e-009 -7.14725e-010 -1.20365e-009 2.20797e-009 1.83394e-010 3.09968e-010 -1.052e-009 -2.44786e-009 5.46872e-010 -6.96906e-010 2.03848e-009 2.30424e-009 6.1957e-010 -2.80501e-009 -5.67109e-010 1.79878e-009 2.22894e-009 1.15974e-009 -2.30031e-009 -8.31653e-010 -2.74304e-009 2.70034e-009 1.85706e-009 -2.80449e-009 1.18465e-009 7.67331e-010 1.27439e-009 1.01482e-009 -1.50929e-009 -1.18683e-010 -2.2065e-009 -1.11236e-010 2.00075e-010 -5.56099e-010 -1.5157e-009 -1.38435e-009 6.96666e-010 2.58283e-010 -2.79925e-009 2.94584e-010 1.26583e-009 -1.25121e-009 8.70088e-011 -2.27953e-009 -1.40453e-010 -2.31586e-009 -2.00494e-010 2.14937e-009 -5.3473e-010 8.53998e-010 -1.27231e-009 1.17049e-009 7.80183e-010 -9.9132e-010 2.37368e-009 -1.42478e-009 1.72365e-010 2.73354e-009 -9.44889e-010 -9.88192e-010 2.56929e-009 -9.23238e-010 2.58016e-009 -9.39198e-010 2.39856e-009 -1.49649e-009 2.8442e-009 -1.43949e-009 -1.07565e-009 7.32258e-010 2.13083e-009 -2.17167e-010 3.36633e-010 3.55325e-011 2.20603e-009 -9.54754e-010 4.98188e-010 -5.57281e-010 7.46657e-010 -1.17165e-009 -2.73411e-009 9.3416e-010 1.85505e-009 1.37194e-009 1.46023e-009 1.75869e-009 2.18299e-009 -1.77092e-009 -2.51369e-009 -2.33039e-009 8.71899e-011 -1.78642e-009 1.97686e-009 -5.65399e-010 2.50306e-009 9.35313e-010 -7.48095e-011 -1.60127e-009 -3.27295e-011 -7.00612e-012 -1.68574e-009 -1.79813e-009 -2.03307e-009 2.25316e-009 -1.09219e-009 -2.29063e-009 -4.23773e-010 -2.24893e-009 1.59702e-009 -1.90163e-009 -1.53273e-009 1.52468e-009 2.82081e-009 2.21629e-009 -1.3527e-009 -2.44261e-009 8.53793e-010 2.10745e-009 -1.2322e-009 1.33551e-009 2.32446e-009 3.79128e-010 8.18912e-010 -2.64767e-009 9.60045e-010 -1.22087e-009 1.06257e-009 2.5308e-009 -1.42731e-010 2.41359e-009 2.71563e-009 -6.98749e-010 2.16951e-009 2.22045e-009 -2.63299e-009 1.72932e-009 1.51179e-009 -1.87702e-009 1.07423e-009 -1.50644e-009 -5.26885e-010 -2.80045e-009 1.22835e-009 -1.85009e-010 -1.97914e-009 2.10193e-009 2.4423e-009 -7.09626e-010 2.55425e-009 1.67957e-009 6.56222e-010 1.92443e-009 1.74455e-009 -2.37766e-009 -6.15438e-010 1.3867e-009 -1.5645e-009 3.44771e-010 -4.44581e-010 -2.5179e-009 2.5087e-009 3.04773e-010 2.54509e-010 2.01521e-009 2.27263e-009 -4.35335e-010 1.83835e-009 3.7367e-010 -1.15705e-009 1.32631e-009 -2.20918e-009 -1.70265e-009 2.38008e-009 1.68864e-009 -2.46892e-009 1.68998e-009 1.77318e-009 5.60536e-010 6.83477e-010 2.40276e-009 1.54943e-009 -1.57344e-009 2.38687e-009 2.11635e-009 -1.47058e-009 1.14443e-009 1.40907e-009 7.82413e-010 1.44803e-009 -1.36039e-009 -2.02692e-010 2.34795e-009 1.39721e-009 1.82764e-009 4.27268e-010 1.73712e-009 2.58315e-009 8.67278e-010 -1.39993e-009 -1.57444e-009 -2.80904e-009 4.93565e-010 1.17459e-009 -2.09645e-010 1.99277e-009 -2.06787e-009 2.60781e-009 1.52366e-009 7.21082e-010 2.77597e-010 -2.2596e-009 -5.24661e-010 -2.95164e-010 -2.21232e-009 8.75315e-010 2.73901e-009 1.17569e-009 -1.30077e-010 2.14507e-010 1.50974e-009 -4.1938e-010 1.11062e-009 1.95309e-009 -2.12061e-010 -4.59106e-010 -1.84548e-009 -2.82728e-009 4.1149e-010 -1.84769e-009 1.52886e-010 -2.29441e-009 8.15255e-010 9.38119e-010 -2.07714e-009 -2.23909e-009 6.08045e-010 -2.6274e-009 1.5229e-009 -2.51323e-009 1.63963e-009 -5.50466e-010 6.98078e-010 -1.82081e-009 -2.17622e-009 -2.53151e-009 2.59913e-009 1.70511e-009 -2.7747e-009 1.91346e-009 2.36833e-009 1.18096e-009 -1.53469e-009 1.86776e-009 4.6482e-010 -9.48214e-011 1.70357e-009 1.57507e-009 -6.64278e-010 -1.58977e-009 -1.72459e-009 1.3114e-009 2.15566e-009 -7.94795e-010 8.05782e-010 2.30397e-009 2.24233e-009 -2.50948e-009 -2.7888e-009 2.60707e-009 -1.26134e-009 -9.97439e-010 -1.47367e-009 -2.72191e-009 1.09326e-009 2.24957e-009 8.90797e-010 -1.05286e-009 -7.15694e-010 1.14329e-009 7.27503e-010 1.30229e-009 1.96856e-009 -2.00626e-009 2.41163e-009 -1.18268e-009 1.67683e-009 -2.40372e-009 -4.92938e-010 -1.04089e-009 2.20818e-009 -2.48695e-011 -8.04245e-010 1.87063e-009 -1.73201e-009 9.35369e-010 1.28364e-009 -2.34766e-009 1.29644e-009 -1.49976e-009 1.5797e-009 -1.7282e-009 -1.35594e-009 -2.83103e-009 -8.40031e-010 1.11077e-009 -1.15145e-009 -1.67416e-009 3.15552e-010 -2.5315e-009 1.66153e-009 3.4395e-010 -1.17439e-009 -5.14035e-010 1.01235e-009 9.44457e-010 -1.67795e-009 -1.32934e-009 -2.40305e-009 2.32645e-009 -2.7955e-009 -8.70281e-010 2.21132e-009 -2.8451e-009 -1.60153e-009 -2.00745e-009 -2.6076e-010 -2.22539e-009 1.5074e-009 7.58036e-010 1.46179e-009 1.93635e-010 5.06199e-010 3.0787e-010 2.67155e-009 -2.18332e-009 -2.10364e-009 2.10052e-009 -9.38877e-010 1.9531e-009 -1.90956e-009 -2.26079e-010 9.92844e-010 8.47863e-010 2.05094e-009 -2.56852e-009 1.30269e-009 -2.31282e-009 -1.97693e-009 1.35573e-009 2.44247e-010 1.20543e-009 2.05074e-009 2.68322e-012 2.07237e-009 2.26415e-010 -2.29399e-009 -1.28875e-009 2.38235e-009 -9.61241e-010 -5.93359e-010 7.49897e-010 1.98808e-009 2.04089e-009 -1.04873e-009 1.82337e-009 4.31046e-010 2.05454e-009 1.12176e-009 -9.07151e-010 -1.24241e-009 -1.02803e-009 1.83458e-009 -1.61663e-009 -2.48607e-010 1.34165e-010 2.28547e-009 2.12885e-009 -2.68957e-009 -3.13112e-010 -1.35769e-009 -1.567e-010 -1.10983e-009 2.45797e-009 -7.98104e-010 -1.02294e-009 -1.29454e-009 -4.09955e-010 -3.62014e-010 -2.24862e-009 -1.22585e-009 1.21966e-009 -2.76881e-009 2.76667e-009 -1.48721e-009 1.12603e-009 6.06633e-010 2.61273e-010 -2.33248e-009 -2.71634e-009 5.34108e-010 2.70748e-009 -6.49405e-010 -1.22936e-009 5.13751e-010 5.4854e-010 2.59677e-009 1.47286e-009 1.86956e-011 -2.57311e-010 2.35463e-009 2.31726e-009 1.21466e-009 8.65084e-010 -2.40212e-009 -2.36856e-010 1.99431e-009 8.23455e-010 -1.62789e-009 2.09994e-009 -2.40634e-009 1.05534e-009 -2.30499e-009 -2.64884e-009 -8.95839e-010 2.56509e-011 -2.53128e-009 2.39579e-009 -2.12622e-009 -1.03312e-009 6.81048e-010 -1.21287e-009 -5.40616e-010 1.57694e-009 -1.47857e-009 -2.15999e-009 1.29169e-009 -1.17992e-009 2.23684e-009 1.8223e-009 -2.26271e-009 2.09556e-009 1.98844e-009 -6.6146e-010 -2.324e-009 -1.04123e-009 -2.15956e-009 -1.98811e-009 -1.18176e-009 2.22791e-009 1.0606e-009 -3.95672e-010 8.67208e-010 2.09111e-009 -2.65668e-009 -1.09946e-009 2.4835e-009 2.28626e-009 -1.48017e-009 -1.74505e-009 1.78591e-009 7.58695e-010 -1.90574e-009 -2.4423e-009 2.67554e-009 3.83945e-010 1.53318e-009 -2.16654e-009 -8.33968e-010 2.30983e-009 3.71363e-010 7.34921e-010 9.26064e-010 -2.02571e-009 -1.27226e-009 3.17475e-010 -1.04958e-009 -1.0104e-009 2.33635e-009 1.57775e-009 -2.74817e-009 -2.82871e-009 1.6246e-009 -1.01444e-009 -2.35597e-009 -1.91554e-009 -3.58545e-010 2.07475e-009 -2.96671e-010 -2.17448e-009 2.65477e-009 7.00775e-010 -2.16e-009 -2.62786e-009 -6.36222e-010 -1.60126e-009 4.8968e-010 -2.25339e-009 -1.62415e-009 -1.62623e-010 2.60441e-009 1.43302e-009 -1.39596e-009 -1.16919e-009 -1.40687e-009 -2.31546e-009 -2.82873e-010 7.66295e-010 4.80167e-010 4.07555e-010 -6.34612e-010 -9.32836e-010 -9.52133e-010 1.48539e-009 8.35066e-010 -5.17534e-010 1.30295e-009 2.80922e-009 -3.10524e-010 -2.80501e-009 -1.71537e-009 2.18075e-009 -1.58079e-009 4.35856e-010 -2.20423e-009 -1.65131e-009 2.55426e-009 2.02043e-009 5.60065e-010 7.50709e-011 -2.14222e-010 -1.05772e-009 -2.10811e-009 -1.48342e-009 -7.10762e-010 1.6681e-009 -1.58502e-009 -2.5245e-009 -9.28858e-010 -1.35489e-009 -4.80233e-010 7.37518e-010 1.02748e-009 -2.09314e-009 1.99637e-009 -1.09641e-009 -2.68411e-009 -2.15396e-009 -1.7151e-009 2.1303e-009 1.83377e-009 2.65432e-009 8.18344e-011 2.832e-009 6.50918e-010 2.80346e-009 -8.09334e-010 2.726e-009 -9.55536e-010 2.29541e-009 1.57629e-010 -1.01543e-009 1.72613e-009 2.48235e-009 -2.2344e-009 -1.49217e-009 1.75765e-009 -1.97342e-009 -2.33785e-009 -5.73127e-010 -2.34281e-009 7.77569e-011 -1.39577e-009 -1.42202e-009 -2.70313e-009 1.27185e-009 7.13165e-010 9.19453e-010 -2.04608e-009 4.8154e-010 -7.21268e-010 -3.19542e-010 -2.53465e-009 -1.80229e-009 -1.05763e-009 7.21861e-010 -1.79889e-009 -7.05653e-010 -1.89782e-010 1.17765e-009 -7.44935e-011 4.81504e-010 2.17092e-009 -2.17892e-009 -1.46832e-009 -2.53183e-009 -1.94043e-009 1.63574e-009 -3.14083e-012 -1.29979e-009 4.11372e-010 -5.53191e-010 6.17652e-010 -7.90946e-010 -1.82981e-010 2.53207e-009 2.13375e-009 -2.21219e-009 2.6483e-009 -5.85314e-010 -2.15529e-009 -2.83571e-009 -2.4301e-009 -3.37451e-010 3.07728e-010 9.19723e-010 -1.66382e-009 -2.7923e-011 2.32735e-009 -5.5442e-010 -2.64494e-009 1.04273e-009 -6.82754e-010 2.30643e-009 -1.10918e-009 -2.62857e-010 7.62279e-010 1.51918e-009 -2.81617e-009 -2.74388e-009 1.51103e-009 2.81255e-009 6.96357e-010 1.14389e-009 2.03675e-009 5.2962e-010 2.61485e-009 1.19987e-009 -3.37404e-011 1.49556e-009 2.31348e-009 -1.29054e-009 -1.30159e-009 7.71732e-010 -2.76565e-009 1.26397e-009 -1.34654e-009 -1.51532e-009 2.09519e-009 -1.67858e-009 9.50398e-010 -6.10718e-010 -1.30507e-009 -1.9453e-009 2.53928e-009 4.50347e-010 -3.98067e-010 2.2373e-009 2.19062e-009 -2.04688e-009 6.88328e-010 2.57752e-009 6.48581e-010 -4.7507e-010 -5.75971e-011 -2.07952e-009 2.26459e-009 -1.99452e-009 2.40272e-009 1.64367e-009 -2.30485e-009 -2.05352e-009 -1.67951e-009 1.01372e-009 -1.19717e-010 1.74837e-009 -1.63857e-009 -1.74717e-009 -1.43482e-009 1.49452e-009 -1.41526e-009 -2.2181e-009 1.64319e-009 -4.94939e-010 1.08085e-009 1.24836e-009 1.47926e-009 -2.45709e-009 -1.44173e-009 2.0953e-009 9.52638e-011 -1.53227e-010 5.46576e-010 -2.44175e-009 -3.92595e-010 4.28443e-010 2.57383e-009 1.29885e-009 -9.67814e-010 2.26556e-010 -7.44632e-010 4.28036e-010 2.56457e-011 -1.59817e-009 1.20077e-009 1.56091e-009 -2.50662e-009 -2.54961e-010 -1.94334e-009 1.09265e-009 1.55144e-009 1.09847e-009 -1.45039e-009 -1.131e-009 8.61917e-010 -1.18657e-009 -1.49868e-009 -1.79674e-009 8.52126e-010 2.72179e-009 -1.07188e-009 -8.42527e-010 -2.76028e-009 -2.63341e-009 -1.14757e-009 2.52198e-010 2.69282e-009 9.20325e-010 -2.49475e-009 -1.09833e-010 7.44682e-010 -2.84436e-009 -1.48331e-010 2.5464e-009 -9.60847e-010 -4.82815e-010 3.94246e-011 1.93097e-009 2.67879e-009 2.81797e-009 -2.41991e-009 -2.6344e-009 -2.51761e-009 -2.83956e-009 2.66765e-009 -1.6294e-009 1.55889e-009 1.70164e-009 6.4629e-010 -2.57011e-009 1.47235e-009 -5.29731e-010 2.54721e-009 -1.38931e-009 -1.97567e-009 -2.62816e-009 1.5e-009 -1.00622e-009 2.74255e-009 -1.52845e-009 -2.72196e-009 -9.88731e-011 -1.192e-009 6.42047e-010 2.84173e-009 -1.73568e-009 2.54257e-009 2.6795e-009 2.66865e-009 -8.80413e-010 -2.13829e-009 1.1705e-009 -4.0463e-010 -2.7451e-009 1.44012e-009 1.98497e-009 -2.48133e-009 -1.47982e-009 -2.38243e-009 -7.53008e-010 -3.38542e-010 2.48633e-009 1.32827e-009 -5.66262e-010 -6.55467e-010 -1.30418e-009 2.42206e-009 1.33561e-009 2.12361e-009 3.11834e-010 2.54504e-009 2.78645e-009 -1.79578e-009 -1.31248e-009 1.75809e-010 1.28588e-009 -1.11347e-009 -1.66417e-009 -5.62864e-010 -1.42094e-011 -2.82298e-009 -2.76149e-009 2.3194e-009 -2.2154e-009 -2.14211e-009 1.07874e-009 -1.31667e-009 -2.30641e-009 -2.07455e-009 6.01848e-010 2.79298e-009 1.04146e-009 3.99652e-010 4.52646e-010 -5.89628e-010 -3.50046e-010 -1.5734e-009 -9.82021e-010 -5.29704e-010 4.31171e-011 -2.20005e-009 -2.38715e-009 1.24822e-009 1.96245e-009 2.06157e-009 2.60571e-009 -7.67573e-010 1.47733e-009 -6.36513e-010 -1.67604e-009 -2.77908e-009 -4.57052e-010 -2.6287e-009 1.38245e-009 -2.01061e-009 -2.48893e-009 -1.49135e-009 2.80864e-009 5.89938e-010 1.61131e-009 1.28128e-010 -2.81903e-010 4.95623e-010 -2.21053e-009 -1.95577e-012 -2.30243e-009 -1.5899e-009 1.87333e-009 1.51248e-009 -2.729e-009 2.68606e-009 -2.79551e-009 1.69714e-009 -1.65955e-009 -1.05372e-009 2.72925e-009 -2.67266e-009 1.53933e-009 2.09109e-010 9.15138e-010 -2.63483e-009 2.67637e-009 -1.03438e-009 2.59535e-009 2.32505e-009 -5.6658e-010 -6.9752e-010 -1.80776e-010 -1.63293e-009 1.17108e-009 -1.66592e-009 1.44923e-009 -1.66288e-009 1.8799e-009 4.0641e-010 2.24224e-009 -4.08892e-010 -2.0049e-009 -2.00269e-009 1.29594e-009 -2.62445e-009 -6.35103e-010 -2.00106e-009 -2.1935e-009 1.84967e-009 2.81337e-009 1.16777e-009 -1.94637e-009 2.6396e-009 2.61375e-010 2.49652e-009 -5.28163e-010 2.65838e-009 -2.01785e-009 2.37016e-010 2.42176e-009 -2.49709e-009 -8.8163e-010 1.80534e-009 1.01359e-009 -1.81973e-009 -2.69046e-009 -1.05408e-009 1.10527e-009 1.04211e-009 2.95895e-010 2.48417e-009 2.71433e-009 -7.27648e-010 -1.88869e-009 -7.94463e-010 2.07767e-010 -2.02888e-009 4.84408e-010 -2.61862e-009 1.54395e-009 -1.49246e-009 1.34722e-009 6.35014e-010 1.08988e-009 3.20368e-010 -2.23729e-009 -1.15059e-009 -7.64074e-010 -1.48828e-009 9.51162e-010 1.67756e-009 -2.08643e-010 -2.15884e-010 6.63833e-010 1.10733e-009 8.9333e-010 8.94084e-010 -1.00064e-009 -1.18601e-009 1.64964e-009 1.82982e-009 -2.41612e-009 6.68216e-010 -5.66945e-010 -5.43175e-010 -1.94911e-010 -2.34038e-009 2.01595e-010 8.07276e-010 -1.16176e-009 1.27015e-009 2.73696e-009 -6.3891e-010 -2.09984e-009 2.29621e-009 -2.01188e-009 -1.40196e-009 -7.55276e-010 1.11931e-010 -1.96328e-010 -1.00008e-009 2.01762e-009 4.42866e-010 9.48468e-010 -2.40318e-009 -2.70791e-009 -1.20959e-009 1.87024e-009 2.06155e-009 4.45849e-010 2.61478e-009 1.82919e-009 2.55566e-009 2.21251e-009 -2.81731e-010 1.68649e-009 2.58889e-009 2.33835e-010 -1.58437e-009 -1.59297e-009 1.31456e-009 2.81127e-009 -1.44156e-009 2.03404e-009 1.08467e-009 -2.72196e-009 -5.35473e-010 -1.57645e-009 -1.98125e-009 -2.83924e-009 2.29013e-009 -2.66209e-009 1.1947e-009 5.07636e-010 -2.72951e-009 -1.7446e-009 -2.68986e-009 -2.81582e-009 -6.08865e-010 -3.25936e-010 -1.95505e-009 -8.48787e-010 -2.20116e-009 -5.07581e-011 1.7957e-009 -2.78468e-010 -1.01289e-009 -6.73732e-010 -2.20955e-009 1.28072e-009 7.65794e-010 -2.07689e-009 -2.94784e-010 -5.68955e-010 2.75683e-009 1.97182e-009 6.55744e-010 -2.6639e-010 1.65914e-009 1.56041e-009 -2.26775e-009 1.95883e-009 6.16131e-010 -1.19174e-009 -8.57017e-010 5.74938e-010 -8.63493e-010 2.34669e-009 2.18363e-009 -1.93394e-009 8.59327e-010 -1.2769e-009 2.68732e-009 -2.5287e-009 4.70426e-011 2.45509e-009 -2.3295e-009 1.99049e-009 -1.19523e-009 -1.99582e-009 1.11014e-009 1.39883e-009 -2.09461e-009 -2.22179e-009 2.38742e-009 6.92363e-010 -8.683e-011 1.56723e-009 1.8248e-009 1.80149e-010 -1.39726e-009 -2.57885e-009 -8.47938e-010 2.44155e-009 -2.33883e-010 1.676e-009 1.81917e-009 -1.39034e-009 1.68381e-009 -7.3068e-010 -2.24793e-009 -1.14425e-009 -1.06142e-009 2.7456e-009 1.48738e-009 1.27784e-009 2.17955e-009 -2.27883e-009 -2.13557e-009 2.29616e-009 7.37821e-010 6.33486e-010 3.75403e-010 -2.4912e-009 -3.79268e-010 -3.91342e-010 2.46826e-009 -4.95681e-010 2.30277e-009 -4.87381e-010 -2.0875e-010 1.98258e-009 1.1981e-009 -1.67926e-009 -1.6769e-009 -1.28014e-009 2.71237e-010 -2.11864e-011 1.21372e-009 -2.36031e-009 4.60697e-010 -1.92969e-009 2.15666e-009 3.24873e-010 -2.06052e-009 7.31283e-010 -5.13721e-010 -1.42388e-009 -2.22515e-009 1.67339e-009 -2.64276e-010 -1.20598e-009 4.04249e-010 6.96821e-010 2.53069e-009 2.77324e-009 -1.21635e-009 -2.55901e-009 2.06302e-009 1.80428e-009 -3.2561e-011 4.44e-010 -1.63741e-009 2.32001e-009 -1.87934e-009 3.17741e-010 -2.2121e-009 -1.68407e-009 -3.09463e-010 1.20491e-009 1.524e-009 -1.2977e-009 -1.9192e-009 -2.35079e-009 1.20802e-009 2.52537e-009 2.505e-009 -2.17014e-009 -9.70172e-010 1.54093e-009 1.21432e-009 1.67396e-009 -5.85578e-010 -6.83286e-010 1.07536e-009 1.51076e-009 -7.28086e-010 -7.59908e-010 2.0953e-009 1.34367e-009 4.58157e-011 7.71542e-010 -1.22305e-010 1.4342e-009 -2.22988e-009 2.82398e-009 -2.20095e-009 -1.92567e-009 -2.74502e-010 -1.56637e-009 -1.78213e-009 1.87902e-009 1.07933e-009 6.22882e-010 -2.64607e-009 -2.62257e-009 -2.06152e-009 -1.21882e-009 -1.34678e-009 -3.29207e-010 2.35319e-009 1.73891e-009 4.88134e-010 -9.71139e-010 -2.36346e-009 1.21844e-009 -2.63555e-009 2.48025e-010 -1.54199e-009 1.2074e-009 1.1676e-009 -2.61002e-009 2.06341e-009 -1.49404e-009 -3.00346e-010 2.70931e-009 3.74179e-010 -7.93422e-010 -1.05256e-009 2.69349e-009 -2.50085e-009 2.65819e-009 -1.33182e-009 -1.54046e-009 -6.58226e-010 3.97373e-011 1.01628e-009 4.98911e-010 2.38771e-009 -1.78099e-009 9.13966e-010 1.94902e-009 -1.44246e-009 2.06108e-009 2.81581e-009 -2.06128e-009 1.42799e-009 2.48496e-009 1.05759e-009 9.37112e-010 1.9998e-009 -1.15928e-009 -8.99979e-010 -1.99055e-009 8.57281e-010 6.88822e-010 1.71596e-009 2.35465e-009 1.74683e-009 -2.22514e-009 -2.76627e-009 1.57742e-009 -2.78156e-009 7.30049e-010 1.53626e-009 2.72151e-009 4.98841e-010 1.295e-009 -2.14704e-009 6.72653e-010 -1.67734e-009 -5.18864e-010 2.765e-009 -6.96794e-010 2.43239e-009 6.6554e-010 -6.8287e-011 2.10458e-009 -1.2544e-009 -3.99147e-010 -2.69928e-009 -3.21582e-010 2.65706e-010 2.62271e-010 1.05442e-009 2.78828e-009 -1.56003e-009 -2.39943e-009 -1.0689e-009 1.42824e-009 7.57994e-010 8.83324e-010 -1.64164e-010 -7.32772e-012 -1.10952e-009 -6.04541e-010 -1.8711e-009 -1.07471e-009 1.96504e-009 -9.57679e-010 -9.5672e-011 -5.00687e-010 1.05393e-010 2.71033e-009 -1.27034e-009 -2.12125e-009 1.29822e-009 1.96878e-009 -9.56423e-010 1.13906e-009 -2.63811e-009 2.24931e-009 -1.11009e-009 -2.49861e-009 1.50441e-009 -2.1214e-009 -2.19434e-009 6.79724e-010 -1.97829e-009 8.72048e-010 1.28368e-009 -1.50728e-009 -1.683e-009 4.43348e-010 -4.45194e-010 -3.65049e-010 1.06362e-009 -1.05056e-009 -1.00439e-009 2.39448e-009 -1.34696e-009 4.35176e-010 4.49617e-011 1.89318e-009 1.53423e-009 1.42641e-009 6.3892e-010 2.30862e-009 -3.74261e-010 2.25042e-009 1.54089e-009 -2.29518e-009 -1.70875e-009 1.50186e-009 2.06095e-009 1.91558e-009 8.53653e-010 1.67553e-009 2.03279e-009 1.9876e-009 -1.70839e-009 -6.89897e-010 -2.54387e-009 6.76253e-010 -2.26884e-009 -2.72049e-009 9.31437e-010 -2.52757e-009 5.08024e-011 -1.09504e-009 1.66418e-009 8.32519e-010 2.3631e-009 -9.3418e-010 5.54395e-010 -1.03576e-009 1.99052e-009 -2.33332e-009 -1.03315e-009 -2.39809e-009 1.98993e-009 5.51912e-010 2.29892e-009 -2.32731e-009 1.08114e-009 7.8194e-010 3.30512e-010 -3.20731e-010 2.64578e-010 2.77184e-009 -1.61652e-009 -1.10862e-009 1.07483e-009 2.73048e-009 1.38302e-009 7.83988e-010 -2.70813e-009 -5.18974e-010 1.6072e-009 -1.79291e-009 -2.63779e-009 7.26891e-010 -7.71764e-010 1.35984e-009 8.3088e-010 2.93763e-010 3.00842e-010 1.90597e-009 2.79684e-009 -1.02525e-009 1.69996e-009 -1.91878e-009 -1.71166e-009 -2.78608e-009 -4.41815e-010 -2.15003e-009 1.42575e-009 1.97371e-009 -4.26965e-011 -5.62182e-010 -2.42298e-009 -6.65229e-010 -3.77279e-010 -2.65531e-009 -2.47379e-009 -2.13494e-009 -2.04814e-009 -1.75192e-009 6.58813e-010 -2.48708e-009 -9.56664e-010 -1.42373e-010 -1.84038e-009 -1.03419e-009 -2.02417e-009 4.72917e-010 1.84127e-009 2.49339e-009 -3.98115e-010 -2.09403e-009 -2.25104e-009 -1.03369e-009 1.52426e-009 1.04972e-009 1.89137e-009 2.70497e-009 -5.84625e-011 1.87124e-009 -8.77027e-010 2.23517e-009 2.20743e-009 -4.0975e-011 -2.13081e-009 2.18308e-009 3.98562e-010 9.72382e-010 -7.71571e-010 -1.54774e-009 -8.77106e-010 3.78699e-010 -1.52463e-009 -2.60192e-009 -9.70578e-010 8.6084e-010 -1.45332e-009 1.02486e-009 2.46098e-009 1.38863e-009 -2.2805e-009 -8.14199e-010 1.27639e-009 -7.19599e-010 -1.99347e-009 -1.46939e-009 -2.84271e-009 -1.99552e-009 -1.18e-009 -1.66588e-009 -2.02964e-009 8.53968e-010 1.21791e-009 1.51371e-009 1.61253e-009 2.66576e-009 7.28293e-010 -4.47967e-010 -1.10383e-009 2.00894e-009 9.91332e-010 2.22188e-009 2.25822e-009 -2.29936e-010 1.00145e-009 2.34916e-010 -1.17132e-009 -8.84564e-010 1.11883e-009 -3.51214e-010 -9.68222e-010 -3.58236e-010 1.92432e-009 2.44814e-009 -2.21626e-009 -8.17462e-010 -3.15797e-010 2.64935e-009 -2.16925e-009 2.89363e-010 -2.10238e-009 -5.03977e-010 -1.33197e-009 2.6345e-009 9.91446e-010 2.78731e-009 2.01008e-009 1.56967e-009 5.31265e-010 5.929e-011 1.00792e-009 3.81864e-010 1.28668e-009 -1.93357e-009 2.51704e-009 2.28353e-009 2.33865e-010 1.46286e-009 1.21447e-009 -1.78613e-010 2.45751e-009 3.87665e-010 -7.17297e-010 -1.37534e-009 -1.9721e-009 -1.24404e-009 -3.21562e-010 1.03928e-009 1.51539e-009 2.14345e-009 8.73538e-010 6.90487e-010 -2.40344e-009 -1.29575e-009 -2.5664e-009 2.45687e-009 2.07411e-009 -2.59759e-009 1.59129e-009 -7.75325e-010 -1.30967e-009 2.16164e-009 9.72383e-010 9.22998e-010 1.00121e-009 3.63474e-010 -2.29655e-010 1.93563e-009 -2.73352e-009 -2.10282e-009 2.4147e-010 -1.17405e-010 -1.36247e-009 1.05093e-009 -1.00803e-009 5.20348e-010 3.15025e-010 1.90041e-009 2.82125e-009 -1.70267e-009 -1.33008e-009 2.0192e-009 2.11443e-009 -2.53693e-010 1.62603e-010 -1.59977e-010 9.49604e-010 1.31485e-009 2.63149e-009 -1.21996e-010 1.36343e-009 1.02036e-009 -1.38253e-009 2.60483e-009 -7.56607e-010 1.25144e-009 -1.9475e-009 -5.8523e-010 -1.13074e-009 2.26402e-009 -4.88994e-010 3.20692e-010 2.697e-009 -1.09864e-009 1.01887e-009 2.24391e-009 -2.49207e-009 -1.53327e-009 5.78022e-010 2.82261e-009 -2.52963e-010 9.68285e-010 -2.04877e-009 -1.11658e-009 1.61041e-009 -2.17562e-010 -1.10962e-009 9.64495e-010 -1.25631e-009 -1.53636e-009 -1.41298e-009 2.11914e-010 1.08266e-009 1.92454e-009 -1.04008e-009 8.76486e-010 2.20038e-009 -2.22024e-009 -1.9444e-009 2.14211e-009 -2.46529e-009 -3.50196e-010 2.65016e-009 2.28575e-009 -2.81463e-009 -2.2008e-009 1.15304e-009 1.08281e-009 5.23477e-010 2.84722e-009 1.78388e-010 -2.11454e-009 1.778e-009 -7.93452e-010 -1.86672e-009 -1.2155e-009 -9.21465e-010 2.60243e-009 -1.05714e-009 -1.90574e-009 -2.01898e-009 1.94709e-009 4.61756e-010 -1.98385e-009 -1.28529e-009 6.89814e-011 -2.4136e-009 2.34609e-009 1.60599e-009 1.92376e-009 -1.8213e-009 -6.54365e-010 -1.1539e-009 -1.20997e-009 -2.10603e-010 -2.01372e-009 -1.9703e-009 -2.08572e-009 1.62881e-009 -1.90508e-009 -1.39345e-011 -1.42778e-009 -2.67476e-009 -8.36529e-010 1.76351e-009 -9.38326e-010 -2.33289e-009 -2.14676e-009 1.27445e-010 9.15255e-010 -2.80762e-009 -1.27992e-009 1.14402e-009 3.58567e-010 8.34486e-010 2.30176e-009 1.45341e-009 2.20187e-009 1.49472e-009 1.38477e-010 -8.94911e-010 -2.18011e-009 7.79848e-010 1.97209e-009 -2.17426e-010 -2.44485e-009 1.81239e-009 1.51016e-009 -7.72655e-010 -4.87539e-010 -2.28922e-009 -1.78172e-009 -1.98502e-009 -8.31298e-010 1.91206e-009 -1.99706e-009 2.20257e-009 9.46871e-010 -1.98216e-009 -6.65257e-010 8.0517e-010 1.61153e-009 2.43403e-009 2.1849e-009 -1.54072e-009 -2.55311e-009 2.36757e-009 1.55577e-009 2.49103e-009 2.6631e-009 -1.04537e-009 1.47972e-009 1.14103e-009 -2.33232e-009 2.23787e-009 2.75524e-009 -2.52964e-009 -1.74601e-009 2.66329e-009 3.62666e-010 1.46257e-009 -7.07042e-010 -1.82043e-009 -6.28387e-010 -1.58387e-009 2.639e-009 -1.60334e-009 -7.96543e-010 1.02124e-009 1.74061e-009 -1.44229e-009 4.43229e-010 -1.96094e-009 -1.38983e-009 2.1517e-009 1.81068e-009 1.74206e-009 2.70925e-009 -1.5567e-009 7.16716e-010 2.62862e-009 4.31746e-010 2.58312e-009 -1.85568e-009 -2.03741e-009 -2.79181e-009 6.69956e-010 2.11985e-009 -2.72074e-009 -2.4771e-009 2.32565e-009 -1.33238e-009 -6.22602e-010 1.16267e-009 8.93866e-010 2.12672e-009 -1.43177e-009 -2.31592e-009 1.75693e-009 -2.50047e-009 5.3776e-010 2.25051e-009 2.51041e-009 -1.59301e-009 1.18435e-009 -1.86354e-009 -1.59264e-009 -9.54338e-010 -9.02958e-010 -1.3347e-009 -1.64773e-009 2.64338e-009 -1.25445e-009 7.31197e-010 -5.26789e-010 -1.62309e-009 -2.34634e-009 1.30834e-009 1.25443e-010 -2.00576e-009 2.45278e-009 4.15394e-010 6.02662e-010 -4.80322e-011 1.22145e-009 -2.40594e-009 7.58686e-010 -2.04611e-009 -1.14376e-010 1.7186e-009 -1.39433e-009 -5.84923e-010 -1.38378e-009 -1.93173e-009 -2.383e-009 -1.95867e-009 8.78283e-010 9.98227e-010 2.11491e-009 -2.33735e-009 -3.20972e-010 -6.29945e-010 2.32952e-009 -8.04681e-010 -2.0897e-009 1.37309e-010 -6.20818e-010 1.81445e-009 -1.40334e-009 2.13855e-009 2.36347e-010 -2.67089e-009 -2.45828e-009 2.04797e-010 8.3897e-010 1.2778e-009 -2.35969e-009 -2.88281e-011 9.02705e-010 7.03831e-010 -1.32513e-009 -2.04208e-009 4.97001e-010 2.07717e-009 1.1283e-009 -4.26542e-010 -1.13561e-009 1.03525e-009 1.63335e-009 -1.09144e-009 2.13503e-009 2.37787e-009 -2.59214e-009 1.62705e-009 6.01748e-010 2.03292e-009 2.30105e-009 1.41468e-009 3.54091e-011 -2.37447e-009 -1.23236e-009 -2.41298e-009 -1.91362e-009 -1.67591e-009 -2.64631e-009 -6.90186e-010 -2.80849e-009 -1.32283e-009 -1.74032e-009 5.80043e-010 -2.13608e-009 -1.99493e-009 2.27816e-009 -2.24769e-009 1.92598e-010 -2.33386e-009 -3.41129e-010 -1.95206e-009 -3.16019e-010 2.5085e-009 -3.50418e-010 -8.29002e-010 -2.44975e-009 -4.76988e-010 1.42095e-010 2.05553e-009 1.32629e-010 -1.78096e-010 2.02236e-009 2.52151e-009 2.00023e-009 1.45809e-010 -5.22783e-010 -2.80602e-009 -1.67787e-009 -2.98431e-010 -2.27102e-009 -2.56773e-009 -2.11629e-009 2.05405e-010 -6.48159e-010 -2.31844e-009 -2.07903e-009 2.0189e-009 7.12541e-010 1.77646e-009 3.19e-010 -4.64962e-010 5.21598e-010 -3.20002e-010 -2.03563e-009 1.57322e-009 2.37472e-009 -7.4539e-010 2.81152e-009 -1.30004e-009 2.95188e-010 -2.02236e-010 1.57753e-009 1.519e-009 -2.52042e-009 -4.23115e-010 2.057e-009 -1.97464e-009 -1.2581e-009 -2.14517e-009 -7.55138e-011 -1.0918e-009 2.26172e-009 2.62505e-009 6.5206e-010 2.02034e-009 -2.72082e-009 -7.45197e-010 -1.14212e-009 9.84671e-010 -2.48931e-009 -1.98467e-009 -9.43465e-010 1.94929e-009 5.74343e-010 2.76009e-009 -1.40808e-009 -2.09325e-009 1.5986e-009 -1.47849e-009 -2.12429e-009 -1.84167e-009 1.43932e-009 -3.11991e-010 7.54206e-010 -1.91588e-009 -3.22142e-010 6.25756e-010 -5.36627e-010 -2.09126e-009 -7.6523e-010 -2.04075e-009 8.36734e-010 4.58965e-010 7.80387e-010 2.18587e-009 9.67102e-010 -5.28319e-010 -2.622e-009 1.16155e-010 -1.03568e-009 1.74214e-009 9.68794e-010 4.08014e-010 6.37293e-010 -1.08412e-009 -2.68153e-009 2.58873e-009 2.19295e-009 -2.16728e-009 -2.43368e-009 1.66731e-009 -5.66213e-010 2.6158e-011 -1.03543e-009 -2.64282e-009 1.76521e-009 -8.25345e-010 9.36621e-010 1.69547e-010 1.26876e-009 -1.48339e-009 7.29065e-010 1.05402e-009 -6.5547e-010 -2.23397e-009 2.73931e-009 -1.67749e-009 -1.10808e-009 1.98334e-009 -2.39606e-009 -2.45691e-009 -2.5106e-009 -1.12369e-009 7.15208e-010 -1.59392e-009 1.50191e-009 -1.15554e-009 1.3901e-009 -2.07857e-009 -1.98606e-009 5.78352e-011 6.5774e-010 2.42845e-009 -2.07096e-010 2.01003e-009 -1.45511e-009 2.96052e-010 -2.25143e-009 -2.23893e-009 2.8426e-010 -3.72529e-010 -1.10836e-009 1.68845e-009 -2.09255e-009 -1.2758e-009 1.33651e-009 -7.54479e-011 2.18756e-009 -1.15187e-009 6.54772e-010 1.57225e-009 1.56013e-009 -1.84841e-009 -4.96873e-010 -2.38024e-009 2.6027e-011 -2.7034e-009 7.19581e-010 1.04692e-009 -3.17635e-010 6.7212e-010 -1.44099e-009 2.61377e-009 -1.73679e-009 2.77098e-010 1.57484e-009 -6.54669e-010 8.17168e-010 -2.0093e-009 -2.12788e-009 -2.72248e-009 -2.65169e-009 -1.31081e-009 -2.22747e-009 1.72223e-009 -1.49747e-009 -8.09972e-010 -1.93557e-009 -2.39862e-009 -5.78998e-010 1.86782e-009 -1.50611e-009 -1.55018e-009 2.05282e-010 -2.35342e-009 -1.72063e-009 2.48666e-010 5.21689e-010 2.39605e-009 -4.06424e-010 1.07623e-010 -5.10318e-010 8.52687e-010 1.59329e-009 -2.66433e-009 -1.51741e-009 -8.74277e-010 2.75055e-009 -4.13284e-010 7.24821e-010 1.89634e-009 -2.03078e-009 -1.91207e-009 -1.96955e-009 1.39153e-009 -1.39202e-010 1.20883e-009 1.38272e-009 1.96648e-009 -2.19812e-009 -1.92493e-009 2.37018e-009 -2.2475e-009 -1.90072e-009 -1.23539e-009 -8.36173e-010 -2.27283e-010 -1.96978e-009 3.09615e-010 -2.70592e-009 3.1796e-010 2.11552e-009 1.99409e-010 1.60292e-009 -7.31228e-010 6.66697e-010 4.95455e-010 -1.38294e-009 7.50226e-010 -5.55973e-010 5.53702e-010 -2.10792e-009 -1.42572e-009 2.28641e-009 3.39363e-010 1.42299e-009 -1.98909e-009 1.90352e-009 1.63398e-009 -2.7181e-009 1.38202e-009 -2.23509e-009 -2.03063e-009 1.11069e-009 1.91294e-009 1.03957e-009 1.65712e-009 1.77707e-009 1.49959e-009 5.00992e-010 -2.61358e-009 -8.75465e-010 1.11075e-010 -2.47413e-009 -2.68379e-010 -1.28329e-010 2.1191e-009 -5.13698e-010 -7.87691e-010 -1.88366e-009 1.92747e-009 7.67383e-010 -2.62552e-009 -2.68492e-009 -6.52562e-010 -1.55559e-009 1.60068e-009 -1.82386e-009 -1.42949e-009 1.04864e-009 -1.51576e-009 -2.68273e-009 -3.94825e-010 -1.64544e-009 -1.65759e-009 -2.38792e-009 1.25801e-009 -2.57353e-009 -9.56309e-010 -1.41778e-009 -1.64054e-009 1.65828e-009 8.77684e-010 -1.11773e-009 -1.31822e-009 -2.62694e-009 -2.60407e-010 -6.22799e-010 -1.84171e-009 -6.60954e-010 -3.85345e-010 2.59445e-009 8.05508e-010 -1.36802e-010 2.50941e-009 -1.95605e-009 -2.34753e-009 2.24817e-009 -2.08306e-009 1.99204e-009 -2.1706e-009 1.92354e-009 -3.86469e-010 -1.43526e-009 2.14176e-009 -1.51561e-009 -2.52691e-009 -1.03761e-010 7.06741e-010 1.72583e-009 -1.26074e-009 2.52146e-009 2.22748e-009 -2.60563e-009 -1.2398e-009 -6.62683e-010 -3.76222e-011 -1.64682e-010 -2.68405e-010 3.17523e-011 -9.98044e-010 1.21834e-010 -1.43594e-009 7.42273e-010 -1.19488e-009 1.87408e-009 2.30711e-009 9.60127e-010 2.5317e-009 2.21606e-009 2.43343e-009 -1.09368e-010 -2.526e-009 6.39978e-010 9.93266e-010 9.83952e-010 -1.79024e-009 1.89701e-009 2.09646e-009 7.92637e-010 -2.58655e-009 -5.18905e-010 2.21832e-010 2.67232e-009 -1.84679e-010 -2.25073e-009 2.81308e-010 -1.46417e-009 -7.07098e-010 1.43696e-009 1.88874e-009 -2.64119e-009 1.24718e-009 -2.46149e-010 -1.50229e-009 -1.10423e-009 1.93619e-009 2.21513e-009 -6.56606e-010 -1.92398e-009 -1.48219e-009 4.88055e-010 2.10948e-009 5.58825e-010 1.14744e-009 -1.07504e-010 1.15974e-009 -2.72784e-009 -1.54623e-009 1.99138e-009 2.81494e-009 1.95102e-009 -4.00293e-011 2.5794e-009 1.24647e-009 -1.50865e-009 2.45019e-009 2.46164e-010 2.59628e-009 1.27057e-010 7.80087e-010 1.84401e-010 -1.38539e-009 1.40242e-009 2.25546e-009 2.03234e-009 -1.1006e-009 4.49848e-010 2.65782e-009 -4.61698e-010 -7.50897e-010 -1.83593e-009 2.08879e-009 -7.89981e-010 2.29595e-009 -1.64152e-009 9.02182e-010 1.09852e-009 -1.92958e-009 -1.97593e-010 2.13042e-009 -4.44206e-010 1.77359e-009 2.6408e-009 -2.35252e-009 2.23782e-009 1.34306e-009 1.28687e-011 2.19061e-009 -5.3808e-010 -1.78659e-009 -8.64257e-010 1.16289e-009 9.98056e-010 -2.49352e-009 -2.52896e-009 1.28556e-009 2.66751e-009 -2.07774e-009 1.13633e-009 -8.17755e-010 2.58312e-009 -2.49204e-009 1.97564e-009 1.39444e-009 1.08471e-009 2.06598e-009 4.76096e-011 1.93083e-010 -1.61899e-009 2.1541e-009 6.686e-010 2.28957e-009 2.33678e-009 2.83459e-009 -2.63989e-009 1.27565e-009 -7.57695e-010 1.99558e-009 7.26301e-010 8.72168e-011 7.21866e-010 -1.43734e-009 8.60935e-010 -4.32262e-011 2.46021e-010 1.42869e-009 -2.08589e-009 1.62489e-009 -4.75653e-010 9.3375e-010 7.52893e-010 -1.56059e-009 -2.03273e-009 -1.00391e-009 5.74642e-010 -1.45781e-009 1.88458e-010 -5.3606e-010 1.81307e-009 -2.32699e-009 1.64255e-009 -2.77002e-009 -2.37972e-009 2.66187e-009 1.71118e-009 -2.45421e-009 1.91909e-009 -1.21871e-009 -1.24805e-009 1.90642e-009 -2.54168e-009 -4.07483e-010 -2.42391e-009 -2.39652e-009 -1.06608e-009 2.74688e-009 9.8733e-010 9.16396e-010 -1.80946e-009 -9.87462e-010 7.9796e-010 4.26482e-010 1.33347e-009 -1.95986e-009 1.91699e-009 -1.47722e-009 2.19113e-009 2.333e-009 2.61102e-009 2.62031e-010 1.66057e-010 9.9874e-010 1.74488e-009 7.87141e-010 -1.72828e-009 -1.20995e-009 1.95946e-009 2.70362e-009 2.31496e-009 -1.72531e-009 2.7092e-009 1.89448e-009 -2.40428e-009 8.22995e-010 2.36206e-009 1.60103e-009 -2.2914e-009 -2.13531e-009 -1.34592e-010 2.47662e-009 1.43397e-009 2.42612e-009 4.25588e-010 1.06421e-009 2.29523e-009 1.93166e-010 -8.16295e-010 -9.24936e-010 -9.64231e-010 -1.78769e-010 -4.17668e-010 1.51446e-009 2.17353e-009 -1.26198e-010 1.91208e-009 -2.10858e-009 -1.73755e-009 -1.8385e-009 -1.97609e-009 3.3967e-010 -5.02123e-010 -1.29691e-009 1.22031e-009 -1.16915e-009 1.21516e-009 2.31775e-010 -2.10411e-009 2.32875e-009 -1.63645e-009 -1.8699e-009 -2.46366e-009 -6.71123e-010 -2.40733e-009 2.08193e-010 -2.27354e-009 -1.82971e-009 -2.52018e-009 -2.16859e-009 1.56268e-009 2.18618e-009 -1.93965e-009 -1.7124e-009 1.95617e-009 -5.81035e-010 1.69522e-009 2.97535e-011 -2.16968e-009 2.48568e-009 -1.90374e-010 -1.02739e-009 2.14475e-009 -1.2065e-009 -1.5808e-009 -1.14856e-009 -1.7942e-010 -2.59041e-010 1.84365e-009 2.78505e-009 -1.15208e-009 5.50028e-011 -2.36756e-010 1.53182e-009 7.91706e-010 -4.80776e-010 -2.64305e-009 -1.24679e-009 6.7109e-011 2.66312e-009 2.68372e-009 -2.34204e-009 1.31631e-009 -2.43522e-009 6.93591e-010 -2.00365e-009 -5.64858e-010 1.57544e-010 -1.076e-009 -4.64005e-010 6.02831e-010 7.00854e-010 -2.57824e-009 1.25731e-009 -1.04622e-009 -9.5562e-010 9.66738e-010 -2.61089e-009 2.50962e-009 8.36184e-010 -9.21904e-010 9.18106e-010 -2.10315e-009 -5.50266e-010 7.7869e-010 -5.32244e-010 2.33364e-009 -5.67695e-010 -1.65277e-009 -2.71589e-009 -1.80055e-009 3.99774e-010 9.73294e-010 -2.20624e-009 8.25056e-010 -5.31805e-010 -1.00803e-009 1.13303e-009 1.78524e-009 2.53266e-009 1.66925e-009 -3.92178e-011 2.38372e-009 -1.48888e-009 2.61968e-009 -2.06645e-009 8.87804e-010 1.11889e-009 -1.92606e-009 -1.31642e-009 -2.06137e-009 2.4731e-009 1.81055e-009 -6.95546e-010 7.72153e-010 -1.32451e-009 -1.70945e-009 4.40773e-010 1.81636e-009 -1.36981e-009 2.0689e-009 8.36939e-010 -1.64519e-009 1.40964e-009 -9.07586e-010 -2.45945e-009 -2.05035e-009 -2.38853e-009 -1.42275e-009 -2.17755e-009 2.18298e-009 -1.00659e-009 2.27628e-009 5.61279e-010 -1.25229e-009 -1.20202e-009 -9.55942e-010 1.74802e-009 -7.18216e-011 -4.602e-010 1.51102e-010 -4.93333e-010 -2.43327e-009 -1.92843e-009 -1.5037e-009 -7.05396e-010 1.8782e-009 -1.33727e-009 -1.30523e-009 2.27088e-009 -2.65572e-009 -1.24013e-009 -1.14784e-009 2.05669e-009 -1.38782e-009 1.73396e-009 -7.26548e-010 -1.97654e-009 -7.79838e-010 5.45669e-010 -2.46328e-009 7.34514e-010 -7.20277e-010 1.08804e-009 2.79855e-009 -2.25294e-009 -7.59551e-010 2.35549e-009 2.06197e-009 1.25597e-010 1.53303e-009 1.52474e-009 2.63291e-009 2.42448e-009 7.91296e-010 2.71129e-009 1.87579e-009 1.50065e-009 -1.14328e-009 -2.26673e-011 -1.27729e-009 1.26605e-009 -4.36321e-010 1.57319e-009 -4.18928e-010 1.68963e-009 -1.66759e-009 -3.01948e-010 1.61463e-009 1.53304e-009 3.25486e-010 -2.55039e-009 -2.62582e-009 2.63652e-009 3.49963e-010 -1.80577e-009 -2.75817e-009 -2.57707e-009 -2.77065e-009 2.32035e-009 1.65043e-009 -1.68987e-009 9.37086e-010 7.59926e-010 -1.86638e-009 -2.79875e-009 2.46662e-009 -1.57827e-009 -1.0355e-009 -1.9454e-009 1.4775e-009 1.24957e-009 7.18547e-011 1.20151e-009 -5.58051e-010 -2.06339e-009 2.36693e-009 2.87578e-010 -8.94404e-010 -2.25323e-009 1.54443e-009 1.75747e-009 -2.55934e-009 1.01437e-009 -2.60561e-009 -1.10062e-010 1.4683e-009 1.28049e-009 1.14422e-009 1.65599e-009 1.80067e-009 1.93573e-009 2.392e-009 -2.19412e-009 -9.98587e-010 -1.22472e-009 6.03862e-010 -1.38648e-010 -7.61594e-010 -1.37533e-009 -2.32516e-009 -8.38848e-010 2.26553e-011 2.17727e-009 -6.66291e-010 -2.74896e-009 -2.68992e-009 -2.2472e-009 1.94743e-009 -2.28796e-010 -1.39781e-009 -1.57908e-010 2.18425e-009 -1.58449e-009 -4.0279e-010 2.36268e-009 -6.25665e-010 -9.02996e-010 1.63105e-009 2.49672e-009 8.46011e-010 -2.0496e-009 1.26036e-009 -2.61273e-009 2.58758e-009 -4.66434e-010 6.3702e-010 -9.19212e-010 4.85708e-010 1.29812e-009 2.18609e-010 1.20562e-009 -5.56108e-011 -8.25646e-010 -2.14399e-009 1.93193e-009 2.19692e-009 2.82185e-009 9.29513e-010 8.3266e-010 -1.72819e-009 2.45806e-009 -2.51877e-009 -1.23439e-009 3.67018e-010 -2.45656e-009 -2.55696e-009 -9.60074e-010 -1.80448e-009 -2.51186e-009 -1.49638e-009 -1.4666e-010 2.16307e-009 1.11572e-009 -1.66382e-009 1.38463e-009 1.02527e-009 5.72006e-010 -1.28253e-009 2.48143e-009 8.86744e-010 -2.20091e-009 2.59026e-010 -2.79025e-009 -4.1391e-010 5.70699e-011 -2.76302e-009 -1.19472e-009 1.63735e-009 -1.91884e-009 1.18679e-009 1.30829e-009 1.82251e-009 1.94483e-011 -2.83622e-009 3.67777e-010 5.59113e-011 -4.40911e-010 -1.16657e-010 -1.76662e-009 -3.03129e-010 -7.51269e-010 1.7456e-009 -1.47358e-009 -1.39745e-009 -2.67864e-010 -1.21458e-009 -2.79571e-009 -1.88345e-009 1.84794e-009 2.10431e-009 1.25894e-009 5.52238e-010 -1.83977e-009 5.61537e-010 2.33759e-009 7.34981e-010 1.81905e-009 1.55689e-009 -4.99534e-010 -1.35622e-009 -1.04389e-009 2.66943e-009 -1.81885e-009 -2.72706e-009 -1.85536e-009 4.24962e-010 -2.13742e-009 3.23882e-010 2.34762e-009 -2.10174e-009 1.34983e-009 -1.36585e-009 -1.5616e-009 1.13011e-009 2.06787e-009 -1.24334e-009 -5.12782e-010 7.77833e-011 1.83327e-009 2.28378e-009 -7.60139e-010 8.26361e-010 -2.70865e-009 -1.90883e-009 -7.29954e-010 -7.76914e-010 3.47315e-010 -1.94889e-009 2.02604e-009 -9.97987e-010 -1.44432e-009 2.65222e-009 -7.613e-010 -1.87096e-009 -8.47638e-010 9.03754e-010 2.42334e-009 6.36635e-010 6.28931e-010 6.04097e-010 1.12581e-009 -1.44611e-009 -2.48314e-009 1.33034e-009 -2.64815e-009 3.19282e-010 -1.67361e-009 -2.47126e-009 -2.21167e-009 -2.1908e-009 2.29546e-009 -6.25731e-011 2.65254e-009 2.62813e-010 -2.09105e-009 -3.15321e-010 -2.09182e-009 -7.38429e-010 -7.82271e-010 2.25022e-009 1.53874e-009 1.81267e-010 5.95319e-010 -6.00756e-010 -2.29798e-009 2.2572e-009 -2.81862e-009 1.06189e-009 -2.40747e-009 1.08945e-009 3.95084e-010 -1.4146e-009 -2.12152e-009 6.13847e-011 2.45308e-009 -7.92082e-010 7.64674e-010 -1.75366e-009 1.60486e-009 1.20583e-009 -2.12776e-009 2.15411e-009 2.15259e-009 -2.67027e-009 -1.77465e-009 1.01709e-009 -3.2044e-010 -2.5418e-011 -8.53868e-010 4.38206e-010 -1.78729e-009 2.17765e-009 -2.36568e-009 2.34632e-009 2.27778e-009 1.22855e-009 -1.42032e-009 -2.63986e-009 2.75445e-009 1.35439e-009 -1.62844e-009 -2.63884e-009 -2.83903e-009 -2.2408e-009 -4.75352e-010 -1.39014e-009 -7.89326e-010 1.43647e-009 2.48766e-009 6.30377e-010 -1.52959e-009 -2.31545e-009 1.60371e-009 2.83447e-009 2.76896e-010 -2.51903e-009 -1.97337e-009 -1.88187e-009 -9.98046e-011 -2.02958e-009 6.9172e-010 -1.91499e-009 -6.02572e-010 -2.54177e-009 -1.43444e-009 1.03619e-009 2.69541e-009 2.79467e-009 -1.96725e-009 -1.90768e-009 1.53312e-009 6.00722e-010 7.28019e-010 -2.80371e-009 -8.76374e-010 -2.45965e-009 2.63887e-009 2.07039e-009 -1.36639e-011 -2.73225e-009 2.83776e-009 -3.9363e-010 -2.36232e-009 -7.88841e-010 -3.6213e-010 -4.22522e-010 5.98648e-010 2.69158e-009 -3.21969e-011 1.23622e-009 1.66074e-009 7.7121e-010 -2.01505e-009 -1.85765e-009 -9.19452e-010 6.66968e-010 -2.14428e-009 -8.9463e-010 -1.03609e-009 -3.28091e-010 -2.73897e-009 -1.83412e-010 1.82919e-009 -2.45521e-009 -4.22788e-010 2.43489e-010 -1.00746e-010 1.66156e-009 7.12626e-010 -5.82609e-010 -2.25512e-009 -2.90973e-010 1.56212e-009 2.50092e-009 3.65737e-010 -2.33635e-010 2.11924e-009 1.25245e-009 -2.53511e-009 4.04636e-010 2.30545e-009 -1.34684e-009 -6.51039e-010 -1.05087e-009 -1.577e-009 -2.15454e-011 -1.80089e-009 1.78529e-009 -1.45527e-009 -1.81934e-010 -3.96741e-010 -1.51175e-009 1.7895e-009 1.86147e-009 -2.3327e-009 3.71589e-010 1.27638e-009 -1.11842e-009 2.73005e-009 -5.47396e-010 2.74073e-009 2.57798e-009 -2.05886e-009 -2.16555e-009 -3.79366e-010 1.92171e-009 -8.54293e-010 2.21001e-011 8.68191e-010 7.17418e-010 0.00125921 0.00126792 0.00273909 0.00155949 -0.003002 -0.00510429 -8.59847e-005 0.000290565 0.00746631 0.00333222 -0.0108011 0.00116119 -0.00095291 0.0103313 0.00408708 5.53901e-005 0.00159395 -0.000710198 0.00404966 0.00716956 -0.00589402 0.00104987 -0.00726606 -0.0048445 0.00215174 -0.000696572 -0.00535787 0.0030391 0.00756945 0.00673235 0.000419491 -0.000431749 0.00425134 -0.00232312 0.00423172 -0.00230678 -0.00578998 -0.00583235 -0.0075991 0.000209097 -0.00599262 0.000103414 -0.00791709 0.00264012 -0.00471998 -0.000490316 -0.000390561 0.000252132 -0.000733035 0.000416544 0.0011476 -0.00234309 -0.00774688 0.00122694 -1.98474e-005 0.00359653 -0.000524386 -0.000427197 -0.000258213 0.0112721 -0.00464436 0.00369953 -0.0257352 -1.16838e-005 0.00770501 0.00123095 -0.00731808 0.00380223 0.00839218 0.00262216 0.000251986 0.000705811 0.00144161 0.0128916 0.00111461 0.00892919 -0.0173517 0.00246416 0.00139858 -0.00165125 -0.0188771 -0.00758618 0.00116533 0.00215102 0.00366457 -0.01392 0.000441142 -7.10016e-005 0.00983072 -0.000414841 0.000119463 -0.00195366 -0.00160805 -0.00297811 -0.000660433 -0.000490254 0.00011602 -0.00067108 -0.00614024 0.0045479 0.00162066 -0.0102826 -0.000484319 0.000225474 0.0118871 -0.00948435 -0.0102509 -0.00535414 -0.0039021 0.00072835 0.000929524 -0.000180153 0.0129359 -0.00291482 -0.000103003 -0.000112573 -0.00884469 0.000233565 0.00350775 0.00511898 -0.00573367 0.0016387 -0.00208549 0.00051055 -0.00309178 -0.00271854 -0.00102636 0.00148955 -0.00520801 -0.0118676 0.0212695 -0.00992707 -0.000861901 -0.000542656 0.000516375 0.015463 -0.000356049 0.000898801 -0.000225714 0.00182374 -6.25377e-005 -0.0039439 -0.0121513 0.00111524 -0.00432306 0.00451991 0.00315123 -0.0184672 -0.00837998 0.00638758 -0.0226898 0.00373133 -0.00343379 0.00335345 -0.00342681 -0.0087887 0.00386766 -0.0171552 -0.000934485 -0.00135074 0.00802176 -0.00279492 -0.00603334 -0.00337834 -0.00194404 0.0125358 -0.0140213 0.00536287 0.000374331 -0.00528413 -0.000583424 0.000234535 0.0162659 0.0118526 0.00111516 0.00948955 0.00346431 -0.000710781 -0.0106657 0.000147503 3.84646e-005 0.00114913 -0.000162408 -8.70373e-005 0.00191092 0.000287334 -0.000881957 -0.00174229 0.00128067 -0.000151296 -0.0039392 0.00690347 0.000242215 -0.00533346 0.000474239 -0.00770713 0.0151655 0.00645518 0.00214189 0.000162991 0.00125921 0.00126792 0.00273909 0.00155949 -0.003002 -0.0051043 -8.59831e-005 0.000290565 0.0074663 0.00333222 -0.0108011 0.00116119 -0.000952908 0.0103313 0.00408708 5.53914e-005 0.00159395 -0.000710199 0.00404966 0.00716956 -0.00589402 0.00104987 -0.00726607 -0.0048445 0.00215174 -0.000696572 -0.00535788 0.0030391 0.00756944 0.00673235 0.000419495 -0.000431747 0.00425135 -0.00232312 0.00423171 -0.00230678 -0.00578999 -0.00583234 -0.0075991 0.000209099 -0.00599262 0.000103413 -0.00791709 0.00264012 -0.00471998 -0.000490319 -0.000390562 0.000252136 -0.000733033 0.000416544 0.0011476 -0.00234309 -0.00774688 0.00122694 -1.98451e-005 0.00359653 -0.000524391 -0.0004272 -0.000258211 0.0112721 -0.00464436 0.00369953 -0.0257352 -1.16841e-005 0.00770502 0.00123095 -0.00731808 0.00380223 0.00839217 0.00262216 0.000251985 0.000705813 0.00144161 0.0128916 0.00111461 0.00892919 -0.0173517 0.00246416 0.00139858 -0.00165125 -0.0188771 -0.00758617 0.00116533 0.00215101 0.00366457 -0.01392 0.000441144 -7.10051e-005 0.00983072 -0.000414841 0.000119461 -0.00195367 -0.00160806 -0.00297811 -0.000660438 -0.000490257 0.000116024 -0.000671079 -0.00614024 0.0045479 0.00162066 -0.0102826 -0.000484317 0.00022547 0.0118871 -0.00948435 -0.0102509 -0.00535415 -0.00390209 0.000728351 0.000929524 -0.000180153 0.0129359 -0.00291482 -0.000103003 -0.000112573 -0.00884469 0.000233567 0.00350775 0.00511898 -0.00573367 0.0016387 -0.00208549 0.00051055 -0.00309178 -0.00271853 -0.00102636 0.00148955 -0.00520801 -0.0118676 0.0212695 -0.00992707 -0.000861901 -0.000542652 0.000516376 0.015463 -0.000356048 0.000898804 -0.000225716 0.00182374 -6.254e-005 -0.0039439 -0.0121513 0.00111525 -0.00432306 0.00451991 0.00315124 -0.0184672 -0.00837998 0.00638758 -0.0226898 0.00373133 -0.00343379 0.00335344 -0.0034268 -0.00878869 0.00386765 -0.0171552 -0.000934482 -0.00135074 0.00802176 -0.00279492 -0.00603334 -0.00337834 -0.00194404 0.0125358 -0.0140213 0.00536287 0.000374328 -0.00528413 -0.000583425 0.000234532 0.0162659 0.0118526 0.00111516 0.00948955 0.00346431 -0.000710778 -0.0106657 0.000147504 3.84621e-005 0.00114912 -0.000162408 -8.70351e-005 0.00191092 0.000287331 -0.000881958 -0.00174229 0.00128067 -0.000151299 -0.0039392 0.00690347 0.000242214 -0.00533346 0.000474234 -0.00770713 0.0151655 0.00645518 0.0021419 0.000162987 0.00699457 0.00532229 0.0454414 0.00712735 -0.0204562 -0.016602 0.00431426 0.00625182 0.0357423 0.0150681 -0.0542207 0.0177141 -0.00620503 0.029478 0.0276018 0.0013291 0.00697204 -0.0168953 0.0209802 0.0259836 -0.0258541 0.00593797 -0.0257192 -0.0167176 0.0121766 -0.00525308 -0.0175747 0.00732181 0.0427138 0.0324696 0.0032794 -0.00353183 0.0259063 -0.00167366 0.0106006 -0.00897105 -0.0210952 -0.0180885 -0.0384574 0.00401863 -0.0191894 0.000977273 -0.0306723 0.0152986 -0.0296736 0.000179941 0.000366224 0.00157355 -0.00237708 0.00489543 0.00650024 -0.010519 -0.0271547 0.0261531 -0.000214117 0.0117614 -0.00216799 0.000464687 -0.00115403 0.0496919 -0.0158319 0.0140915 -0.0892622 -0.000226206 0.0345721 0.00552827 -0.0266636 0.0221856 0.0378692 0.0153812 0.00423133 -0.000767891 0.00246448 0.0539705 0.00667646 0.0327754 -0.0589179 0.00997132 0.0065271 -0.00776463 -0.089328 -0.0325211 0.00411551 0.0126784 0.0190184 -0.0515293 0.0085722 -0.000673717 0.0539127 -0.00677081 0.00237668 -0.00908911 -0.00205098 -0.00731193 -0.0013705 0.000514227 -0.0011332 -0.000456001 -0.0174184 0.0078693 0.0327674 -0.0455039 -0.00500466 0.00409599 0.0397548 -0.0445814 -0.0308782 -0.017005 -0.0176508 0.00805128 0.00978252 -0.00448534 0.0385545 -0.00906157 -0.00386051 3.32561e-005 -0.031856 0.00413566 0.0219793 0.0161693 -0.023786 0.00654034 -0.00423187 0.00864616 -0.0103775 -0.00487826 -0.00570768 0.00631953 -0.0450777 -0.042246 0.0796489 -0.0335861 -0.00173597 -0.00143614 0.00539008 0.0654934 0.00104697 0.0107455 0.00370655 0.011347 -0.00113619 -0.0112125 -0.0345266 0.00508956 -0.0160058 0.0258153 0.0231059 -0.0668061 -0.0740833 0.035907 -0.0817713 0.0090687 -0.0148581 0.0100259 -0.011112 -0.041991 0.0311119 -0.0594765 -0.00172632 -0.00608107 0.0364863 -0.0243662 -0.043378 -0.0105631 -0.00511123 0.0438984 -0.0504667 0.0362241 0.00589627 -0.0184088 0.00224268 0.00365822 0.0568977 0.0473 0.00812495 0.0320278 0.0159049 -0.00392167 -0.0385993 -0.000246969 0.000983037 0.00758605 0.00368609 0.000405801 0.0244146 -0.000487282 -0.00320315 -0.00260418 0.0142802 -0.00154294 -0.0130528 0.0265103 0.00416783 -0.017721 0.00507181 -0.0294732 0.0575423 0.0466925 0.0134592 0.00287961 0.000230251 -0.000877828 0.0137391 0.00118755 -0.00691788 -0.000213948 -0.00896419 0.00604737 0.000323273 -0.00311501 -0.00969069 0.00582588 -0.000459762 0.000384087 -0.000526516 -0.00322711 -0.000203315 -0.00285598 -0.000818571 0.00463776 0.0053913 0.00429167 0.000775167 -0.00714617 0.00108927 -0.000277191 -0.00309009 -0.000701645 0.00598606 0.00886997 -0.00135562 -0.00152164 0.00506324 0.00347881 -0.000860703 -0.00170249 -0.000790777 -0.00516435 0.00192361 0.00223197 -0.000748581 -0.00455252 -0.00143901 0.00455607 -0.00697261 0.000807891 0.000414741 0.0160752 0.00026857 0.00234709 0.0025632 -0.0041631 -0.00256237 0.00548355 0.00144106 0.0031576 0.000746793 0.00304867 -0.00700011 -0.000142747 0.00186001 0.00225151 -0.00150266 0.00836959 0.00599584 0.000768412 -0.00178877 -0.00195154 0.000948853 0.00161753 0.00211124 -0.0031816 -0.000854338 0.00441105 0.000646662 -0.0026058 0.000575735 -0.0026264 0.00437284 -0.0024631 -0.0105305 -0.0051277 0.00137544 0.00785184 0.00405214 -0.0114372 0.00386626 -0.00309441 0.00681512 -0.00793423 -0.00115481 -0.00130042 -0.0120966 0.00286192 -0.00268849 0.00304621 0.00858076 0.00134818 -0.000780167 -0.00416001 0.015115 -0.00345635 0.00547829 0.00218794 0.00215542 -0.00544066 0.00131658 0.00158097 -0.00299516 -0.00241203 0.00159515 0.00107916 -0.00232434 0.000852353 -0.00111037 -0.00795473 -0.00018268 0.00216463 0.00545372 -0.00318877 -0.0105414 -0.00112076 -0.000476451 0.00847444 -0.00306228 0.00519905 0.00265066 0.000128676 -0.0107684 -0.000945971 0.0112495 -0.00341032 -0.00208721 0.000726213 0.00168651 0.00900313 0.00296085 0.0095356 0.00342748 0.00230478 -0.00164989 0.000910739 0.00303041 0.00372354 -0.000214641 0.00408048 0.00124258 -0.0049984 -0.0145573 0.0072687 -0.0111678 -0.00298249 -0.00456453 0.00126506 0.00104543 -0.00817828 0.0100376 -0.00629748 0.000334952 0.00270499 -0.00048487 -0.00608552 -0.00148658 0.000160777 0.00204778 0.000368821 -0.00129131 0.00352764 0.00394514 -0.00162749 0.00141017 0.00441205 -0.000231408 0.00187038 -0.00104386 -0.000616068 0.00273818 -0.002819 -0.00234072 0.00804092 -0.00260249 0.00214384 0.00286012 -0.007895 0.0145458 -0.000354827 -1.09183e-005 0.00551515 -0.010202 0.00513392 0.0012922 0.00428054 0.00213715 0.000794784 0.000786685 -0.00139345 0.00267079 0.00711971 -0.000410431 -0.00745395 -1.68137e-009 2.09313e-009 2.34315e-009 1.14595e-009 -2.41975e-009 8.6567e-010 3.46299e-010 1.72112e-009 2.1876e-009 -1.27008e-009 1.03005e-009 5.41121e-010 1.15126e-009 1.55672e-009 2.76186e-009 2.03157e-009 -1.15937e-009 -1.85133e-009 1.21927e-009 2.28762e-009 -1.60628e-009 -1.75764e-009 -1.18422e-009 -1.46867e-009 -1.68729e-009 1.68246e-009 -4.98733e-010 2.6484e-009 -2.52221e-009 -2.86325e-010 2.15982e-009 2.23722e-009 7.08613e-011 1.11342e-009 -1.18244e-009 -1.66819e-009 -1.42417e-009 -8.90393e-010 2.81451e-009 -1.45101e-010 -2.08627e-009 -4.82941e-010 -2.15958e-009 -2.08529e-009 4.0627e-010 -2.79821e-009 -1.63967e-009 -6.39417e-010 2.80961e-009 2.10811e-009 -2.39833e-009 2.46359e-009 -1.24348e-009 2.48499e-009 -2.32241e-009 1.81537e-009 -1.09892e-009 -3.6505e-010 -1.27167e-009 -5.9752e-010 1.38593e-009 -8.00013e-011 -1.13369e-009 2.17772e-009 -2.82054e-009 -3.99468e-010 -2.70047e-009 9.82115e-011 1.08741e-009 1.69593e-009 -1.5732e-010 -1.84203e-009 2.17935e-009 1.74247e-009 -2.59999e-009 6.17317e-011 -1.00408e-010 2.00237e-010 -9.81305e-010 -9.97045e-010 8.20238e-010 -2.08082e-011 -1.0189e-009 4.10242e-010 -1.7705e-010 -1.03781e-009 2.37045e-009 -1.44203e-010 1.97129e-009 -1.44496e-009 1.79776e-010 -1.92098e-009 1.20267e-009 -1.93591e-009 -1.86305e-009 -2.46383e-009 -1.82025e-009 4.62711e-011 -2.39086e-009 -2.14581e-009 -1.35581e-009 -1.29858e-009 5.59903e-010 2.64457e-009 -6.64523e-010 -8.26623e-010 -1.48529e-009 -2.23116e-009 -5.27275e-010 1.55029e-009 -2.79959e-009 -4.77409e-010 -1.81241e-009 -9.89653e-010 -2.77815e-009 -1.12668e-009 -2.41222e-010 -2.78656e-009 1.92948e-009 2.25119e-009 1.88081e-009 5.48179e-010 2.06041e-009 -2.76827e-011 3.14951e-010 4.68983e-012 -2.21605e-009 -1.39562e-009 1.21939e-009 -2.29735e-009 1.85718e-009 1.87774e-009 -1.61061e-009 -8.05104e-010 -1.21889e-009 -7.79869e-010 -1.1184e-009 1.00635e-009 -2.62017e-009 -1.81814e-009 2.36748e-009 1.22879e-009 2.59003e-009 -1.62501e-010 -2.14373e-010 -2.22067e-009 -6.6668e-010 1.17152e-009 -2.77921e-009 -1.78757e-009 1.77946e-009 5.02978e-010 2.0579e-009 -2.93936e-010 1.26242e-009 -1.5707e-009 5.81416e-010 -9.308e-010 -2.8489e-010 -1.96196e-011 6.39828e-010 5.83707e-010 -3.46889e-010 1.51285e-009 -1.22802e-009 1.82388e-009 2.02166e-010 1.92282e-009 2.80113e-009 2.43172e-009 -1.24291e-009 -2.27424e-009 1.99539e-009 -1.51071e-009 1.24343e-009 -1.21879e-009 2.42657e-009 1.24385e-009 -2.33724e-010 7.27899e-010 -1.13157e-009 -4.26179e-010 -8.57942e-010 -2.53717e-009 -2.64264e-009 2.39759e-009 4.79714e-010 2.06507e-009 1.87015e-010 5.06396e-011 5.35058e-010 -1.99122e-009 -3.22501e-011 -5.71748e-010 -1.41687e-010 -1.70806e-009 1.28693e-009 -2.79349e-009 -2.37721e-009 -2.69143e-009 -8.16761e-010 -1.85872e-009 -2.46805e-009 -2.32883e-009 2.73221e-009 -1.78766e-009 4.49177e-011 -9.36941e-010 2.5616e-009 -1.7201e-009 -1.47635e-009 -1.45389e-009 -1.86622e-009 1.51275e-009 -2.17463e-009 3.23485e-010 2.11743e-009 8.05097e-010 -1.81772e-009 -2.44351e-009 -1.67321e-009 2.27039e-009 2.60421e-009 6.59751e-010 2.21007e-009 -1.29069e-009 2.72084e-009 1.52077e-009 -2.19759e-009 -6.42931e-010 2.04062e-009 -2.9901e-010 -1.11512e-009 2.61239e-009 -1.77026e-009 -1.40271e-009 -2.56562e-009 -1.13515e-010 -2.46178e-009 -1.94644e-009 2.33024e-009 -1.63392e-009 5.18789e-010 -1.34835e-009 1.37722e-009 2.07171e-009 -2.75455e-009 -1.3179e-009 1.42982e-009 1.36104e-009 -2.58884e-009 -2.72103e-009 -2.08204e-009 -1.80174e-009 -1.1735e-009 -2.30131e-009 1.78356e-009 2.82027e-009 2.70391e-009 1.9977e-009 -1.38974e-009 1.59806e-009 -1.85037e-009 -7.8722e-010 -6.80153e-010 -1.45149e-009 -9.1129e-010 1.78728e-009 -1.226e-009 -2.61766e-009 1.57916e-009 -1.34224e-009 -1.42887e-009 -1.4807e-009 2.31371e-009 6.48162e-010 2.22618e-009 9.58818e-010 2.23402e-009 1.99477e-009 1.84341e-009 -2.07695e-009 -1.37142e-009 -1.98834e-009 1.07626e-009 -1.17595e-009 8.20035e-011 -2.59533e-011 -1.58358e-009 2.24908e-009 -4.99558e-010 2.32748e-009 1.29922e-009 -2.3852e-010 1.45033e-009 1.50334e-009 -2.02185e-009 -1.52364e-009 -2.64931e-009 1.74453e-009 2.21794e-009 -2.2532e-009 1.10404e-009 -2.40632e-009 2.76034e-009 2.4192e-009 2.03005e-009 -2.65243e-010 -2.4536e-009 9.2854e-011 2.52558e-009 -3.27232e-010 -1.8667e-009 1.17155e-009 -1.36745e-009 2.13143e-009 8.24049e-010 -2.38879e-009 -2.49699e-009 -1.36917e-009 1.21665e-009 1.91631e-009 2.58742e-010 -4.0099e-010 -1.56864e-009 1.66645e-009 -2.36169e-009 -7.87543e-010 -2.03154e-009 -1.15146e-009 -9.05652e-010 2.42025e-009 -7.77853e-010 6.66021e-010 2.30882e-009 2.26598e-009 -2.22355e-009 -1.78424e-009 2.44183e-009 -3.91416e-010 -1.876e-009 -2.65372e-009 1.21332e-010 -1.67877e-009 -1.03056e-009 3.81005e-010 2.53258e-009 -1.47939e-009 -2.07358e-009 -2.79554e-009 -1.81349e-009 -1.05226e-010 -7.75585e-010 -1.18992e-010 1.44084e-009 -2.50465e-009 -1.1847e-009 -1.60929e-009 -5.06124e-010 2.26223e-009 1.73027e-009 2.17191e-009 8.7477e-011 -2.29564e-009 -9.80722e-010 -3.9472e-010 1.17001e-009 -1.66905e-009 1.1184e-009 2.63724e-009 -2.54595e-009 -2.01385e-009 -6.70524e-010 -1.44645e-009 2.04624e-010 9.16673e-010 -2.28612e-009 -1.21285e-009 -2.27339e-009 8.6343e-010 -2.75293e-009 2.03543e-009 -1.26832e-009 -1.14464e-009 1.80368e-011 -2.40938e-009 -1.1936e-009 1.4967e-009 1.66707e-009 -1.87269e-009 9.8501e-011 -2.19172e-009 2.66012e-009 -6.52293e-010 -2.5987e-009 -1.99773e-009 -3.07116e-010 8.82516e-010 -1.37221e-009 9.53412e-010 -1.55621e-009 1.50762e-010 8.3707e-010 3.87791e-010 -1.93886e-009 2.27467e-009 -1.93808e-009 4.25085e-010 -2.60197e-009 8.53923e-010 -9.27675e-010 -7.77397e-010 -1.96565e-009 1.64133e-009 1.02598e-009 3.40472e-010 7.58239e-010 -2.65189e-009 2.68641e-009 5.18074e-010 1.78548e-009 -8.7251e-010 1.26498e-009 2.50851e-009 -2.57364e-009 1.98008e-009 -1.52602e-009 -1.18983e-010 -2.39129e-010 1.75442e-009 -2.41886e-009 2.58008e-009 9.75895e-011 -9.07917e-010 -1.09483e-009 1.96217e-010 5.68393e-011 4.28512e-010 1.19085e-009 -1.80076e-009 1.45023e-009 -2.81553e-009 -2.83698e-009 -2.36921e-009 1.37772e-009 -1.78645e-009 -1.17603e-009 2.38286e-009 -2.3306e-009 2.45988e-009 1.02034e-009 6.71979e-010 -2.12177e-009 5.71394e-010 -1.69344e-009 -2.51999e-010 -4.20578e-010 1.50291e-009 1.31242e-010 -1.72187e-009 2.50917e-009 -1.78342e-009 -6.67431e-010 -2.72066e-009 8.10513e-010 2.37887e-009 1.79481e-009 -2.54479e-009 -1.27482e-009 -9.98043e-010 2.55456e-009 -2.41009e-009 -2.08709e-009 1.19852e-009 1.25583e-009 2.49802e-009 -2.16087e-009 1.51611e-009 -2.41817e-009 2.19904e-010 1.03798e-009 -4.33938e-010 -1.65965e-009 -1.2408e-009 -3.36134e-010 -1.57806e-009 7.23728e-010 -7.30594e-011 2.40616e-009 1.41401e-009 -4.57357e-010 4.7549e-010 -1.93122e-009 -2.66513e-009 -1.46251e-009 -2.69052e-009 2.00445e-009 1.11332e-009 2.76384e-009 2.04587e-009 -3.12357e-010 -2.76359e-009 9.89168e-010 -9.73688e-010 -1.23066e-009 -2.41794e-009 1.14489e-009 8.18343e-010 -2.7328e-009 2.69087e-009 2.33657e-009 -4.21093e-011 -2.33245e-010 -2.62706e-009 -2.49521e-009 -1.79432e-009 -1.80492e-009 -1.28716e-009 2.83107e-010 1.15759e-009 1.52913e-010 -2.1275e-009 2.04141e-009 1.1358e-009 2.13558e-009 -2.2679e-009 5.72802e-010 1.179e-009 1.28577e-009 -5.99584e-010 -1.17919e-009 -7.74042e-010 1.2353e-009 -7.1554e-010 -1.85073e-009 -1.9181e-009 1.88302e-009 5.25795e-010 -2.56017e-009 1.59862e-009 2.58606e-009 2.66682e-009 8.89096e-010 1.6534e-009 -4.87462e-010 -4.55002e-010 1.87783e-009 2.00574e-009 -1.06486e-009 1.53299e-009 9.13992e-010 1.21149e-009 -1.04926e-009 -1.55119e-009 3.29067e-011 -1.18682e-009 -4.83855e-010 -2.1882e-009 -2.13201e-009 -3.55959e-011 -4.44964e-010 -1.16329e-009 2.23277e-009 -2.70466e-009 -2.80051e-009 -5.7618e-010 -1.48006e-009 -1.2706e-010 1.96499e-009 -2.08077e-009 2.22053e-009 -2.36265e-009 2.25584e-010 -4.17842e-010 2.16961e-009 -1.81592e-009 -1.97214e-009 5.62609e-010 -3.55091e-010 1.72741e-009 7.33796e-010 1.27345e-009 2.77389e-009 -1.63865e-009 9.86933e-010 1.01275e-009 1.0935e-009 2.99941e-010 2.19426e-009 1.98122e-009 1.4697e-009 -1.37176e-009 1.11694e-009 7.4964e-010 1.64114e-009 3.76261e-010 -7.21531e-010 1.39848e-009 2.57834e-009 4.56067e-010 1.83625e-009 2.14162e-009 7.33186e-010 1.68862e-009 6.43131e-010 -2.68417e-009 -1.2426e-009 -1.04308e-009 1.00817e-009 6.0207e-010 -9.50879e-010 1.41704e-009 1.70847e-009 -8.70166e-010 -8.6092e-010 -4.94746e-010 1.30942e-009 -1.30478e-009 -3.71214e-010 -8.51437e-010 -2.55885e-009 1.47215e-009 2.59421e-009 -4.29614e-010 -1.66802e-009 -1.90605e-010 -1.46477e-009 -1.68316e-009 -2.7283e-010 6.97605e-010 1.4272e-009 8.14498e-010 2.67097e-009 -1.46853e-009 -2.19091e-009 -9.53602e-010 -2.26716e-009 1.74343e-010 1.21696e-009 1.94726e-009 -2.11263e-009 6.6839e-010 2.00011e-010 7.75978e-010 1.95612e-009 2.77664e-009 -2.61604e-009 -2.78781e-010 1.02321e-010 -5.78562e-010 -1.64056e-010 2.45701e-009 -2.72035e-010 -1.61999e-009 1.61271e-009 1.23236e-009 3.12357e-010 1.42736e-009 -2.64806e-009 -8.58475e-010 -2.66367e-009 -1.68711e-009 4.69437e-010 1.92401e-009 -2.09246e-009 -5.66725e-010 1.61831e-009 2.70791e-010 1.51146e-009 1.61803e-009 -9.15662e-010 -2.58368e-009 2.68324e-009 -2.26061e-009 -1.41017e-009 2.78101e-010 -8.66879e-010 1.36156e-009 1.49645e-009 2.72031e-009 -4.25514e-011 1.06749e-009 2.89624e-010 -4.04928e-010 2.29377e-010 2.52344e-009 2.78333e-009 2.73833e-009 -1.67711e-009 -2.5827e-009 6.67915e-010 1.84052e-009 1.42172e-009 8.47956e-010 1.28012e-009 1.51066e-009 -1.59253e-010 2.57769e-009 -3.40683e-010 -8.35794e-010 -1.80102e-009 1.57685e-009 -2.52339e-009 -1.08149e-010 -2.80977e-009 -8.21027e-010 2.43126e-009 -9.81451e-010 -6.1346e-010 2.14602e-009 -1.80953e-009 8.16494e-011 1.46743e-009 -1.22418e-009 3.77914e-010 -1.37009e-009 -2.32472e-009 6.55148e-011 2.40579e-009 9.65472e-010 -1.85009e-009 1.49612e-010 -6.86019e-010 -1.40896e-009 -1.74297e-009 -2.48324e-009 1.84602e-009 2.22757e-009 -1.11635e-009 1.70843e-009 9.7673e-010 -2.55077e-009 2.55414e-010 1.22777e-009 2.24004e-009 1.07222e-009 1.33198e-009 -5.758e-010 1.60931e-009 1.46496e-010 1.37139e-009 -2.25545e-009 -2.20206e-009 -2.78551e-009 1.05292e-009 -1.81142e-009 -1.85434e-009 -8.44342e-010 2.35847e-009 -9.88059e-011 -5.25932e-010 3.47863e-010 2.23565e-009 1.75114e-009 -1.7991e-009 -2.59302e-009 3.25355e-010 1.91947e-009 -2.42977e-009 1.91126e-009 -8.98461e-010 -2.29094e-010 -2.52613e-009 2.73416e-009 -2.47259e-009 1.68467e-009 -1.71003e-009 8.88344e-010 -1.54624e-009 -1.00585e-009 1.23052e-009 -2.19138e-009 1.25408e-009 -3.98334e-010 6.62722e-010 -1.14017e-009 1.12805e-009 -2.64935e-012 1.00599e-009 -1.84008e-009 -2.77035e-009 1.86612e-009 -5.66388e-010 -4.1685e-010 3.21164e-010 -2.57099e-009 2.38658e-009 2.29725e-009 2.80855e-009 -2.89772e-010 1.84965e-009 -9.67165e-010 1.69855e-009 -2.54572e-009 1.03229e-009 -2.29768e-009 -2.22295e-009 -1.7786e-009 8.94054e-010 -1.73957e-009 -7.30081e-010 1.92625e-009 9.05113e-010 1.84245e-010 -7.88045e-011 2.68495e-009 -5.99883e-011 2.63328e-009 -9.70781e-010 -2.10134e-009 -2.4111e-009 2.12439e-009 2.38375e-009 -1.70958e-009 -5.87039e-010 9.31748e-010 9.02635e-010 -1.94425e-010 2.62251e-009 -2.05375e-009 -6.85289e-010 -3.15541e-010 -1.08394e-012 2.40995e-009 2.11985e-009 1.21364e-009 4.06385e-010 -7.47879e-010 6.57645e-010 -2.28531e-009 -1.75258e-009 1.45596e-010 1.17714e-009 4.54083e-010 1.82447e-010 -8.93642e-010 1.4796e-009 1.23536e-009 2.19144e-009 -9.10531e-010 2.55881e-009 2.7831e-009 1.30175e-009 -2.2271e-010 2.02041e-009 7.56131e-010 -8.54923e-010 1.27952e-009 1.40025e-009 5.86354e-010 -2.78606e-009 -6.99428e-010 -5.65348e-010 -2.87308e-010 2.8523e-010 -1.36386e-009 2.38392e-009 -1.89836e-009 -2.44247e-009 1.34417e-009 -7.42816e-011 1.106e-009 2.13811e-009 6.95597e-010 -1.6403e-009 -2.166e-009 -1.04169e-009 -2.62415e-009 9.07058e-010 -2.03768e-009 2.49768e-009 1.56386e-009 2.31862e-009 2.63574e-009 -1.7465e-009 -2.50663e-009 1.50297e-009 2.51322e-010 -2.58942e-009 -2.81413e-009 -2.83138e-009 -2.79252e-010 -2.14755e-009 -4.07796e-011 -2.04387e-011 1.38169e-010 9.48812e-010 1.34818e-009 1.38039e-009 -2.35119e-009 1.23181e-009 -1.2056e-009 -3.56136e-010 -9.69947e-010 1.92659e-009 2.48597e-009 1.03797e-009 -1.27001e-009 9.67716e-012 -1.33285e-009 -2.5513e-009 -4.00573e-010 -2.08686e-009 2.66543e-009 -2.57664e-009 -2.31594e-009 -2.77487e-009 -1.70527e-009 9.98119e-010 -2.35101e-009 4.73961e-011 2.10718e-009 -4.77502e-010 -2.66655e-009 -1.55167e-009 2.22522e-009 -1.85505e-009 -1.34447e-009 -2.7031e-009 -5.61377e-010 -2.18359e-009 -2.26001e-009 -1.57738e-009 -1.76999e-009 -1.45655e-009 1.58124e-009 -1.09819e-009 1.9086e-010 -2.74588e-009 2.00492e-009 -6.63608e-010 1.33563e-009 1.892e-009 1.80821e-009 1.19217e-009 1.76342e-009 7.54151e-010 1.13049e-009 -2.15086e-009 2.69605e-009 6.18981e-010 -1.13056e-009 -2.5224e-009 -8.47276e-010 2.83751e-009 5.54669e-010 -3.92545e-010 -2.21573e-009 2.54047e-009 1.85565e-009 5.2663e-010 1.39999e-009 1.16355e-009 1.09272e-009 -1.75549e-009 1.05291e-009 1.0973e-009 3.33271e-010 2.42309e-009 2.58474e-009 2.12952e-009 -1.8502e-009 1.79662e-009 4.68647e-010 1.59853e-009 -2.39029e-009 7.92767e-010 -3.89226e-010 7.05667e-010 1.54963e-009 2.52443e-009 4.96482e-010 -2.1808e-009 -1.45729e-009 -9.96966e-010 -2.41676e-009 9.55937e-010 2.84138e-009 2.77095e-009 2.04232e-009 1.6436e-009 1.7864e-009 -2.76161e-009 1.71794e-009 -1.77516e-009 2.30321e-009 2.51478e-009 1.79272e-009 -1.46866e-009 1.88762e-009 9.97466e-010 -1.55756e-009 2.0498e-009 -2.69998e-009 6.37276e-010 2.52477e-009 1.78683e-010 -1.64373e-009 2.5082e-009 1.15425e-009 -2.17594e-009 1.25744e-009 -2.72368e-009 2.55709e-009 -2.60754e-009 -5.11993e-010 7.1926e-010 -3.36706e-010 -9.08643e-010 8.74188e-010 -1.51456e-009 -1.12532e-009 2.49849e-009 1.54051e-009 -2.13884e-010 2.6154e-009 -2.69668e-009 1.16925e-010 1.31914e-009 -3.43022e-010 4.64227e-010 3.14811e-010 6.23338e-010 2.83755e-009 2.03163e-009 1.49508e-009 -1.75891e-009 -1.93325e-009 -2.42072e-009 2.59464e-009 -2.16036e-009 2.33846e-009 2.57395e-009 2.11066e-009 2.23805e-009 1.06452e-009 -1.16881e-009 -1.31432e-010 -1.82468e-009 -1.72078e-009 1.97371e-009 1.47233e-009 1.75572e-009 -2.5816e-009 2.13241e-009 1.18349e-009 2.8172e-009 1.69415e-009 -2.12025e-009 -2.24943e-009 2.42567e-009 -2.37689e-009 2.07443e-009 4.40123e-010 -8.43951e-010 4.29975e-010 -1.96656e-009 2.17955e-010 -2.33231e-009 1.92262e-009 9.44875e-010 8.44111e-010 -2.44978e-009 2.10933e-009 1.71202e-009 2.55105e-010 5.11366e-010 1.61623e-009 2.04761e-009 -2.09137e-009 1.02333e-009 4.93028e-010 2.20065e-009 -1.92385e-009 -1.64466e-009 2.46388e-009 5.0443e-010 -8.83872e-010 4.22016e-010 2.27768e-009 -3.69333e-010 -2.28133e-009 1.80741e-010 2.21121e-009 -1.39483e-009 2.60073e-009 1.17282e-009 -2.52354e-009 -1.02583e-009 -1.87304e-009 -6.78672e-010 -1.52496e-009 3.18075e-010 1.20591e-009 7.66693e-010 -1.03376e-009 1.57824e-009 1.37667e-009 2.96005e-010 -1.58611e-009 -1.7988e-009 2.58774e-010 1.61008e-009 -1.54553e-009 6.49682e-010 -4.13435e-011 -2.60347e-009 7.93276e-010 -9.98061e-010 -3.15311e-010 2.31855e-009 -1.76874e-009 -1.05848e-009 1.42702e-009 9.9271e-010 2.47138e-009 1.18507e-010 -9.83544e-010 1.40724e-009 -2.60874e-009 2.31501e-009 -1.27611e-009 -1.70609e-009 1.38373e-009 2.28166e-009 -6.39672e-010 -2.65422e-010 -1.15479e-009 2.48215e-009 -4.70214e-010 1.6849e-009 -7.28219e-010 -2.53843e-009 -6.84596e-010 -2.16712e-009 2.69478e-009 -1.56465e-009 -2.48031e-009 4.13492e-011 1.12374e-009 -4.63074e-010 3.17907e-010 -1.68873e-010 -1.86413e-009 6.5035e-010 -1.87083e-011 -1.25528e-009 -2.55887e-009 1.71067e-009 -2.57074e-009 -2.49455e-009 -1.49167e-009 6.25055e-010 -2.11956e-009 1.28352e-009 2.74113e-010 -2.62832e-009 2.33988e-009 1.28904e-009 2.00922e-009 1.33922e-009 2.22453e-009 -2.29904e-009 -1.15401e-009 4.54641e-010 -2.52476e-009 8.20946e-010 1.28858e-009 -2.84694e-009 2.64837e-009 -1.34956e-009 -1.51225e-009 -4.52099e-010 -3.45257e-010 1.7862e-009 -2.17076e-009 -2.62476e-009 -8.69892e-011 -5.87452e-010 6.84907e-010 -2.21512e-009 -4.12047e-010 -2.67088e-010 -2.42638e-009 -1.72839e-009 -4.39515e-010 1.84769e-009 -5.4496e-010 -4.89274e-010 2.61038e-009 9.22259e-010 1.38976e-010 1.57141e-010 -2.48167e-009 -4.04714e-010 2.61163e-009 -1.90129e-009 1.84168e-009 -1.39251e-009 -2.81278e-009 -2.20329e-009 -7.78594e-010 6.95167e-011 -3.7416e-010 -4.16411e-010 1.09877e-009 5.61114e-011 4.67611e-010 -1.63538e-009 2.27298e-009 -9.09234e-010 8.48429e-010 -2.48233e-009 -2.48582e-009 -5.65279e-010 -8.27482e-010 5.63645e-011 -5.82732e-010 -1.80541e-010 -1.81585e-009 -2.38659e-009 2.46307e-009 1.29985e-009 -2.22738e-010 2.31921e-009 8.84939e-010 -2.33584e-009 -2.30862e-009 2.78471e-009 1.55871e-009 -2.32055e-009 2.30912e-009 1.94666e-009 -6.5968e-010 -2.49202e-009 -7.89886e-010 -6.25681e-011 -9.48266e-010 -2.14972e-009 1.86352e-010 -1.02432e-009 -8.02593e-010 -2.15486e-009 -2.73336e-009 1.1077e-009 -1.44381e-009 -1.70685e-009 -2.25344e-009 3.97735e-012 -1.0775e-009 -9.98211e-010 -9.01023e-010 1.92979e-009 -4.68307e-010 2.53203e-009 2.59264e-010 -2.08684e-009 -8.13507e-010 -6.42319e-010 2.55987e-009 1.66694e-010 1.75592e-010 2.1957e-010 -2.83457e-009 -3.93398e-011 -3.30277e-010 -9.40219e-010 1.65429e-009 -1.23351e-009 -2.45011e-009 -2.65709e-009 -3.19403e-010 -7.59768e-011 -2.00644e-009 1.39783e-009 1.43293e-009 -2.09897e-009 2.45332e-009 1.14265e-009 -2.5171e-009 4.48403e-010 -1.23635e-011 1.88149e-009 2.25304e-010 1.5462e-009 5.88745e-010 -2.63656e-009 1.38505e-009 2.65576e-009 -1.53572e-009 4.84019e-010 -2.38252e-009 -4.71271e-010 2.07015e-009 2.04244e-009 2.3271e-009 -6.5672e-010 1.72618e-009 2.91919e-010 2.21151e-009 1.22098e-009 2.59385e-009 -2.32342e-009 -1.00403e-009 -1.10751e-009 3.14581e-010 -2.65464e-009 5.59598e-010 -1.13907e-009 -2.52407e-009 -2.57094e-009 5.48103e-010 -1.58057e-009 1.71435e-009 2.58991e-009 -2.4592e-009 -1.01169e-009 -1.29496e-009 -2.20549e-009 -1.48341e-009 -3.55665e-010 2.65594e-009 4.70619e-010 8.68009e-010 6.51553e-010 1.07613e-009 -2.74248e-009 5.14241e-010 1.60571e-009 1.36113e-009 1.16397e-009 8.55979e-010 1.91092e-009 1.82916e-009 2.7775e-010 1.0766e-009 -1.87357e-009 1.49332e-009 -7.39306e-010 4.54272e-010 -2.56726e-009 -2.4426e-009 2.64989e-009 -9.11264e-010 -1.86012e-010 -2.80189e-009 -2.81021e-009 -8.51093e-010 2.79655e-009 1.87544e-009 2.27747e-009 -1.82766e-009 -1.78983e-009 4.01691e-010 1.94484e-009 2.27584e-009 -8.03029e-010 -1.79075e-009 2.22255e-009 -4.45065e-010 6.80041e-010 6.61725e-010 2.14254e-010 6.43222e-011 1.40903e-009 1.91247e-009 -1.62244e-010 -1.54706e-009 -1.35103e-009 1.59662e-009 -9.22367e-010 -1.84851e-009 -2.42419e-009 -2.73324e-009 2.70457e-009 -2.81837e-009 -1.18204e-009 1.6611e-010 1.85522e-009 2.28867e-009 -3.85405e-010 2.53091e-009 -1.19578e-009 2.58683e-009 -1.96248e-009 1.6045e-009 1.40814e-009 1.5866e-010 1.87103e-009 -8.12892e-010 2.32668e-009 1.05722e-009 -1.99427e-009 -9.01747e-010 -1.40233e-009 -1.0837e-009 -2.84003e-009 -1.54327e-009 1.89261e-009 1.43819e-009 1.68789e-009 -1.3549e-010 3.55255e-010 1.83732e-009 1.17142e-009 8.07048e-010 6.4419e-010 1.81524e-009 -9.78408e-010 2.79732e-010 -2.31327e-009 2.81725e-009 -6.79455e-010 -7.38196e-010 5.94624e-010 1.46204e-009 1.61589e-009 2.67717e-010 1.86503e-009 -2.82914e-009 -1.65377e-009 -1.34544e-009 -1.55332e-010 -2.5796e-009 2.37643e-009 8.55245e-010 1.48687e-009 -1.7446e-009 1.78368e-009 -2.10405e-009 -1.64013e-009 -7.42173e-010 -7.66136e-010 -2.5986e-009 -4.67431e-010 1.09676e-009 -2.57946e-009 -1.22572e-009 -1.12821e-010 1.09805e-009 -2.24612e-009 -2.32977e-009 -2.13954e-009 7.52456e-010 2.38617e-009 -2.40291e-009 -1.41809e-009 -1.0524e-009 -2.7172e-009 8.755e-010 6.21299e-010 1.9652e-009 -1.97417e-009 -1.80449e-009 5.18098e-010 9.38623e-010 -5.42375e-010 9.04184e-011 -2.53338e-009 4.70152e-010 3.10201e-010 -1.12015e-009 -5.54936e-010 -2.69258e-009 2.12597e-009 -1.59873e-009 -9.55488e-010 1.39921e-009 2.02601e-010 1.06043e-009 5.18656e-010 -1.27653e-009 1.81881e-009 -5.31671e-010 -1.89519e-009 -2.67346e-009 1.70291e-009 1.57532e-009 1.25211e-009 7.64764e-010 6.70706e-010 -4.39318e-010 9.48809e-011 -1.62595e-009 1.08744e-010 1.35438e-009 5.14308e-010 7.38086e-010 1.51866e-009 1.90572e-009 -6.76943e-010 2.20438e-009 -1.98254e-010 -9.62043e-010 -9.58282e-011 7.31979e-010 -2.43411e-010 1.97107e-009 -2.82332e-010 2.16408e-009 2.09267e-009 2.15807e-009 2.43205e-009 2.47383e-009 9.92014e-010 -6.74079e-010 -7.33206e-010 -6.28929e-010 2.16133e-009 9.30854e-010 4.15034e-010 1.89832e-009 8.52184e-010 1.45098e-009 -1.99211e-009 -1.46602e-010 -2.18634e-009 2.79443e-009 -5.5568e-011 -5.11482e-010 -1.93146e-009 1.07817e-009 -4.1815e-010 -2.77925e-011 2.12559e-009 -2.729e-009 2.24613e-009 1.10809e-009 -2.34177e-009 -4.62223e-010 3.25078e-010 3.51078e-010 1.67527e-009 1.27983e-009 1.75044e-009 2.2919e-009 1.43635e-010 -1.17159e-010 1.82677e-010 1.81902e-010 1.06259e-009 -1.61441e-009 -2.69992e-009 1.67546e-009 1.49129e-009 -1.95185e-009 -9.24292e-010 8.70264e-010 -2.71649e-009 -1.51407e-009 3.44304e-010 -5.71326e-010 -2.78206e-009 -1.28638e-010 -1.83319e-009 -2.14666e-009 2.32255e-009 -6.50227e-011 1.00706e-009 9.30044e-010 6.33545e-010 -2.22257e-009 2.30973e-009 1.08052e-009 1.55737e-010 -2.0153e-010 -2.42459e-009 2.70133e-009 4.97683e-010 -6.08778e-010 3.12847e-010 -2.68935e-009 -1.32636e-009 -7.54078e-010 -6.06332e-010 6.35869e-011 1.74828e-010 -2.41024e-009 2.6923e-009 2.22258e-010 7.36861e-011 -6.43192e-010 -1.0096e-009 -1.3814e-010 -2.61433e-009 -1.56328e-009 1.99002e-009 1.95516e-009 6.55186e-010 -3.10804e-010 2.63229e-009 -1.79969e-009 -1.9697e-009 -1.13162e-010 -3.49472e-010 -9.28115e-010 -2.21294e-009 1.01197e-012 -1.44494e-009 -8.1983e-010 -5.95683e-010 -2.46733e-009 1.77925e-009 1.11891e-009 -1.51517e-009 6.75102e-010 -2.48295e-009 1.76469e-009 -1.35439e-009 -1.36828e-009 -1.86131e-009 -3.47962e-010 1.72408e-009 2.47203e-009 6.49122e-010 -1.59202e-009 -1.16644e-009 1.97066e-009 3.28038e-010 -2.19302e-009 3.64069e-011 -3.97111e-011 -2.67185e-009 7.97092e-010 -2.08216e-009 1.38245e-009 -2.62772e-009 -2.44391e-009 -2.30886e-009 -1.72769e-009 -2.08423e-009 2.16552e-010 -6.60219e-011 -8.52989e-010 1.53936e-009 2.06115e-009 2.25001e-009 2.35131e-009 1.87752e-009 1.82059e-009 -1.319e-010 5.24937e-010 -1.23037e-009 -5.10878e-010 7.75788e-010 1.90075e-009 1.74873e-009 -2.6087e-010 1.82003e-009 8.18607e-010 -1.90793e-009 -2.5313e-009 2.2587e-009 -7.24131e-012 -1.81615e-009 -2.07215e-009 2.27195e-009 -1.7473e-009 -6.46838e-011 7.04478e-010 -1.44276e-009 -6.01854e-010 1.70502e-009 -8.05531e-010 -2.75356e-009 5.54136e-010 7.36207e-010 1.13926e-009 -7.82842e-010 2.83968e-009 -1.44315e-009 -1.25127e-009 1.08938e-009 5.8201e-011 -2.73155e-010 2.05019e-009 1.23061e-009 6.88041e-010 5.38412e-010 2.07048e-010 4.96998e-010 -8.95223e-010 -1.80287e-009 5.34662e-011 -1.97423e-011 1.48871e-009 -2.43849e-009 7.51753e-010 1.15039e-009 -2.78566e-009 2.64423e-009 2.60103e-009 1.26248e-009 -1.45938e-009 -1.27219e-009 1.93996e-009 -4.45532e-010 -9.14639e-010 2.55847e-009 4.92513e-010 -3.56686e-010 1.4844e-009 -1.44866e-010 -2.46868e-009 -6.77456e-010 -1.7666e-009 -6.12711e-010 2.23221e-009 -2.00179e-009 -2.06412e-009 -1.78001e-009 -3.02643e-010 2.24547e-009 1.43059e-009 1.5205e-009 2.55272e-010 2.66279e-009 -3.38018e-010 1.60821e-009 2.04251e-009 2.82314e-009 -2.0154e-009 9.7195e-011 3.63023e-010 6.25574e-010 3.6251e-010 7.47928e-010 -1.01705e-009 -1.02974e-009 2.82766e-009 2.24962e-009 2.61526e-009 -5.32511e-010 5.52995e-010 1.95932e-009 -1.69349e-009 -2.43194e-009 -3.01262e-010 7.17743e-010 2.66414e-009 -6.87789e-010 1.86043e-010 -1.17838e-009 2.19063e-009 5.83024e-010 -1.71181e-009 -7.76503e-010 2.34696e-009 -2.08757e-009 -2.74769e-009 -2.77013e-009 2.66515e-009 1.36739e-009 2.76406e-010 1.48114e-010 -5.51924e-011 -1.86217e-009 3.65488e-010 -4.14851e-010 1.7629e-010 -1.73284e-009 2.06079e-009 -1.46207e-009 1.62082e-009 -1.48242e-009 -6.26324e-010 1.2612e-009 2.50791e-009 -2.47269e-009 -7.31441e-010 2.04925e-009 2.50952e-009 -1.95861e-009 2.53539e-009 1.19685e-010 -2.55292e-009 -1.99457e-009 8.75954e-010 -2.09965e-009 1.26263e-009 7.47558e-010 1.62437e-009 1.66151e-009 -3.94309e-012 -6.43146e-010 1.60093e-009 1.44041e-009 -1.03413e-009 -7.06232e-010 5.12559e-010 -1.60603e-009 2.40176e-009 3.10812e-010 -1.76723e-009 -5.44458e-010 1.25702e-010 2.57698e-009 1.19639e-009 2.84293e-009 2.43581e-009 2.22649e-009 2.29196e-009 2.14744e-010 -2.30741e-009 1.64073e-009 -1.1633e-009 4.43498e-010 9.24604e-010 -2.58104e-009 2.34168e-009 2.38833e-009 1.89341e-009 -9.87791e-010 -1.52299e-009 8.67839e-010 9.8895e-010 -8.01544e-010 5.93729e-010 -2.06987e-009 -4.86651e-010 -3.09594e-010 6.43934e-010 1.8913e-009 2.73983e-009 -1.27305e-009 -2.14078e-009 -2.62893e-009 4.95003e-010 -1.52117e-009 -7.34278e-010 2.65923e-010 1.97622e-009 -2.7315e-009 -9.99948e-010 -8.85734e-010 9.21718e-010 -1.65743e-009 1.20677e-009 -7.7008e-010 -2.50299e-009 -1.32443e-009 5.82921e-010 -1.79647e-010 2.71025e-009 -3.79901e-010 2.21049e-009 -8.13087e-010 -3.48112e-010 1.33341e-011 2.80531e-009 1.35475e-009 2.28791e-009 -1.1921e-009 -1.10587e-009 -1.94e-009 -7.31663e-010 1.37055e-009 -3.19172e-010 7.08044e-010 -1.94201e-009 2.22973e-009 4.4404e-011 -1.48166e-009 -1.14312e-009 1.02995e-010 1.85497e-009 4.40344e-011 8.0063e-010 1.93307e-009 -1.65767e-009 -9.40823e-011 5.90288e-010 -2.09086e-011 -1.67854e-009 -7.9278e-010 -6.11609e-010 -2.46712e-009 -1.89331e-009 -1.4584e-009 -1.68543e-009 -4.57842e-012 2.31264e-009 9.1751e-010 -1.6951e-009 2.28733e-009 6.10847e-010 1.37172e-009 2.38805e-009 -1.92238e-009 -1.73284e-009 2.50808e-009 2.25706e-009 5.21605e-010 -2.20126e-009 2.21107e-009 2.7502e-009 -1.83945e-009 -2.74305e-010 1.37268e-010 2.04052e-009 2.66731e-009 -2.07101e-009 9.57987e-010 -6.12425e-010 -1.6644e-009 5.01057e-010 -1.2825e-009 4.69574e-010 -9.31238e-010 1.49722e-009 -2.35165e-012 1.38585e-009 6.31936e-010 -9.56356e-010 -9.30544e-011 1.50523e-009 -1.36705e-009 2.70386e-009 1.50027e-009 -2.22826e-010 1.22499e-009 1.57302e-009 -1.60438e-009 -2.74017e-009 -2.80066e-009 -1.11515e-009 1.24039e-009 1.5278e-009 7.22023e-010 2.8387e-009 3.89766e-010 -8.4033e-010 -1.93173e-009 2.02502e-009 -3.66945e-010 -1.75322e-009 1.49551e-009 1.78136e-010 -2.38484e-009 -2.59462e-009 1.81046e-009 2.30509e-009 3.37237e-010 -1.91088e-009 -3.47975e-010 -6.53951e-010 -1.11909e-009 1.20576e-009 2.64328e-009 4.24848e-010 1.46778e-009 -2.59819e-009 -5.16218e-010 2.63637e-009 -2.19061e-009 2.731e-009 2.58407e-009 -1.86267e-009 1.44596e-009 1.60471e-009 1.75108e-009 -1.34739e-009 6.13834e-010 1.46276e-009 1.05054e-010 -1.57587e-009 -5.60787e-010 7.49056e-010 1.20226e-009 9.46458e-010 -2.64319e-011 -2.77641e-009 -6.45363e-011 -8.49864e-010 1.4099e-009 4.71965e-010 -1.35278e-009 -3.54069e-010 -1.25756e-009 -2.63441e-009 -2.06758e-009 -3.74727e-010 -2.06845e-009 2.24312e-009 2.14801e-009 -1.1404e-009 1.90588e-009 6.86863e-010 5.25117e-010 1.91693e-009 -2.47859e-009 9.72584e-010 -1.84092e-010 -2.02883e-009 -2.02143e-009 -5.87546e-010 9.17613e-010 4.04195e-011 3.59031e-010 1.69192e-009 -2.69014e-009 2.61417e-009 -2.47627e-009 1.59744e-009 -1.69317e-009 -1.66072e-009 -3.42014e-010 -2.12125e-009 -1.91029e-009 8.28996e-010 -5.39045e-010 2.02193e-009 1.07774e-009 -8.76107e-010 -2.52464e-009 -2.3313e-009 -9.69615e-010 -2.04276e-009 3.44071e-011 1.70126e-009 2.48151e-010 2.36876e-009 -3.38075e-010 -7.92322e-010 1.24231e-009 -4.16435e-010 -7.34228e-010 2.97102e-010 1.14159e-009 -1.48703e-009 -1.58964e-009 -2.00901e-010 -7.89318e-011 1.83571e-009 -9.78405e-010 -1.33233e-009 5.5144e-010 -1.41722e-009 -1.70229e-009 1.90375e-009 -2.84243e-009 2.76008e-009 -2.43506e-009 -1.38773e-009 -1.20974e-009 2.37403e-009 -1.05282e-009 -1.35665e-009 1.48166e-009 -2.08736e-009 2.69136e-009 -2.2869e-009 -6.21879e-010 5.26666e-011 -1.27e-009 -2.77976e-009 -2.16696e-009 -2.4814e-009 -2.16569e-009 -2.49629e-009 2.3764e-009 2.39575e-009 -2.4193e-009 -1.47311e-009 5.81829e-010 -8.83025e-010 9.48669e-010 2.70548e-009 2.03238e-009 -1.56054e-009 -1.57492e-009 2.00226e-009 -1.39064e-010 -3.5919e-010 -1.57572e-009 7.06699e-011 4.38451e-010 -2.42124e-010 -7.32206e-010 -2.32677e-010 -2.75886e-009 2.48864e-010 1.46372e-009 -6.86558e-010 2.06008e-009 -1.70041e-009 -2.38457e-009 1.33592e-009 -1.68106e-009 2.42578e-009 1.78258e-010 2.80833e-009 2.24123e-009 -1.06038e-009 -7.16697e-010 2.21386e-009 -1.88949e-010 -1.73434e-009 7.72542e-010 1.55316e-009 -1.8977e-009 1.76689e-009 -2.01337e-009 1.82107e-009 2.41376e-010 1.62954e-009 2.40574e-010 -9.28816e-010 -2.52892e-010 5.88854e-010 -3.01426e-010 2.56543e-009 -2.07639e-009 2.31813e-009 -3.37186e-010 1.23394e-009 -1.67164e-009 6.70048e-010 7.77012e-010 1.32348e-009 -1.66629e-009 -6.57715e-011 -2.68662e-009 -7.0524e-010 2.80626e-009 1.358e-009 9.29284e-010 -2.48162e-009 -6.6822e-010 1.96987e-009 2.48007e-009 2.32003e-009 -2.7284e-009 1.18942e-009 6.31374e-010 1.13967e-009 -1.49938e-009 8.81659e-010 6.17547e-011 -1.89575e-009 -1.11729e-009 -2.78765e-009 -2.05817e-009 2.76474e-009 2.45167e-009 -1.21293e-009 -2.51149e-009 -1.37404e-009 -7.77444e-010 -2.43695e-009 -1.05897e-009 1.71426e-009 2.66335e-009 -2.56766e-011 1.64831e-009 6.4245e-010 -2.23262e-009 -2.28969e-009 2.26307e-009 1.36082e-009 2.59234e-009 -1.77437e-009 2.28179e-009 2.56187e-009 -8.43908e-010 9.16982e-010 -1.3751e-010 -2.18135e-009 -9.77981e-010 -3.97536e-010 -1.52882e-009 1.90685e-009 -1.61999e-010 -2.63128e-009 3.62614e-010 -2.16877e-009 7.1546e-010 -2.26193e-009 -2.8025e-009 -4.48778e-010 1.89301e-009 1.05093e-009 1.83018e-009 -1.36491e-009 -6.74233e-010 -8.81918e-010 -1.70384e-010 -2.105e-009 -2.14933e-009 -2.41276e-009 1.97843e-009 1.99459e-009 -9.64112e-010 1.65682e-009 2.28109e-009 -1.3208e-009 5.44466e-011 4.3516e-010 -1.48379e-009 1.75095e-009 -1.49773e-009 2.64528e-009 -2.82584e-009 -1.40434e-009 -2.54853e-009 5.84854e-010 2.70082e-009 -1.24403e-009 4.84579e-010 2.20867e-009 -1.44817e-009 -1.40064e-009 1.0945e-009 -1.62245e-009 1.85107e-009 -2.16601e-010 2.35023e-009 2.58552e-010 1.28942e-009 2.1455e-009 1.41127e-009 -1.52609e-009 2.07766e-009 -1.38507e-009 -2.47514e-009 -1.69007e-009 4.78879e-010 -1.28997e-009 -2.26986e-009 -1.92052e-009 -1.81627e-009 -2.91258e-010 -1.88505e-009 -2.56324e-009 8.00638e-010 2.20506e-009 2.00912e-009 -4.84847e-010 -1.74246e-009 -1.11172e-009 -2.13237e-009 -2.76456e-009 -9.18631e-010 1.97958e-009 7.95101e-010 4.00917e-010 -3.22651e-010 1.49743e-009 2.73213e-009 -1.83857e-009 1.01788e-009 1.99174e-009 -2.26766e-009 -2.66657e-009 1.28694e-009 -3.41122e-010 2.6102e-009 1.69949e-009 -2.69595e-009 1.81192e-009 2.83668e-009 -1.35885e-009 -2.13391e-009 1.72306e-009 -1.26433e-009 1.79811e-009 -6.91664e-010 -5.20029e-010 1.24034e-009 2.71875e-009 -1.28967e-009 1.4942e-009 2.1459e-009 1.54599e-009 -1.97329e-009 1.89222e-009 -2.7589e-009 -6.65959e-011 -3.0387e-010 -7.9427e-010 1.82158e-009 -1.77703e-009 1.65372e-009 1.2852e-009 -8.1548e-010 -3.773e-010 -2.80396e-009 -2.28883e-009 -1.42756e-009 -2.08359e-009 2.00939e-009 -8.90533e-010 -7.18176e-010 1.46886e-009 -1.03125e-009 6.1571e-010 -2.44939e-009 -2.15738e-009 2.10908e-009 -1.74463e-009 2.46637e-009 1.99237e-009 -4.06004e-010 1.72159e-009 1.47562e-009 2.3471e-009 -6.16333e-010 -2.27689e-010 -2.36979e-010 -1.53261e-009 -1.18347e-009 -1.23163e-009 1.94541e-009 -7.30037e-010 -4.59309e-010 -2.73746e-009 4.34967e-010 -1.97854e-009 -1.10399e-009 1.5296e-009 6.42613e-010 2.77264e-010 1.15153e-010 -9.65497e-010 -2.84441e-009 1.38149e-009 -2.25109e-009 5.51336e-010 -1.83908e-009 -2.23023e-009 -8.53925e-010 3.5166e-010 1.65828e-009 9.23391e-010 6.6739e-010 -1.94589e-009 -1.03642e-009 2.08875e-009 -2.11936e-009 -7.64068e-010 1.44501e-010 -4.77414e-010 -1.15591e-009 -4.37439e-010 -1.01535e-009 -1.63388e-009 1.72641e-009 -7.98067e-010 -8.70085e-010 2.50834e-009 -1.26677e-009 2.29688e-009 1.95608e-009 -7.54235e-010 -5.44704e-010 2.84715e-009 1.38016e-009 -2.00093e-009 -6.04932e-010 1.57381e-010 6.52723e-011 -6.05065e-010 2.64227e-009 -8.36476e-010 2.18907e-009 1.40649e-009 -1.47417e-009 -2.53597e-009 2.79749e-009 -2.83181e-009 -1.32246e-009 7.14031e-010 -2.82122e-009 2.20313e-009 -1.82469e-009 2.09047e-009 5.02728e-010 1.83272e-009 -2.03508e-009 -1.72284e-009 -2.35523e-009 1.94249e-009 -2.84051e-009 -1.37878e-009 8.20208e-011 -1.87986e-009 -6.26632e-010 2.05041e-009 -1.04706e-009 1.18485e-009 1.8128e-009 -1.26187e-010 1.38918e-009 1.62628e-009 6.39955e-010 -2.81498e-009 7.79105e-010 4.10536e-011 -1.24676e-009 -2.2216e-009 -3.40231e-010 -2.06573e-010 3.99039e-010 -2.69874e-009 1.64342e-010 3.49543e-010 -7.84059e-010 -2.78552e-009 7.29016e-010 1.08503e-009 1.06482e-009 -2.11209e-009 2.09262e-009 -1.93474e-009 1.53985e-009 -2.46131e-009 -1.57012e-009 -1.74299e-009 -1.02436e-009 -2.45051e-009 6.49187e-010 1.79537e-009 1.83735e-010 7.00168e-010 -1.89909e-010 2.82302e-009 -1.65322e-009 -2.6182e-009 -6.13597e-011 2.41121e-009 8.54422e-010 -8.62885e-010 -2.06231e-009 1.29463e-009 2.62083e-009 -1.47492e-009 -1.23125e-009 6.66548e-010 8.06107e-010 -7.53261e-010 3.23754e-010 -2.9359e-010 -1.52089e-009 -2.3056e-009 3.75976e-010 5.03126e-011 -1.01763e-009 -2.2979e-009 -4.40946e-010 6.60299e-010 2.28183e-009 2.82678e-009 -1.56124e-009 1.48244e-009 2.21149e-009 -9.66574e-010 -9.99054e-010 -6.04945e-010 -4.58489e-010 -2.26098e-009 -5.97383e-010 1.49019e-009 -1.00694e-009 2.28023e-009 1.67885e-009 -2.00809e-009 1.2131e-009 2.77358e-009 -2.126e-009 -8.8065e-011 1.71382e-009 -8.58567e-010 2.07544e-009 6.77953e-010 -2.63048e-009 1.57325e-009 1.63175e-009 -2.66155e-009 2.1169e-009 -2.36457e-009 1.8608e-009 -2.81674e-009 2.4276e-010 -1.89693e-009 -1.93196e-009 2.17557e-009 -2.03386e-009 -1.86248e-009 -4.26658e-010 -1.73638e-009 2.51052e-009 1.147e-009 -2.35179e-009 -9.66135e-010 -1.96229e-009 -5.08073e-010 2.66639e-009 -5.15472e-010 -2.34712e-009 1.71905e-009 8.45506e-010 -2.64452e-009 -1.03542e-009 6.36652e-010 -2.79738e-010 8.79386e-012 -2.37382e-009 -6.26652e-010 1.3628e-009 2.11141e-009 -1.00586e-009 2.19062e-009 -1.14675e-009 -7.53752e-010 5.2148e-010 1.63658e-009 2.20412e-009 5.92897e-010 1.86885e-009 8.6929e-010 1.97478e-009 1.06396e-009 -5.93573e-010 2.25501e-009 -2.46006e-009 2.29195e-009 -1.7545e-009 -8.63832e-010 -8.33833e-011 -2.47971e-009 -2.40829e-009 -2.21496e-009 1.77548e-009 -1.67992e-009 -7.14163e-010 8.78479e-010 -6.36222e-010 7.96671e-010 2.27179e-009 -2.22891e-009 2.47933e-009 -1.12312e-010 -6.46917e-010 -2.28668e-010 -1.19537e-009 1.15563e-009 2.33794e-009 8.84147e-010 1.67314e-009 -2.83466e-009 -2.39725e-009 -1.8352e-009 2.39727e-009 -1.3882e-009 1.68585e-009 5.2206e-010 -3.84902e-010 -1.05441e-009 -1.79652e-011 -3.37583e-010 1.37718e-009 7.82176e-010 2.30178e-009 4.31862e-010 2.841e-009 -1.16463e-009 -9.22437e-010 5.57938e-010 -5.49647e-010 -1.49492e-009 3.28939e-011 1.94107e-009 -2.61808e-009 -1.85868e-009 2.68985e-009 -9.03449e-010 1.28867e-009 1.55247e-009 2.3432e-009 -2.63896e-009 2.04747e-009 -2.21819e-010 -4.81533e-010 -1.89925e-009 2.73587e-009 1.13858e-009 1.49493e-009 2.80857e-010 2.65181e-009 -2.2715e-009 5.88888e-010 -2.56097e-010 -2.62754e-009 9.69965e-011 3.71799e-010 7.39013e-010 7.58723e-010 2.54374e-009 1.13358e-009 -9.58781e-010 -2.78928e-009 5.52217e-010 -2.20851e-009 -2.44699e-009 1.3528e-009 2.006e-009 -9.45019e-011 -2.64158e-009 -2.44196e-009 2.23543e-009 -1.56623e-010 1.70451e-009 1.41766e-009 1.93696e-009 6.24591e-010 2.70879e-009 1.88165e-009 1.75144e-009 -2.62481e-009 -1.11944e-009 6.60638e-010 1.52028e-009 -8.99328e-010 -2.60601e-009 -9.88883e-010 -1.71629e-009 1.78119e-009 1.53074e-009 1.60003e-009 1.0437e-009 6.99849e-010 1.08661e-009 3.63677e-010 2.73537e-009 2.20655e-009 