-0.740095 0.288658 0.206904 0.107383 -0.735903 1.22437 0.507752 -0.0927778 -0.445042 -0.797199 -1.44276 -0.419378 -0.483353 -1.9361 -0.520972 0.0739129 -0.184569 0.287461 0.0756984 -0.886231 -1.54803 -0.204308 -1.10727 -0.701254 0.651008 -0.149771 -0.830026 -0.158441 -0.699947 -1.5713 -0.36714 -0.183122 0.662047 0.0696809 -0.542588 0.685342 0.479327 -0.823522 0.58043 -0.0603274 -0.606392 -0.810905 -0.604241 -0.506947 0.968578 0.538035 -0.132201 -0.785142 1.409 -1.96322 -0.704373 0.700848 -0.271539 -0.0326705 0.764566 0.618799 -0.986726 0.186635 -0.501715 -3.03974 0.379575 -1.0112 1.50255 -1.78973 -1.22589 -1.26214 -0.543799 -0.951953 -1.00456 0.207063 -0.167427 0.325204 -0.421536 -4.10038 0.0327258 -1.70372 -0.405891 -0.879054 -1.46036 0.472608 -0.529172 0.266665 -0.863627 -1.09726 -0.663109 0.706137 -0.22571 -0.626767 0.476039 0.145848 1.13312 1.71471 -0.356973 0.625898 -0.341874 0.515389 -1.18332 0.302505 -0.814608 -1.53293 -0.288133 -0.228623 -0.0922062 0.0146649 -0.652516 0.462219 0.786052 -0.394385 0.367399 -0.551767 -1.58953 -0.806919 -0.153238 -1.05068 0.464288 0.408809 -1.15627 -1.0498 0.0703723 -2.92151 0.135541 1.64942 -1.33315 -1.72055 0.178106 0.336286 0.184721 -0.128562 -0.220343 -1.02242 -1.34035 0.570989 -0.643017 -1.11658 -0.992204 0.2667 0.666348 -1.36998 -0.225715 0.658845 -0.343051 -0.982387 -1.22589 -0.848214 -0.996589 -1.4267 0.178627 -3.58926 -0.0362867 -1.02764 1.48058 -1.66333 -2.21797 0.499378 -1.11037 0.232565 -0.907915 0.0620019 0.107924 -1.17299 -1.24285 0.348902 -0.840326 -0.264202 0.143212 1.29151 0.0379255 -0.492951 -0.115514 -0.384851 0.499283 -0.697944 -0.21693 -0.476916 0.271528 -0.231419 -0.0828006 -0.381985 0.431945 -1.05319 -0.092445 -1.50475 -1.47309 -0.682636 0.284581 -0.272782 -2.7691 -1.32285 -1.28684 0.195072 -2.18869 -1.84225 -0.218612 0.251248 0.509356 -2.30278 -0.564044 -0.999404 0.901937 0.458683 6.18906e-008 3.14818e-008 5.71525e-008 -4.12562e-008 -8.85472e-008 -1.30073e-008 -4.63474e-008 -5.47873e-008 -1.70723e-008 9.45295e-008 7.12274e-008 3.33794e-009 -6.37736e-008 4.81692e-008 9.67888e-008 -8.80737e-008 -5.15077e-008 5.40167e-008 -5.89631e-008 2.69423e-008 -5.98149e-008 -5.6342e-008 -8.206e-008 3.83906e-008 -1.18557e-008 9.33788e-009 3.92223e-008 9.31219e-008 8.57736e-008 7.54641e-009 -4.62155e-008 -4.54827e-008 1.07207e-008 -8.68743e-008 -5.36846e-009 4.73088e-008 5.02906e-008 6.47132e-008 6.93925e-008 1.76137e-008 -8.41101e-008 -2.86311e-008 -8.15576e-008 7.48018e-008 7.85924e-008 -6.06466e-008 -8.8458e-008 6.50402e-008 -2.70407e-008 -3.91123e-008 -1.04395e-008 -9.02239e-008 2.53477e-008 -3.91733e-008 -6.50335e-008 -4.77484e-008 -1.42861e-008 7.23708e-008 4.36866e-009 -1.68941e-008 2.02567e-008 6.16942e-008 5.06159e-008 -6.55228e-008 2.90502e-008 -6.26463e-009 -6.24191e-009 6.92698e-008 5.23554e-008 -2.32834e-008 -8.55903e-008 7.23063e-008 -2.88937e-009 -5.6709e-008 6.94507e-008 -3.69953e-008 1.20457e-008 5.88079e-008 -5.38151e-008 -7.42419e-008 -2.51651e-008 7.9952e-008 -3.96577e-008 6.04382e-008 2.93221e-008 6.39214e-008 7.45586e-008 -1.63298e-008 5.28907e-008 -1.52843e-009 -4.32327e-009 6.1509e-009 -3.50636e-008 1.73599e-008 -9.66921e-008 -7.8578e-008 -6.9152e-008 -7.24466e-008 9.12999e-008 -2.05223e-008 8.95748e-008 -1.8474e-008 6.65413e-008 -5.71284e-008 7.06947e-008 -8.67489e-008 -3.27942e-008 3.14128e-008 -6.75873e-008 -2.1085e-008 3.22844e-008 2.34301e-009 6.83521e-008 -5.19496e-008 -6.16924e-008 -1.48673e-008 -3.81235e-008 2.81152e-008 3.89022e-008 -2.97038e-008 3.77689e-009 3.90597e-009 7.93603e-008 -7.60684e-008 9.2725e-008 7.76615e-008 3.99413e-008 -5.12441e-008 2.27711e-008 8.30456e-008 3.00949e-008 -4.26745e-008 -9.36563e-008 3.01918e-008 -6.56223e-008 -9.08686e-008 -8.74519e-009 -6.85532e-008 3.16951e-008 -3.26032e-008 6.28919e-008 3.63122e-008 8.81269e-008 -2.03078e-008 -9.83226e-009 2.52943e-008 1.37969e-008 2.88253e-008 -2.43179e-008 -4.20272e-008 5.43492e-009 6.42637e-008 8.81375e-008 8.77636e-008 -3.44222e-008 2.25205e-009 3.11517e-008 -5.64651e-008 2.41996e-008 -5.48555e-008 3.10124e-008 -1.2769e-008 3.00869e-008 7.36494e-008 7.44088e-008 9.39758e-009 5.08008e-008 8.1817e-008 8.25852e-008 7.41357e-008 -3.74699e-008 3.92143e-008 2.31632e-008 -1.64579e-008 6.33705e-008 4.15364e-008 -8.52098e-008 5.46552e-008 -2.90885e-008 4.43374e-008 1.40363e-008 -7.31627e-008 -2.70883e-008 1.89326e-008 4.73159e-008 -2.19436e-008 -5.06992e-008 8.11459e-008 -6.12354e-008 2.57008e-008 -4.87145e-008 -9.55165e-009 -1.18951e-008 3.96723e-009 -7.37016e-008 -7.10551e-008 6.66702e-009 7.49736e-008 -5.96638e-008 1.02402e-008 4.12095e-008 -7.49617e-008 1.20706e-008 3.88925e-008 -7.05869e-008 -3.57032e-008 7.1572e-008 -8.43774e-008 4.09192e-010 8.03849e-008 -4.20796e-008 1.52373e-009 9.41089e-008 8.01233e-008 4.47578e-008 -6.243e-008 3.12113e-008 -9.0804e-008 6.09798e-008 -8.58016e-008 -4.6944e-008 -4.9888e-008 -1.74746e-008 7.54995e-008 -6.1428e-008 -8.57255e-008 -7.69593e-008 8.91332e-008 -6.6464e-008 2.47761e-008 -5.23132e-008 -9.06042e-008 5.55703e-008 -6.79339e-008 -8.54783e-008 9.3963e-008 7.72787e-008 -4.37206e-009 9.56613e-008 7.87771e-008 4.25552e-008 -7.94341e-008 -7.50799e-009 8.42468e-008 -7.89809e-008 -2.61088e-008 2.25175e-008 2.07409e-008 2.75378e-008 6.30922e-008 6.38903e-010 1.61557e-008 8.74303e-008 -8.48855e-008 -4.5004e-008 8.38587e-008 8.35427e-008 -9.45091e-008 -1.8743e-008 -2.3649e-008 2.2452e-008 -8.51676e-008 2.7653e-008 -7.89201e-008 9.30722e-008 7.47639e-008 7.95395e-008 -8.58761e-008 2.88222e-008 -1.50596e-008 -1.6718e-008 -4.30211e-008 -3.73306e-008 5.68306e-008 -1.68365e-008 4.28848e-008 8.69304e-008 -4.61369e-008 7.76778e-009 -4.02084e-008 -6.00706e-008 -1.85085e-009 1.06734e-008 7.30816e-008 9.39751e-008 -4.87216e-008 -4.34235e-008 4.55078e-009 -5.31377e-008 -5.66296e-009 5.58752e-008 3.62619e-008 -4.20147e-008 3.17477e-008 -5.47315e-008 -2.96129e-008 -3.99225e-008 1.86827e-008 -7.01444e-008 -5.6001e-008 6.36861e-008 -6.0071e-008 3.86237e-008 -7.5573e-009 -8.00688e-008 6.04037e-008 -7.21426e-008 -6.26374e-009 8.10626e-008 -8.43374e-008 3.70478e-008 -7.39858e-008 -2.05644e-008 2.65772e-008 -2.13877e-009 4.83485e-008 -5.856e-008 1.78987e-008 7.38953e-008 -6.79852e-008 3.52187e-008 9.46761e-008 2.91818e-008 -3.96695e-008 -6.85182e-010 1.10967e-008 -4.09006e-008 -2.8731e-009 3.97986e-008 6.36511e-008 7.76576e-008 -6.14851e-008 -9.11515e-009 2.13697e-008 4.77825e-008 -2.33094e-008 6.95015e-008 -2.12185e-009 -1.3235e-008 -2.86071e-009 -6.01638e-008 5.8257e-008 -3.89438e-008 4.03391e-008 -7.43092e-008 -8.29663e-008 -3.88896e-008 6.58301e-008 -9.61914e-008 -3.09842e-008 2.72745e-008 5.16296e-008 5.29721e-008 -8.59849e-008 3.91475e-008 -8.53348e-009 -7.4038e-008 5.37386e-008 -5.23294e-008 2.00569e-008 5.45702e-008 -1.40277e-008 -3.99661e-008 -3.69062e-008 2.89669e-008 4.64163e-008 1.25367e-008 4.29634e-008 9.24836e-009 1.16762e-009 2.4838e-008 2.59266e-008 -6.43114e-008 -5.58551e-008 2.81829e-008 -6.93069e-008 -9.0899e-008 9.68235e-008 -7.14243e-008 4.11523e-008 4.94605e-008 4.63684e-008 7.29322e-008 -8.53513e-009 -5.96394e-008 6.64276e-008 1.3115e-008 3.66345e-008 -9.37116e-008 4.7135e-008 -8.22008e-008 2.56104e-008 5.88235e-008 -5.36192e-008 -2.33296e-008 -1.07595e-008 -3.08032e-008 1.7227e-008 -5.44176e-008 -3.57051e-008 -9.55087e-008 -2.30832e-008 8.70311e-008 5.54272e-009 5.94026e-008 5.12271e-008 -5.6585e-008 -4.84968e-008 6.01914e-008 8.90138e-008 6.23796e-008 -9.62442e-008 6.5984e-008 4.97581e-008 8.1364e-008 7.41417e-008 -3.97129e-008 5.56418e-009 1.71657e-008 2.36081e-008 -3.49099e-008 -7.43146e-008 -7.40401e-008 9.64944e-008 6.94082e-008 -3.427e-008 7.39702e-008 4.81364e-008 -4.76119e-008 7.24505e-008 -2.61452e-008 1.75648e-008 6.86384e-008 7.9779e-008 9.42421e-009 7.32863e-008 -5.63716e-008 -1.03949e-008 -5.58926e-009 4.12595e-008 -1.02462e-008 -3.09317e-009 -1.9083e-008 1.93632e-008 -9.11604e-009 -2.27581e-008 3.06454e-009 -9.01759e-008 8.31227e-008 5.12196e-008 -5.64523e-008 6.33637e-008 -4.79672e-009 2.81217e-008 -7.13449e-009 8.32814e-008 7.14924e-008 -8.35569e-008 -4.01103e-008 7.78578e-008 -9.33428e-008 -9.44166e-008 7.55234e-008 8.20298e-008 4.49972e-008 9.46578e-008 -1.57401e-008 9.5843e-008 -3.69736e-008 7.21858e-008 -9.27681e-008 9.67763e-008 -4.94013e-008 5.46226e-009 3.97749e-008 -7.93482e-008 8.91594e-009 9.66274e-008 -3.50531e-008 3.44446e-008 -2.01634e-010 -1.71177e-008 3.10641e-009 8.70522e-008 9.39905e-010 8.50632e-008 7.14696e-008 4.01412e-008 2.0874e-008 -7.9764e-008 -7.50137e-008 -7.50214e-008 -8.87691e-008 -4.83858e-008 -6.06048e-008 -7.91478e-008 6.10451e-008 8.55684e-009 4.27435e-008 -7.68851e-008 8.78359e-008 5.78443e-008 5.88575e-008 8.94632e-008 8.33176e-008 8.88181e-008 8.73457e-008 -4.34767e-008 -6.05371e-008 5.37099e-008 7.2905e-008 -7.21488e-008 3.62341e-008 5.65682e-008 -3.03709e-008 7.13263e-008 8.11673e-008 2.76284e-008 -1.45117e-008 3.82684e-008 1.18712e-008 -1.53982e-008 9.32703e-008 3.68029e-008 -7.0487e-010 -9.1079e-009 -4.45413e-008 2.35661e-009 8.53284e-008 -1.65306e-008 2.80905e-008 1.86199e-008 5.41002e-008 6.62672e-008 -3.49265e-008 6.82417e-008 -2.82224e-008 -3.12038e-008 -1.76555e-008 -3.74421e-008 -7.45386e-008 7.76909e-008 -2.26888e-008 -8.29467e-008 -1.63453e-008 7.90427e-008 9.68566e-008 -4.08355e-008 5.89927e-008 2.10883e-009 2.529e-008 -4.59008e-008 -4.0914e-008 -7.91277e-008 2.37846e-008 -5.62917e-008 -5.06521e-008 -9.10185e-009 7.15789e-008 -2.38998e-008 4.05418e-009 3.10968e-008 4.35048e-008 8.02344e-008 8.66699e-009 -5.93948e-009 2.41731e-008 -9.32534e-008 -5.33805e-009 7.84265e-008 -9.20384e-008 5.88123e-008 -5.11437e-008 -4.25848e-008 -7.07005e-008 6.37966e-010 7.88443e-008 -5.18867e-008 -9.01457e-008 -3.14456e-008 -5.15002e-008 -1.45249e-008 -5.3319e-008 6.23941e-008 -6.08725e-009 2.72208e-009 3.40429e-008 1.51627e-008 6.66811e-008 -8.92538e-008 -3.41973e-009 -6.28259e-009 2.1027e-008 -7.58953e-008 6.7121e-008 2.4654e-008 8.04658e-008 2.9874e-008 -6.1567e-008 -8.30702e-008 -6.29272e-008 -6.22105e-009 -1.19875e-008 -3.72549e-008 -4.39095e-008 -3.93358e-008 8.56892e-008 8.95505e-008 5.61965e-008 1.2182e-008 3.3771e-008 1.11667e-008 -7.94457e-008 -9.67591e-008 -5.59216e-008 5.44484e-008 -2.63996e-008 -8.04284e-008 9.00648e-008 -5.15237e-008 -6.59949e-008 -4.03262e-008 -5.76007e-008 3.33158e-008 -2.81692e-008 -7.38545e-008 -5.63184e-008 9.58265e-008 4.50284e-009 -2.65832e-008 1.41105e-008 -9.2973e-008 2.51059e-009 3.79508e-008 7.43923e-008 -7.67582e-009 -8.8066e-008 -8.23178e-008 5.77946e-008 -6.56521e-008 9.07222e-008 -9.66984e-008 5.27339e-008 2.47762e-008 2.10231e-008 -5.48321e-008 -1.3784e-008 -8.74492e-008 4.15631e-008 -5.03578e-008 -2.53011e-008 -5.4411e-008 3.06251e-008 -7.91157e-008 2.71002e-008 -2.8494e-008 1.70387e-008 -5.00432e-008 -4.52254e-008 -5.06332e-008 7.58368e-008 -5.80255e-008 -6.10929e-009 3.84842e-008 1.52558e-008 8.46681e-008 -6.93864e-008 -9.61795e-008 -9.16626e-008 4.46612e-008 -8.15595e-008 4.59011e-008 3.28832e-008 4.55344e-008 7.56436e-008 -2.15792e-008 6.20838e-008 4.23392e-008 -9.53261e-008 -9.33359e-008 3.94936e-008 -7.53379e-009 -2.85036e-008 -1.32266e-008 -4.88297e-008 -9.96232e-009 -9.12591e-008 2.76445e-008 -3.08638e-008 -9.6986e-008 -3.49841e-008 -2.03698e-008 -1.53556e-008 -1.7404e-008 -9.56182e-008 2.87153e-008 4.12331e-008 -5.46052e-008 1.54141e-008 1.68589e-009 5.96935e-008 9.70884e-010 -6.18123e-008 -3.43675e-008 -1.39347e-008 -5.30014e-008 9.20631e-008 -5.6665e-008 -3.36544e-008 3.30621e-008 2.36076e-008 4.40478e-008 -6.1337e-008 8.11823e-008 -1.78263e-008 5.08153e-008 -7.82274e-008 9.69577e-008 -5.1068e-008 3.32503e-008 -8.1722e-008 -9.16751e-008 -6.5803e-008 -6.04398e-008 -9.52932e-008 -1.89126e-008 -2.93255e-008 -3.30409e-008 2.39091e-008 5.00049e-008 -2.50493e-008 -2.49438e-008 1.24111e-008 -3.59273e-008 9.22164e-008 1.89162e-008 -7.5864e-008 -1.31012e-008 4.50065e-008 -5.84538e-008 -9.53997e-008 4.09575e-008 -7.60944e-008 -2.27307e-008 4.32257e-008 -7.97393e-008 3.359e-008 4.86932e-008 5.99008e-009 3.30586e-008 -7.75163e-008 -8.89618e-008 8.56378e-008 4.84738e-008 -4.68828e-008 3.30777e-008 8.67355e-008 4.86001e-008 -7.94779e-008 -8.04975e-008 -4.44825e-008 -3.85996e-009 -6.86789e-008 -9.66299e-008 1.74341e-008 8.15635e-008 -2.97633e-008 -3.27177e-008 -3.13326e-008 1.61805e-008 -2.36512e-008 8.22538e-008 -1.4656e-008 -5.48251e-008 2.65275e-008 -7.09981e-008 -5.4074e-008 3.90526e-008 6.46281e-008 -6.65718e-009 -8.63764e-008 -9.23408e-009 -8.68915e-008 9.46461e-008 8.28294e-008 -4.32323e-008 6.56046e-008 8.07999e-008 -3.59136e-008 -3.64955e-008 2.83359e-008 -9.40453e-008 2.26433e-008 -8.52618e-008 -8.09726e-009 -5.24089e-008 9.17805e-008 -9.34059e-008 -2.5195e-008 -4.40505e-008 9.55956e-008 5.75355e-008 -5.45842e-008 -8.31437e-008 -2.21965e-008 -9.54516e-008 5.52672e-008 -4.77274e-008 -6.26682e-008 7.26859e-008 -9.71761e-008 6.20231e-008 2.91e-009 7.78928e-008 -1.74234e-008 -6.46759e-010 -9.00709e-008 -8.39743e-008 -1.34691e-008 4.33097e-008 -6.25688e-008 3.06833e-008 6.49805e-009 -5.29328e-008 -8.38945e-008 1.39731e-008 2.72829e-009 2.66808e-008 2.93232e-008 1.75e-008 -3.21328e-008 -5.28475e-008 -9.6846e-008 4.64969e-008 -5.93133e-008 -7.58511e-009 -6.70566e-008 6.33168e-008 3.40912e-008 2.27943e-008 -8.89578e-009 7.40991e-008 -6.29816e-009 -7.94836e-008 -9.29907e-008 1.39788e-008 4.67271e-008 9.83728e-009 7.65106e-008 2.50257e-008 6.80414e-008 2.11067e-008 -5.71682e-008 -4.66868e-008 -8.07778e-008 7.09874e-008 -6.15843e-008 -4.5102e-008 7.74492e-008 4.41161e-009 1.34963e-008 1.71041e-008 3.05196e-009 8.99708e-008 9.09884e-008 2.34322e-008 -9.73894e-008 -3.96475e-008 -5.98266e-008 -8.54104e-008 2.08722e-008 3.18465e-008 4.57422e-008 5.8602e-008 -1.9521e-008 9.61178e-008 5.93094e-008 -4.19079e-008 -4.56936e-008 5.333e-008 -9.30407e-008 -4.73928e-008 8.756e-008 -8.79816e-009 -3.39467e-008 -3.77352e-008 1.51891e-008 2.73425e-008 -8.72447e-009 6.69946e-008 -2.17342e-008 -5.76427e-008 -8.50283e-008 -1.91333e-008 -5.16262e-008 -4.487e-008 -3.76884e-008 5.93216e-008 -1.02785e-008 -9.35994e-008 1.40374e-008 -4.92775e-008 -4.64696e-008 5.21184e-008 -7.69322e-008 -4.26084e-008 2.61984e-008 -9.20685e-008 1.72872e-008 -3.31679e-008 -6.08328e-008 -3.59453e-008 -8.03539e-008 5.48444e-008 2.52809e-008 -6.35089e-008 3.68999e-008 -3.03953e-008 3.10003e-008 1.89577e-008 -4.89294e-008 2.56103e-008 -3.82383e-008 -2.52729e-008 6.38153e-008 -3.61324e-008 -8.21493e-008 -5.17878e-008 7.2805e-008 3.90057e-008 4.4475e-008 -3.14775e-008 1.71998e-008 -8.83065e-008 1.23436e-008 2.63044e-008 -1.30026e-008 -8.6864e-008 -8.65247e-008 8.37321e-009 3.94755e-009 -5.49557e-008 -1.81949e-008 -2.51343e-008 1.86784e-008 6.26696e-008 3.19253e-008 -2.38696e-008 -7.99574e-008 1.12908e-008 9.71682e-008 2.74393e-008 -9.05733e-008 6.53114e-008 -5.31451e-009 5.38356e-008 -6.48006e-008 -5.99336e-008 2.18789e-008 3.92945e-008 7.25601e-008 6.60828e-008 -3.21142e-008 6.30072e-008 -8.13107e-008 -3.70546e-008 -6.93041e-008 9.13607e-009 -2.05241e-009 4.63138e-008 -6.5333e-008 -7.88874e-008 4.0932e-008 -5.97011e-008 4.17484e-008 3.05186e-008 -1.24661e-008 -1.34743e-008 2.49906e-008 -3.59038e-008 4.27956e-008 -8.00936e-008 4.51065e-008 -4.29637e-008 -6.74441e-008 6.87619e-008 8.29386e-008 6.58479e-008 -5.73768e-008 -2.87305e-008 -2.83834e-008 7.65731e-008 1.83514e-008 7.93407e-009 9.68405e-008 7.12788e-008 -9.23563e-008 -2.60208e-008 -9.30938e-008 7.77906e-008 2.45312e-008 6.57236e-008 7.66536e-008 -8.98114e-008 1.75099e-008 9.44879e-008 4.8831e-008 -6.12601e-008 3.9215e-008 8.5305e-008 -2.37553e-008 5.97882e-008 -3.58836e-008 3.80963e-008 3.84069e-008 1.81812e-008 -9.44724e-008 9.63301e-008 -1.88413e-008 6.32419e-008 4.0704e-008 -2.20244e-008 -8.0403e-010 9.37459e-008 -9.70429e-008 2.41101e-008 -4.09624e-008 5.85278e-008 8.56099e-008 8.60933e-008 -8.12928e-008 -9.22755e-008 1.10748e-008 2.23752e-008 8.26255e-008 -2.91154e-008 -8.25119e-008 7.78298e-008 7.89651e-008 -2.67534e-008 8.85921e-008 -8.8061e-008 7.82387e-008 1.47592e-008 -8.29155e-008 8.86979e-008 1.68397e-008 5.50825e-008 5.78423e-008 -1.57434e-009 3.94117e-008 -8.01396e-008 -6.61638e-008 5.70848e-008 9.62949e-008 -9.17463e-009 -2.95496e-008 -6.57148e-008 9.51957e-008 9.51124e-008 -5.83737e-008 -8.69571e-008 -6.81211e-008 -2.06302e-008 -8.08328e-008 -1.88596e-008 -7.64764e-008 1.90477e-008 8.65828e-008 8.49584e-008 5.83761e-008 5.94111e-008 3.6645e-008 3.39144e-008 -4.66008e-008 -1.67639e-008 -1.10281e-008 4.96372e-008 -6.03145e-008 7.062e-008 6.75853e-008 -1.22711e-008 7.07771e-009 -9.60447e-008 6.7141e-008 4.81902e-008 -9.19988e-009 -2.90184e-008 4.78905e-008 2.67239e-009 2.48243e-008 -6.79362e-008 -5.07596e-008 -7.88308e-008 7.13861e-008 -8.23809e-008 4.00046e-009 9.25998e-009 6.28475e-008 5.92073e-008 -2.46879e-008 4.35629e-008 -1.75688e-008 3.28366e-008 -2.40571e-008 -6.97197e-008 6.16952e-008 -8.66238e-009 -9.28701e-008 2.51069e-008 -5.09892e-008 3.83973e-008 -1.11808e-008 9.58843e-008 -7.62704e-008 -7.3602e-008 7.98046e-008 -4.26328e-008 -7.97425e-008 2.84305e-009 1.32514e-008 -8.99959e-008 7.71437e-009 1.53206e-008 -1.00801e-008 -7.02858e-009 -3.35457e-008 6.31675e-008 -1.89559e-008 -8.60204e-009 1.62968e-008 7.55461e-008 -8.94404e-008 7.76348e-008 -5.27909e-009 -4.71305e-008 -1.01583e-009 -3.34675e-008 4.18175e-008 1.23187e-008 4.55831e-008 -4.34044e-008 6.05691e-008 -6.23651e-008 -5.35803e-008 5.76351e-008 -5.77062e-008 1.17445e-009 8.60488e-008 -6.00866e-008 -2.81037e-008 1.44336e-008 -9.2663e-008 5.49419e-009 -5.8841e-008 7.39676e-008 -4.9953e-008 -4.9798e-009 -7.82028e-008 2.10232e-009 -6.91043e-008 4.42602e-008 -9.55474e-008 -6.10889e-008 2.51007e-008 8.18069e-008 -2.25096e-008 -5.12265e-008 5.07586e-008 9.48523e-008 -2.86893e-008 -9.49238e-008 -3.06872e-008 9.62667e-008 -3.66023e-008 -8.85111e-008 4.11649e-008 2.45854e-008 -1.09248e-008 -1.49271e-008 9.02387e-008 7.16194e-008 -4.20401e-008 -5.77727e-008 6.42706e-008 5.16041e-008 7.47783e-008 -2.65973e-008 -5.82563e-008 -6.43691e-008 1.94161e-008 -1.8321e-008 7.94014e-008 -7.10651e-008 1.64817e-008 -1.97415e-008 1.2121e-008 5.18637e-009 -4.4855e-008 1.72359e-008 5.68351e-008 -5.80956e-008 -7.36106e-008 -6.25518e-008 8.24803e-010 1.2814e-008 -8.07788e-008 7.23708e-008 -8.81926e-008 -8.51659e-008 -3.32206e-008 -5.24966e-008 7.54407e-009 1.26603e-008 6.87584e-008 -6.45949e-009 3.12596e-008 -4.5784e-008 7.57122e-008 -1.18481e-008 6.35372e-008 -6.11051e-008 2.09081e-008 7.69869e-008 -9.46378e-008 1.13348e-008 -3.43252e-009 4.53643e-008 -7.5191e-008 6.09027e-009 8.30827e-008 -8.04956e-008 8.20788e-008 -9.64648e-008 -8.86157e-008 4.09632e-008 3.74212e-009 -2.01603e-008 3.27626e-009 6.01033e-009 -8.62791e-008 -3.37805e-009 4.44179e-008 6.99538e-009 2.23272e-008 3.04017e-008 8.25114e-008 5.63226e-008 7.64399e-008 4.65248e-008 -7.34258e-008 3.19189e-008 -2.26971e-008 -5.64134e-008 -3.08112e-008 2.11181e-008 6.56063e-008 -4.16482e-008 8.75577e-008 6.59778e-008 -8.53521e-008 -7.48005e-008 -7.41274e-008 -2.28753e-008 8.4741e-008 -4.01794e-008 8.68182e-008 -2.42007e-008 1.74898e-008 5.32124e-008 -9.57621e-008 1.37776e-008 3.94999e-008 -3.27874e-008 -2.82749e-008 7.64505e-008 8.16107e-009 -8.66975e-008 8.25749e-008 -8.48683e-009 6.801e-008 -9.04963e-008 -5.68399e-008 6.39169e-008 -8.6089e-008 8.01746e-008 -2.51274e-008 6.67156e-009 -4.56073e-008 -6.99954e-010 -6.91985e-008 -9.70566e-008 -9.03867e-008 -1.72562e-009 -8.84626e-008 3.8692e-008 8.84659e-009 4.12193e-008 1.78746e-008 3.54373e-008 -8.32028e-008 -8.77864e-008 8.5909e-008 2.13021e-008 -8.88657e-008 -6.16258e-008 8.22457e-008 3.86241e-008 5.60877e-008 4.50047e-008 3.35036e-008 -4.12865e-008 4.9891e-008 7.4185e-008 5.94912e-008 3.29347e-008 4.21615e-008 8.24474e-008 5.32806e-008 -2.37682e-008 -3.67196e-008 6.41687e-008 5.57688e-008 -7.07319e-008 -8.42718e-008 -1.34953e-008 -7.87191e-008 6.66236e-008 -3.00164e-008 3.69162e-008 8.68302e-008 -2.48389e-010 -3.3767e-008 4.33317e-008 -7.44503e-009 6.07062e-008 5.07843e-008 -5.4407e-008 3.08179e-008 1.20156e-008 2.39611e-008 -7.9124e-008 -8.24982e-008 5.54065e-008 1.81252e-008 5.98661e-008 -3.45443e-008 1.91305e-008 -6.20853e-008 -6.31017e-008 -8.1274e-008 4.94433e-008 -6.688e-008 1.72705e-008 -9.485e-008 -8.76778e-008 -7.97003e-008 -8.72757e-008 -3.71272e-008 5.32749e-008 -7.49596e-008 -5.24269e-008 3.62531e-008 -1.87077e-008 -3.17779e-008 -2.5052e-009 2.98204e-008 8.37902e-010 8.08529e-008 2.1113e-008 2.73485e-008 4.46471e-008 -5.04467e-008 8.11215e-008 -8.10175e-008 8.09651e-008 -1.90087e-008 -8.5987e-009 7.15533e-008 -4.99759e-008 3.61885e-008 2.08224e-008 -9.45846e-008 6.11335e-008 7.49853e-008 4.33395e-008 8.65498e-008 -7.06805e-008 -4.27276e-008 4.3573e-008 5.96791e-008 -6.05982e-008 -5.69178e-008 1.74451e-008 -2.37571e-008 -4.22845e-008 -9.20861e-008 -5.31675e-008 3.3179e-008 9.41594e-008 -9.38646e-008 5.82934e-008 3.89449e-008 -5.36811e-008 -4.87427e-008 1.2459e-008 -4.00162e-008 5.9455e-008 -6.66968e-008 -9.02109e-008 -8.34661e-008 2.41737e-008 -5.62324e-008 4.70415e-008 8.35883e-008 8.33156e-008 9.01118e-008 9.50679e-008 2.29854e-008 -4.79269e-008 2.89017e-008 3.077e-008 -2.77027e-008 -4.24167e-008 -1.44138e-008 -7.55056e-008 -5.39876e-009 -4.36022e-008 -7.28137e-008 -2.26303e-008 -1.16247e-008 -2.47141e-008 8.64127e-008 1.53749e-008 -3.75521e-008 8.88193e-008 -1.96472e-008 3.29326e-008 -9.19399e-008 -1.8614e-008 5.75863e-008 7.05963e-008 1.24016e-008 -1.45865e-008 3.38125e-009 5.54449e-008 2.5221e-008 9.72378e-008 -9.36601e-008 -5.79798e-008 2.06337e-008 -7.68055e-008 8.90944e-008 3.8497e-008 2.82819e-008 -1.92589e-008 -9.52509e-008 -4.68325e-008 -1.62482e-008 -6.95054e-008 -1.96845e-009 -5.66121e-008 -8.1159e-008 1.57966e-008 -5.06457e-008 -3.33882e-008 2.8515e-009 7.69016e-008 4.57227e-008 -2.18558e-008 5.73227e-008 4.5841e-008 -9.57575e-008 6.42529e-008 3.46602e-008 8.57648e-008 7.14768e-008 3.00967e-008 6.48429e-008 7.71697e-008 1.05651e-008 8.19048e-008 -4.18477e-008 -3.6204e-009 -7.72792e-008 -1.55933e-008 6.32192e-008 -8.85059e-008 5.0101e-008 -8.73195e-008 -3.10794e-008 7.26544e-008 -2.95653e-008 5.32513e-008 -7.82927e-008 4.25127e-008 -6.86112e-008 2.00038e-008 -8.53229e-008 9.44017e-008 -4.50367e-008 5.55722e-008 -8.6658e-008 6.64679e-008 -7.51623e-008 -3.85687e-008 -4.05992e-008 -5.8455e-008 -5.33611e-008 -2.60745e-008 -3.48568e-009 2.78371e-008 -9.59348e-008 -7.47262e-008 8.34518e-008 9.14123e-008 -9.72908e-008 -1.045e-009 1.26209e-009 9.49396e-008 -6.70988e-008 -1.20235e-008 -9.58124e-008 1.13252e-008 4.79204e-009 2.5546e-008 6.64534e-008 5.04487e-008 -2.37679e-008 8.28833e-008 -9.18582e-008 6.07961e-008 1.47783e-008 -8.32923e-008 8.79366e-008 7.09371e-008 -3.5236e-008 2.66964e-008 7.43953e-008 -8.40892e-008 -8.89704e-008 -5.76918e-008 3.34677e-008 4.25425e-008 3.21407e-008 5.20866e-008 -4.05128e-008 2.26962e-008 -8.2695e-008 2.2638e-008 3.17919e-008 -7.11094e-008 4.04999e-008 -7.3498e-008 7.62742e-008 8.55853e-008 -1.94082e-008 -1.93069e-008 -9.69754e-008 -5.68523e-008 -1.57365e-008 -5.06389e-009 -5.27423e-009 8.8137e-008 7.63358e-009 -9.66554e-008 8.71068e-009 -1.0946e-008 -6.10228e-008 -7.48757e-008 1.75872e-008 -6.07258e-008 5.37446e-009 4.33215e-008 8.4014e-009 2.66568e-008 1.6729e-008 5.32633e-008 4.40404e-008 -3.41971e-008 5.03201e-009 -4.50271e-008 -2.87348e-008 -1.60441e-008 8.29806e-009 1.60353e-009 6.43624e-009 3.59434e-008 -8.1654e-008 -8.45359e-008 2.37052e-008 3.97874e-008 7.51804e-008 3.88566e-008 4.91982e-008 8.22806e-008 -2.68385e-008 5.2442e-008 2.65427e-008 5.47473e-008 -3.05296e-008 -7.63829e-008 6.8636e-008 -7.07686e-008 -4.7001e-008 4.53301e-008 2.89035e-008 -3.56048e-008 -6.43786e-008 -7.07367e-008 6.1787e-008 5.1735e-009 1.17836e-009 -9.57884e-008 -5.62988e-008 1.87178e-008 5.12432e-008 1.92226e-008 -3.01438e-008 -3.4025e-008 6.247e-008 3.89055e-008 4.40315e-008 2.2805e-008 -7.08816e-008 -1.89944e-008 -1.5575e-008 2.91145e-008 -3.3524e-009 5.0024e-009 -5.55382e-008 -8.77295e-008 1.48361e-008 5.87339e-008 -5.06732e-008 -7.69545e-009 1.51376e-008 9.25866e-008 1.77161e-008 -1.89269e-008 4.22951e-008 4.39618e-009 -8.58229e-009 -9.51084e-008 7.45704e-008 -1.61004e-008 -4.63867e-008 -6.18579e-008 -2.84565e-008 -5.42302e-008 6.8461e-009 -2.8665e-008 3.20885e-008 9.20571e-008 7.30988e-008 -9.36143e-008 7.00529e-008 2.81213e-008 5.43494e-008 -7.9391e-008 -7.41698e-008 -7.68494e-008 7.74993e-008 -4.43654e-008 -8.06755e-008 -1.52962e-008 -5.97973e-008 -7.12653e-008 4.19949e-008 -1.04876e-008 3.64603e-008 9.38767e-008 9.32162e-008 -7.39438e-008 7.84823e-008 5.81354e-008 -7.38464e-008 -1.65685e-008 -8.54688e-008 -2.37057e-008 1.36819e-008 -6.63533e-008 2.32252e-008 -7.95783e-008 -5.09291e-008 5.67312e-008 3.93271e-008 1.72886e-009 -2.69636e-008 -2.34556e-009 -7.15638e-009 -5.13242e-008 6.49929e-008 -3.69556e-008 4.06803e-009 8.18026e-008 8.68004e-008 6.10324e-008 -1.87252e-008 -3.61861e-008 9.35148e-009 -2.72999e-008 2.80236e-008 6.08554e-008 -4.1709e-008 6.42856e-008 9.6294e-009 -2.41841e-009 -6.20414e-008 -8.19665e-008 -8.96222e-008 4.30863e-009 5.11234e-008 6.42386e-008 -5.16041e-008 9.30763e-008 7.22688e-009 4.92519e-008 -2.72677e-008 2.883e-008 -6.35808e-008 3.87508e-008 8.13157e-008 -4.53534e-008 -3.01235e-009 -6.37354e-008 -2.74685e-008 -6.26662e-008 7.13785e-008 6.95429e-008 7.9056e-008 -7.12503e-009 -5.33038e-008 8.21147e-009 5.79681e-008 6.38391e-008 6.3282e-008 -4.4158e-009 -7.18314e-008 -4.03041e-008 -7.75992e-008 -4.90077e-008 6.95772e-008 -2.00094e-008 -9.48476e-008 -7.93817e-009 -8.40281e-008 -8.20235e-008 -5.26738e-008 3.94825e-008 3.72297e-008 4.55583e-008 5.74391e-008 -4.31022e-008 3.99775e-008 -2.80282e-008 2.27578e-008 -8.61703e-008 7.50568e-008 1.87322e-008 2.77049e-009 7.83426e-008 -2.00939e-008 -3.51558e-008 8.44618e-008 5.41697e-008 -2.13765e-008 5.63096e-008 -1.37352e-008 -8.02647e-008 -3.16318e-008 -7.06806e-008 6.62332e-008 9.96735e-010 -1.88466e-008 -1.16897e-008 -5.70311e-008 2.41994e-008 4.27592e-008 -1.14456e-008 5.1016e-008 5.29117e-008 -1.14666e-009 -8.41958e-008 -2.65484e-008 1.04459e-008 7.63144e-008 -3.48837e-008 3.25044e-008 3.76102e-008 5.53395e-008 -1.15105e-008 1.65536e-009 1.24382e-008 1.32269e-008 6.87389e-009 3.40702e-008 -4.88567e-009 -2.79089e-008 7.19197e-009 3.45694e-008 -4.92708e-008 -4.49622e-008 -8.2398e-008 -3.25129e-008 -3.69998e-008 6.73655e-008 -7.41496e-008 3.34615e-008 -5.36965e-008 -9.08099e-008 -3.95751e-008 9.16808e-009 7.00519e-008 -2.11184e-009 5.72893e-008 8.24991e-008 2.69717e-008 8.95601e-008 -6.42734e-008 7.07249e-008 -7.87381e-008 8.02555e-008 9.01836e-008 7.87305e-008 4.52878e-008 -1.18572e-008 5.05912e-008 8.08392e-009 1.13115e-008 7.91184e-009 -2.8245e-008 1.44695e-008 -3.0184e-008 -7.70491e-008 3.97991e-008 8.96509e-008 6.29591e-008 -4.30057e-008 7.22064e-008 3.41068e-008 5.85043e-008 4.50734e-008 -4.12639e-009 -2.54679e-008 -3.21418e-008 -6.23423e-008 4.48776e-008 -4.04571e-008 3.80044e-008 6.62309e-008 -9.45273e-009 3.22672e-008 3.5308e-008 -7.70213e-008 2.12868e-008 8.8018e-008 5.2879e-008 -2.8674e-008 3.93315e-008 8.33682e-008 -8.09562e-008 -6.32316e-008 -3.32401e-008 3.85042e-008 -1.38218e-008 2.9867e-008 -6.49033e-008 5.31102e-008 7.54374e-009 -1.62629e-008 2.70032e-008 8.34087e-008 9.51568e-008 8.06771e-008 -6.84706e-008 6.24979e-008 -4.78903e-008 -4.08925e-008 -6.14992e-009 2.65989e-008 -6.77261e-008 8.0986e-009 2.90985e-010 -6.4555e-008 3.84288e-008 -6.4954e-008 6.08222e-008 -2.16709e-008 1.98363e-008 -8.35696e-008 4.06797e-008 -2.38739e-008 7.99935e-008 5.69134e-008 5.07848e-009 6.96997e-008 -1.77097e-008 2.50504e-008 4.50359e-008 3.1893e-008 -7.33138e-009 -5.94064e-008 7.65935e-008 -3.33073e-008 -2.48594e-008 8.35978e-008 -2.34561e-008 6.28994e-008 -1.6595e-008 6.25583e-008 9.64878e-008 -5.25914e-008 5.04606e-008 -6.73967e-008 1.54632e-008 3.03298e-008 5.00943e-008 7.80609e-008 3.47542e-008 -4.47762e-008 -8.9853e-008 -8.5454e-008 3.25828e-008 9.49071e-008 -3.469e-008 -6.54709e-008 1.05398e-008 4.47482e-008 6.87364e-008 -4.39351e-008 -5.44079e-008 3.50224e-008 -7.81919e-008 3.52276e-008 -3.86155e-009 3.95381e-008 -9.09044e-008 -2.47832e-008 4.34736e-008 -5.62083e-008 7.78833e-008 3.78681e-008 2.13187e-008 1.37082e-008 -7.70049e-008 4.10312e-009 1.51065e-008 -1.51471e-008 1.71086e-008 6.62147e-008 -3.63381e-008 3.02151e-008 -9.30698e-008 3.28619e-008 -2.49552e-008 8.74698e-008 3.08397e-008 -9.39413e-008 2.96397e-008 -5.84351e-008 -9.36319e-008 -5.46421e-008 6.31566e-008 -2.81251e-008 3.50611e-008 3.09806e-008 -3.81549e-008 9.65106e-008 -8.34139e-008 6.22363e-008 7.09787e-008 -9.53498e-008 -4.67029e-008 -8.20169e-008 5.37497e-008 2.55377e-008 -6.68745e-008 7.01282e-008 7.03358e-008 5.02655e-008 -2.58661e-008 5.73586e-008 2.23216e-008 3.21118e-008 -8.19311e-008 1.22123e-008 -3.25655e-008 2.11967e-008 2.12387e-008 -6.49977e-008 6.97996e-008 2.49186e-008 -2.58104e-008 8.3347e-008 4.30309e-009 -1.16054e-008 -1.64978e-008 -3.5828e-008 -4.83885e-008 -7.67856e-008 -6.24361e-008 -6.08545e-008 -9.46855e-008 -3.75351e-008 8.6439e-008 8.76564e-008 -6.4913e-008 2.57956e-008 8.72005e-008 2.21504e-008 1.51052e-009 3.07758e-009 -4.28629e-008 -6.75399e-008 -6.06589e-008 8.49071e-008 -9.02301e-008 1.99049e-008 -1.78688e-008 7.63919e-008 -9.27352e-008 1.20021e-008 -4.79199e-008 -8.61697e-008 -1.14885e-008 -4.2968e-008 -9.50571e-008 3.95223e-008 8.98902e-008 -7.32107e-008 4.07704e-008 -4.96919e-008 6.35643e-008 -7.39004e-008 -9.16257e-008 -5.379e-008 2.12477e-009 -6.15578e-008 1.23358e-008 2.10399e-008 9.14556e-008 1.70492e-008 -5.72296e-008 3.17748e-008 9.06707e-008 -6.12075e-008 -9.5054e-008 9.49748e-009 -4.86521e-008 7.13472e-008 1.46998e-008 -4.87288e-008 4.20959e-008 -7.77001e-009 -7.77002e-009 4.50249e-008 7.97849e-008 3.95406e-008 -2.99159e-008 -3.13842e-008 4.98674e-008 3.70532e-008 8.55185e-008 4.89325e-008 7.54073e-008 6.94309e-008 -7.5082e-009 -9.47694e-008 1.34504e-008 4.47021e-008 9.11998e-009 8.66066e-008 7.65639e-008 7.16832e-008 4.39476e-008 2.40362e-008 -8.61859e-009 -6.05673e-009 -2.8579e-008 -2.05136e-008 2.35532e-008 -7.47175e-009 -5.97158e-008 6.87021e-008 2.6034e-008 2.13308e-008 -5.32653e-008 5.43028e-008 2.96262e-008 -6.01638e-008 7.63799e-008 9.14002e-008 -2.34694e-008 3.19255e-008 2.13362e-008 7.67208e-008 -6.89018e-008 -3.87295e-009 4.00292e-008 1.12372e-008 -4.88704e-008 2.19571e-008 -8.4649e-008 -9.04652e-008 -8.6625e-008 -7.30565e-008 -1.7343e-008 6.97399e-008 -9.74308e-008 1.79898e-009 -5.29569e-008 6.04802e-008 -9.5502e-008 4.57526e-008 5.1031e-009 -9.49122e-008 5.09297e-008 4.04151e-008 -2.76843e-009 1.30581e-009 3.65382e-008 -6.32805e-009 -4.29138e-008 -6.79396e-008 -4.61631e-008 -5.68539e-008 7.01754e-008 2.35739e-008 5.90584e-008 -4.02067e-008 -7.07243e-008 5.12435e-008 1.37138e-008 2.40483e-008 -8.59008e-008 6.25918e-008 2.10439e-009 -4.44594e-009 -2.17446e-008 3.07133e-008 -6.26533e-008 8.91492e-008 -5.87169e-008 -9.39606e-008 -2.62214e-008 4.49024e-008 4.94342e-008 5.05565e-008 -8.25885e-008 -1.20811e-008 1.18253e-008 -5.70814e-008 -5.30687e-008 -2.09333e-008 -8.83096e-008 5.60013e-008 3.31837e-008 3.05937e-009 4.46038e-008 -3.93497e-008 1.43593e-008 -1.97006e-010 4.65994e-008 -5.00632e-008 -4.97111e-008 -4.22612e-008 -9.29446e-008 9.1079e-008 7.31976e-008 -3.65249e-008 2.59296e-008 3.29256e-008 2.06979e-008 -9.54474e-008 7.5928e-008 1.18556e-008 -2.51103e-008 -6.09319e-008 2.1792e-009 2.68305e-008 8.64352e-009 7.35538e-008 3.70508e-008 4.11684e-008 5.68779e-009 -8.75015e-008 -8.03032e-008 -7.72652e-008 -2.11288e-008 -5.54838e-008 -2.29732e-008 9.04016e-008 7.15701e-008 9.61507e-008 -2.67488e-008 -9.62464e-008 -5.48045e-008 8.25774e-008 -5.7422e-008 -4.89876e-008 -1.46868e-009 2.03277e-008 -5.12732e-008 -2.24217e-008 -5.82038e-008 -4.97321e-008 8.23049e-008 -6.66432e-008 -4.56131e-008 4.87349e-008 4.98311e-009 -8.55592e-008 3.46366e-008 -9.14479e-008 3.72169e-008 -6.36424e-008 7.31346e-008 -3.83588e-008 7.32686e-008 9.08225e-008 -9.54078e-008 -6.11476e-008 1.08538e-008 -4.91601e-009 -9.02733e-008 3.75148e-008 5.87447e-008 3.25225e-008 3.56382e-008 -9.17046e-008 2.62748e-008 6.05647e-008 4.56127e-008 3.16991e-008 -3.89932e-008 -7.46563e-008 8.30382e-008 9.09628e-008 -6.75992e-008 -8.44723e-008 5.74824e-008 1.22683e-009 -2.839e-008 8.04707e-008 -2.13322e-008 4.00716e-009 6.24659e-008 -7.18013e-008 -1.09496e-008 -4.47852e-008 -7.03269e-008 -8.61953e-008 9.21902e-008 -1.68596e-008 8.18482e-008 -1.06113e-008 9.48105e-009 -3.20371e-008 -8.19525e-008 -4.09331e-009 4.12258e-008 2.31144e-008 -8.45805e-008 5.68061e-008 -1.06699e-008 -1.0139e-008 -1.96277e-008 6.60824e-008 -8.85603e-008 -7.1666e-008 2.56773e-008 4.2505e-009 -1.73835e-008 3.12774e-008 4.20885e-009 6.48846e-008 -8.64587e-010 -7.17837e-008 6.45793e-008 2.04556e-008 -7.60874e-008 8.37514e-008 7.19841e-008 5.31512e-008 -5.09791e-008 -8.89225e-008 -3.74778e-008 -4.68785e-008 -5.24102e-009 -5.53228e-008 1.40471e-010 6.15216e-008 8.96694e-008 -7.54918e-008 5.01909e-008 -3.26677e-008 9.51051e-008 4.1434e-009 5.41181e-008 -8.12913e-008 8.43556e-008 -4.76573e-008 9.10124e-008 -6.04936e-008 -7.36687e-008 2.07623e-008 -8.19091e-008 7.14042e-008 1.32469e-008 7.5977e-008 5.5629e-008 7.8859e-008 3.45204e-010 -3.40774e-008 4.33451e-008 8.20818e-009 6.29957e-008 -1.82602e-008 4.8834e-009 8.21331e-008 3.42242e-008 -6.26497e-008 9.70649e-008 3.25304e-008 -4.15411e-008 -1.43796e-008 -1.93867e-008 -7.30346e-008 9.45991e-008 -7.55722e-008 1.80444e-008 4.93432e-008 7.03586e-008 6.00446e-008 -8.29773e-008 -3.38579e-009 5.89029e-008 -3.68006e-008 -4.42641e-008 4.17314e-008 -9.62044e-008 8.46861e-008 7.08835e-008 4.44223e-008 -3.17837e-008 -3.5144e-008 -2.03934e-008 3.32758e-008 6.66635e-008 -6.0649e-009 6.19628e-008 -6.21514e-008 -9.23455e-008 9.16007e-008 -9.21559e-008 1.37875e-008 -5.6094e-008 -5.39531e-008 8.00875e-008 6.02781e-008 3.82943e-008 7.34649e-008 7.97858e-008 -4.07619e-008 7.5072e-008 3.8442e-008 4.13524e-008 -3.4412e-008 1.5132e-008 -5.59999e-008 -3.06101e-008 1.01273e-008 -1.83396e-008 2.30703e-008 -5.58677e-008 -4.21542e-009 8.55791e-008 -3.77099e-008 -5.23044e-008 9.16098e-008 -1.50866e-008 -2.81294e-008 3.43907e-008 -8.64916e-009 5.7371e-008 -4.77686e-008 -6.8428e-008 -4.29632e-008 -1.94082e-010 -6.11898e-009 8.18159e-008 5.5125e-008 7.54455e-008 9.75554e-009 4.22987e-008 -1.56829e-008 -4.46008e-008 3.18191e-008 9.3636e-008 -8.01379e-008 -2.57699e-008 -5.86787e-008 -1.36888e-008 3.57648e-008 -5.08722e-010 2.32764e-008 6.24639e-008 -4.56174e-008 -5.23741e-008 4.38637e-008 2.18081e-008 3.48176e-010 -2.1192e-008 -5.10142e-008 5.5157e-009 2.89498e-009 3.53066e-009 5.36701e-008 -2.61816e-008 -8.50692e-008 2.10572e-008 -6.44704e-008 -3.77778e-008 -8.96146e-008 7.36361e-008 4.91738e-008 9.29334e-008 1.54787e-008 2.93857e-008 -6.39807e-008 3.55498e-008 8.65919e-008 3.90348e-008 7.61534e-008 2.11348e-008 8.66817e-008 -2.33759e-008 1.65198e-008 2.41357e-009 -7.29224e-008 -1.17384e-008 8.63443e-008 -5.66716e-008 4.70903e-008 3.21221e-008 5.74487e-008 6.11736e-008 2.48383e-008 8.25325e-008 -7.81168e-008 -1.64828e-008 -7.75846e-008 -2.64338e-008 -7.15096e-008 -8.68677e-008 -8.74393e-008 7.05312e-008 6.46351e-008 3.60423e-008 7.9522e-008 -2.80757e-008 2.39469e-008 -3.76243e-009 6.1261e-008 -4.30647e-008 6.67745e-009 -2.32291e-008 7.22668e-008 7.94003e-008 2.45518e-008 7.27242e-008 -9.2416e-009 7.35385e-008 5.23996e-008 -3.3839e-008 -5.27811e-008 3.92744e-008 -7.07634e-008 2.15332e-008 8.60692e-008 -2.26622e-008 1.61453e-008 1.17587e-009 -6.68262e-009 8.1693e-008 -5.35193e-008 -9.96132e-009 8.40744e-008 -8.70973e-008 -2.13618e-008 1.57401e-008 4.75427e-008 9.68372e-008 3.22836e-008 8.86513e-008 8.41367e-008 9.45805e-008 -8.37664e-008 -4.79379e-009 4.59472e-008 1.63233e-008 -3.68573e-008 2.64494e-008 -7.58665e-008 4.21585e-008 3.88256e-008 -4.29827e-008 1.54721e-008 2.62327e-008 -7.70312e-008 5.84467e-008 -7.44409e-008 -2.19706e-008 -8.95133e-008 8.08631e-008 -8.12479e-008 8.22722e-008 -1.50654e-009 2.44032e-008 1.16605e-008 -7.26821e-008 5.42237e-008 -2.1219e-008 -1.19445e-008 -1.69775e-009 -1.18268e-008 -1.89115e-008 7.35402e-008 3.96119e-008 -6.82512e-008 -7.15004e-008 6.09286e-008 9.12585e-008 -7.70922e-008 7.5166e-008 -8.86718e-009 -7.63081e-008 -8.3381e-008 -2.54601e-008 6.77131e-008 1.06649e-008 3.58499e-008 -9.14875e-008 -3.30602e-009 -1.4698e-008 -5.17894e-008 -2.27475e-008 -3.09256e-008 1.73332e-008 1.73479e-008 -3.0914e-008 5.71447e-008 -4.97336e-008 -8.38017e-008 9.53974e-008 1.13782e-008 1.48493e-008 8.33493e-008 -1.8821e-009 8.89061e-008 -6.90628e-008 7.89354e-008 3.04532e-008 7.59102e-008 2.13557e-008 5.21852e-008 -6.24338e-008 -3.18279e-008 3.24942e-008 4.73346e-008 4.17102e-008 2.61085e-008 2.67756e-008 2.87505e-008 2.00473e-008 -4.60128e-008 -2.92827e-008 8.74223e-008 -3.10785e-010 1.81221e-008 -9.72858e-009 -4.81032e-008 1.81508e-008 7.21277e-008 -3.01878e-008 7.42746e-008 -1.7368e-008 -8.18089e-008 -6.9252e-008 2.16569e-009 -7.28582e-008 4.5517e-008 -1.83751e-008 6.69175e-008 -2.19104e-008 -8.00261e-008 2.13563e-008 7.69301e-008 -9.64922e-008 6.4135e-008 1.14008e-008 2.64512e-008 -2.30654e-008 3.32332e-008 -6.06152e-008 4.72777e-008 -5.70622e-008 -2.82014e-008 -4.5178e-008 9.57689e-008 -4.06868e-009 -5.89988e-008 -1.88796e-008 -2.19545e-009 8.82148e-008 3.12491e-008 -2.95875e-008 -8.17722e-008 -1.09759e-008 -3.39986e-008 -8.75216e-008 5.77386e-008 -7.66354e-008 -3.24225e-008 -3.0315e-008 -6.98326e-010 -7.47016e-008 -4.62239e-009 2.2802e-008 -3.82206e-008 -2.79047e-008 5.57096e-008 1.33178e-008 -8.20563e-008 2.94121e-008 -1.13384e-008 4.53408e-009 -6.58871e-009 7.8876e-008 -7.93607e-008 -2.38103e-008 -8.98986e-008 -4.78146e-008 -1.86795e-008 7.45647e-008 -7.27183e-008 4.41456e-008 -3.1124e-008 9.51169e-008 -7.02404e-008 5.88164e-009 4.75235e-008 5.71797e-008 -5.6223e-008 -8.96231e-008 7.29371e-008 1.17128e-008 6.9027e-008 -6.97318e-008 2.34411e-008 -3.2509e-008 5.8854e-008 -5.47597e-009 7.75783e-008 2.44989e-008 9.26265e-008 3.15218e-008 -9.06544e-008 -8.88821e-008 -5.08665e-008 3.49364e-008 6.72817e-008 6.6117e-008 5.46477e-008 -2.74218e-008 7.22459e-008 -8.381e-008 -1.24833e-008 -4.54701e-008 5.69392e-008 -8.09233e-008 -6.97039e-008 3.45357e-008 7.10327e-009 5.8695e-008 -1.04195e-008 9.60368e-008 -5.38696e-008 5.20142e-008 3.69699e-008 8.83242e-008 8.95971e-009 5.38183e-008 2.69538e-008 -3.43423e-009 -5.07765e-008 7.14031e-008 3.17263e-008 -8.14205e-008 1.48679e-009 -5.71291e-008 4.16758e-009 -4.26581e-008 2.6212e-008 4.67429e-009 -1.24278e-008 -2.11825e-008 3.33398e-008 2.07128e-008 9.26661e-008 8.63986e-008 -9.54008e-008 6.15789e-009 -8.23688e-008 -1.39203e-008 2.8401e-008 5.88616e-008 7.54117e-008 -4.14087e-008 4.30692e-008 -7.80948e-008 -3.40097e-008 2.7896e-008 2.02918e-008 -2.44976e-008 8.39142e-010 1.09856e-008 -9.94335e-009 4.02885e-008 5.27102e-008 9.43153e-008 3.85316e-008 6.9748e-008 2.40259e-008 7.89733e-008 2.13698e-008 4.35797e-008 7.44431e-008 1.37823e-008 -7.52182e-008 7.67595e-008 6.35867e-008 8.11704e-008 3.85393e-008 -6.5514e-008 -1.84675e-008 -9.58159e-009 -8.58099e-008 -6.48863e-008 2.53199e-008 3.19044e-008 -6.87483e-008 -6.33126e-008 1.35569e-008 3.16443e-008 4.2521e-008 -1.40111e-008 1.37385e-009 -2.51882e-008 -5.04181e-008 6.43492e-008 -3.87059e-008 8.69297e-009 7.67449e-008 -8.09035e-008 -2.47871e-008 -5.70249e-008 -8.15285e-008 4.41031e-008 -2.94683e-008 -3.7416e-008 2.38923e-008 -9.49186e-008 -7.6891e-008 4.052e-009 2.26995e-008 7.1897e-008 9.47159e-008 9.2201e-008 -1.55627e-008 -6.80623e-008 8.94657e-008 9.04485e-008 6.34509e-008 -7.12738e-008 -9.19484e-008 9.6191e-008 5.74686e-008 2.46552e-008 5.07211e-009 3.54934e-008 7.65724e-008 7.2326e-008 6.26187e-008 -1.97606e-008 1.89464e-008 -7.03415e-009 -8.56574e-008 -9.56661e-008 5.31576e-008 -4.60084e-008 4.96234e-008 3.61287e-008 3.49043e-008 -2.45448e-008 2.21516e-008 -4.29973e-008 -3.29824e-008 -5.21348e-008 2.05995e-008 2.22344e-008 -3.60226e-008 8.30744e-008 3.06635e-008 5.05581e-008 -5.56699e-008 1.01821e-008 7.091e-008 6.53832e-008 6.54492e-008 6.5018e-008 -6.85163e-008 3.43572e-008 -2.7021e-008 -3.05788e-009 4.95444e-008 1.54595e-008 -6.37741e-008 -7.63176e-008 1.98057e-008 -4.16321e-008 -2.65788e-008 -2.28746e-008 -2.80424e-008 -3.72924e-008 2.81884e-008 -8.4878e-008 1.69048e-008 -5.89919e-008 -7.59084e-008 -3.03722e-009 2.51565e-008 -7.4363e-008 3.25389e-008 8.29859e-011 -2.74145e-008 -7.70239e-008 -6.049e-008 6.98945e-008 -5.19056e-008 -5.86712e-008 -7.90476e-008 8.74964e-008 3.50103e-008 9.33884e-008 3.42298e-008 7.21681e-008 9.48091e-008 -5.0608e-008 -5.96641e-008 -6.31464e-008 -4.29971e-008 -4.38582e-008 1.4489e-009 9.47258e-008 7.47034e-008 4.49425e-008 -2.6146e-008 2.91299e-008 7.78805e-008 3.74784e-008 -3.27654e-008 -6.17542e-008 -6.18645e-008 6.30227e-008 6.24638e-008 -8.7413e-008 -4.40813e-008 -9.33869e-008 9.68867e-008 -3.36986e-008 9.03927e-008 -3.59384e-008 1.55605e-008 4.62191e-008 -6.98662e-008 8.37275e-008 -3.13666e-008 -9.54206e-008 7.93781e-008 5.68104e-008 -1.88656e-008 2.76312e-009 -9.20446e-008 -2.02196e-008 3.55609e-008 8.74363e-008 2.16932e-008 -1.92797e-008 -1.02099e-008 -6.22531e-008 -8.43069e-008 5.23691e-009 -6.46652e-008 7.11256e-008 1.70911e-008 -2.72229e-008 4.4204e-008 1.07622e-008 8.04025e-008 1.86328e-009 9.35928e-008 -2.6078e-008 8.50171e-008 6.96575e-008 -5.25911e-008 -6.79895e-008 -9.20421e-008 -5.369e-009 6.05494e-008 6.17314e-008 4.46677e-008 -9.73091e-008 1.79463e-008 -1.799e-008 -4.36407e-008 1.70114e-008 -2.26977e-008 -7.05909e-008 -6.82004e-008 9.32823e-008 -7.44855e-008 9.59404e-008 6.90159e-008 -3.2449e-008 1.31782e-008 7.17486e-008 1.37004e-009 -8.99872e-008 -4.22195e-008 -4.2001e-008 -4.88947e-008 -7.30328e-008 -5.84931e-008 -1.09634e-008 6.281e-008 2.3498e-008 7.4355e-008 5.47028e-008 -9.38966e-008 -4.30277e-008 8.80294e-008 -1.59371e-008 8.37831e-008 -8.47294e-009 -7.51226e-008 -7.10415e-008 1.57203e-008 3.70589e-009 7.60423e-008 1.36822e-008 -3.91953e-008 1.08132e-008 1.84584e-008 3.87517e-008 2.04407e-008 1.86729e-008 2.64584e-008 -2.50773e-008 -7.95635e-008 -7.9329e-008 1.80909e-008 -5.14509e-011 -3.66854e-008 9.21502e-008 -9.34955e-008 -1.97609e-008 -4.39399e-008 8.50871e-008 -6.82844e-008 -9.29407e-008 -8.80287e-008 -6.0695e-008 8.96669e-008 -2.44693e-008 -5.44058e-008 3.63281e-008 -5.24509e-008 -2.69126e-008 -8.7987e-008 -6.69306e-008 -5.83106e-008 -7.13928e-009 7.65024e-008 -7.71536e-008 -1.36104e-008 1.84219e-008 -5.3867e-008 9.29836e-008 -6.05103e-008 -3.46453e-008 -6.89014e-009 -1.33472e-008 5.11375e-008 -6.2714e-009 -2.31273e-008 5.62481e-008 -6.47457e-008 -7.64022e-008 4.9268e-008 6.86727e-008 -8.51705e-008 -6.30631e-008 4.41397e-008 8.05077e-008 1.36146e-008 -3.82308e-008 5.88456e-008 5.24226e-008 -8.21082e-008 8.97504e-008 4.54469e-008 -5.70499e-008 7.23553e-008 6.1129e-008 -5.84639e-008 -3.92528e-008 8.18263e-008 3.11741e-008 1.29909e-008 6.09561e-008 5.32705e-008 -7.08795e-008 -2.68829e-008 -5.29786e-008 6.46695e-008 -2.77967e-008 3.8834e-009 -5.40142e-008 -6.20829e-008 3.56405e-008 5.25917e-008 8.1157e-008 -8.62864e-009 3.68023e-008 6.13549e-008 6.09338e-008 3.64398e-008 9.48325e-008 -9.04828e-008 -2.81695e-008 -9.00308e-008 5.97568e-009 -6.80168e-008 -7.19005e-008 5.00826e-008 -5.25165e-008 9.04029e-008 4.8719e-008 -2.46017e-008 3.47942e-008 -4.17896e-008 7.48899e-008 -3.04317e-008 2.67849e-008 1.08694e-008 -8.40573e-008 1.93403e-008 6.00515e-008 3.76116e-008 9.64645e-008 1.10997e-009 -6.24043e-008 2.34375e-008 3.17167e-008 4.86634e-008 1.63221e-008 7.09817e-008 -1.03529e-008 -8.08693e-008 -2.24944e-008 3.90453e-008 -8.8898e-010 1.64956e-008 -3.49144e-008 8.97825e-008 -4.62329e-008 -7.33962e-008 -3.0475e-008 -2.26367e-010 -3.70652e-008 2.90207e-008 2.70254e-009 -5.83212e-008 -4.76782e-008 4.27198e-008 7.28515e-008 5.20587e-008 4.20438e-008 -4.05483e-008 7.76726e-008 3.98347e-008 -4.37314e-008 -5.03096e-008 4.09236e-008 -2.66847e-008 2.89805e-008 3.20945e-008 -9.68557e-009 -5.12297e-008 -7.9967e-008 8.9024e-008 -1.64312e-008 -4.65443e-008 1.64966e-008 9.2548e-008 6.919e-008 -7.5026e-008 4.8981e-008 -8.2522e-009 -3.33711e-008 -5.29071e-008 3.56699e-008 -2.88485e-008 5.02338e-008 2.42516e-008 -7.2305e-008 2.76914e-008 -7.04398e-008 -8.94919e-008 -6.75279e-008 3.61126e-008 7.10739e-008 8.11038e-008 -6.66531e-008 -1.32918e-008 7.58627e-009 -6.9094e-008 5.06838e-008 7.71736e-008 9.14852e-008 6.44039e-008 7.94131e-008 -8.46202e-009 -9.06825e-008 -7.5005e-008 -4.02106e-008 2.98754e-008 8.98803e-008 -7.50044e-008 -2.11252e-008 -6.1388e-008 -4.8741e-008 3.33999e-008 -2.59467e-008 7.44056e-008 5.76713e-009 -4.47488e-008 -2.67368e-010 -7.20023e-009 -6.72144e-009 5.06204e-008 9.41689e-008 -4.73761e-008 -7.99222e-008 7.06667e-008 7.99302e-008 -7.79335e-008 -3.41556e-009 -4.77629e-008 5.13428e-008 -7.05963e-008 -1.4043e-008 -3.3522e-008 8.38592e-008 -6.40053e-009 -1.73766e-008 -7.63874e-008 -5.70159e-009 7.1013e-008 5.45376e-008 -3.27342e-008 -2.77711e-008 -4.7476e-008 6.41653e-008 -6.5132e-008 8.35896e-008 8.24831e-008 3.25037e-008 9.59972e-008 6.77693e-008 7.94872e-009 3.14523e-008 -8.95078e-008 -6.25197e-008 -7.24473e-008 -4.24973e-008 -3.87836e-009 3.28372e-008 4.09596e-008 -3.80227e-008 -5.43984e-008 -8.54347e-008 -5.85841e-008 2.6407e-008 8.52414e-008 -4.20479e-008 -6.04364e-008 -1.24151e-008 6.44453e-008 3.37006e-008 7.48661e-009 8.53693e-008 -7.62375e-008 5.96268e-008 5.39658e-009 1.09057e-008 2.82922e-008 8.56127e-008 -6.21745e-008 -4.90483e-008 -3.04506e-009 -8.66613e-008 9.6968e-008 -3.41133e-008 -7.80745e-008 8.72748e-008 -8.89427e-008 -1.97021e-008 1.60933e-008 3.59678e-008 -4.83592e-008 -5.76073e-008 1.13041e-009 -2.32979e-008 2.46702e-009 -5.00215e-008 -7.59489e-008 -9.70757e-008 2.23198e-008 2.22807e-008 7.45503e-008 -1.46275e-008 9.22909e-008 -3.44165e-008 -1.72463e-008 3.2486e-008 -4.82722e-008 -5.62003e-008 -7.6592e-009 1.61296e-008 -6.6313e-008 -8.80432e-009 3.34678e-008 6.37055e-008 -4.75975e-008 -6.00867e-009 6.5831e-008 -6.2597e-008 2.71673e-008 9.71474e-008 9.6332e-009 3.93177e-008 -1.0061e-008 6.88708e-008 4.42942e-008 3.57626e-008 -3.23341e-008 3.24601e-008 3.88344e-008 -2.85249e-008 1.63322e-008 -6.05417e-008 -8.71236e-008 -3.27243e-008 -9.56552e-008 4.4458e-008 -5.09743e-008 3.66967e-008 -4.6334e-008 -3.25747e-008 -6.82907e-009 -7.38086e-008 -2.97257e-008 -4.32929e-010 4.16866e-008 1.40794e-008 4.32353e-009 2.86521e-008 7.67844e-008 -8.74575e-008 8.26525e-008 9.33798e-009 -5.95858e-008 5.95294e-008 -7.1915e-008 5.54233e-008 5.01247e-008 9.32013e-009 9.63815e-008 2.06738e-008 7.29345e-008 6.69158e-008 -4.07542e-008 7.89551e-008 7.01158e-008 -4.13516e-008 5.01431e-008 -6.22628e-008 8.00822e-008 -8.7727e-008 -4.17535e-008 5.18201e-008 1.27698e-008 -3.24553e-008 6.70453e-008 -9.15192e-008 5.29556e-009 5.19801e-008 7.55863e-009 -8.73419e-009 8.26664e-008 -5.47892e-008 -3.85668e-008 -2.27667e-009 -6.9296e-009 -3.98992e-008 7.83796e-008 -6.99806e-008 -3.13706e-008 4.5015e-008 -7.07415e-008 5.96514e-008 4.2119e-008 7.51732e-008 -1.22672e-009 7.24365e-008 -6.02476e-008 -1.45316e-008 -3.58396e-008 -9.23902e-008 8.67039e-009 -9.49294e-008 2.36731e-008 -4.87536e-008 -3.28531e-008 8.74226e-008 -7.93996e-008 -9.08272e-008 4.10772e-008 -3.55818e-008 -6.46696e-008 -6.13554e-008 -3.0783e-008 3.71354e-008 1.24845e-008 1.50402e-008 -6.8941e-008 1.46439e-008 -7.05699e-008 -8.10816e-008 -8.83985e-008 -2.89563e-008 -5.71505e-008 -6.01092e-009 -2.45112e-008 -2.39558e-008 5.05552e-008 2.53641e-008 -7.95129e-009 4.56867e-008 -5.28459e-008 -6.08777e-008 -2.9554e-008 -3.29447e-008 -6.01348e-008 7.01494e-008 3.7544e-008 -3.94292e-008 -7.94432e-008 -9.47355e-009 -9.71431e-008 1.50495e-008 -3.72081e-008 2.70497e-008 5.63121e-008 5.13915e-008 -4.55929e-008 2.59875e-010 -9.53267e-008 -4.79007e-008 -9.29455e-008 8.34875e-008 3.6675e-008 -6.61081e-008 8.67995e-008 -3.06389e-008 6.11139e-008 1.99024e-008 -6.38626e-008 -3.60918e-008 3.8397e-008 3.41835e-009 -1.23548e-008 -7.46603e-008 7.38011e-008 7.77669e-008 1.07194e-008 3.02015e-008 -7.17701e-008 -4.5971e-008 6.96342e-008 -3.68522e-008 2.90544e-008 5.44263e-008 -1.43528e-008 -2.85141e-008 7.43832e-008 4.48246e-008 -2.50453e-008 -8.70757e-008 8.62785e-008 6.43343e-008 9.55149e-008 -5.6032e-008 -5.3528e-008 -1.8906e-008 -2.01651e-008 -9.49376e-008 -8.12436e-008 -4.416e-008 -8.64638e-008 5.31732e-009 7.41269e-008 5.67045e-008 1.16909e-008 7.00857e-008 -9.61842e-008 5.91196e-009 -8.97793e-008 -2.44426e-009 5.52923e-008 -3.05435e-009 -1.12491e-008 3.92459e-008 5.02138e-008 -9.68017e-008 -3.92087e-008 -9.13676e-008 8.28691e-008 -3.19002e-008 5.3179e-008 9.54209e-010 1.26409e-008 8.82748e-009 3.01422e-008 -1.30975e-009 9.33899e-008 -4.72054e-008 2.57087e-008 -3.22225e-008 5.85643e-008 -9.30424e-008 4.23298e-008 8.54429e-008 4.76674e-008 -6.207e-008 -3.90176e-008 4.95015e-008 -5.88686e-008 -8.4759e-008 -2.47008e-008 -5.82057e-008 8.12759e-008 -2.23274e-008 6.25166e-008 2.7198e-008 -6.24884e-008 7.54996e-008 -3.77285e-008 -6.61463e-008 8.72053e-008 5.78848e-008 1.24824e-009 9.61658e-008 5.66045e-008 6.54829e-009 9.29957e-008 2.66945e-008 6.90709e-008 7.53319e-008 5.91615e-008 -1.29355e-011 8.08423e-008 6.2102e-008 -6.68465e-008 -9.36051e-008 1.45928e-009 -3.97042e-008 -9.02022e-008 7.14146e-008 5.10867e-008 1.76893e-008 5.59153e-008 -7.60777e-008 -1.40007e-008 9.13777e-008 -9.10143e-008 7.44055e-008 -8.05051e-008 8.00503e-008 9.51308e-008 -4.41142e-008 -2.76137e-008 -3.92303e-008 -6.87431e-008 -3.91581e-008 9.59879e-008 4.58208e-008 7.88344e-008 -4.55413e-008 -4.41215e-008 1.20676e-008 -5.40291e-008 9.47356e-008 -2.54791e-008 -7.61232e-008 5.37741e-008 3.53999e-008 -9.55462e-008 -7.47967e-008 -4.90482e-008 6.7079e-009 2.21387e-008 -8.73528e-008 -3.30596e-008 5.37846e-008 8.18644e-008 7.52172e-008 6.27964e-008 1.19055e-008 2.64429e-008 -6.43151e-008 6.74858e-008 6.42947e-008 -4.83756e-008 -5.33957e-008 -8.08558e-008 3.06477e-008 4.60115e-008 -3.9885e-008 -4.78677e-008 7.78597e-008 9.19968e-008 -2.36852e-008 -7.75217e-008 6.35447e-008 -9.38799e-008 -3.57715e-008 -2.09442e-008 6.54564e-009 -7.88759e-008 1.29462e-008 -2.96329e-008 -8.96993e-008 -3.53421e-008 7.08547e-008 1.44252e-008 7.70907e-008 8.28062e-008 7.03701e-008 7.36405e-008 -7.21876e-008 6.96136e-008 -4.52368e-008 5.00318e-008 -3.62669e-008 -2.05471e-008 4.8591e-008 4.26087e-008 -2.41119e-008 9.35414e-008 -5.15933e-008 6.44669e-008 6.43793e-008 4.25638e-008 4.38663e-008 7.20578e-010 1.76578e-008 9.15711e-008 1.09159e-008 -1.19376e-008 9.60852e-008 4.16653e-008 -3.81091e-008 -1.0332e-009 -8.90115e-008 -6.98622e-008 1.88502e-008 5.50473e-008 -2.79785e-009 1.34655e-008 2.28795e-008 3.41492e-008 -7.93268e-008 2.57861e-008 -3.90157e-008 -5.06691e-008 9.473e-008 -5.70854e-008 3.46956e-008 7.3802e-008 4.2821e-008 -9.81978e-010 -1.08515e-008 1.48131e-008 8.66941e-008 1.7985e-008 -5.82124e-008 3.83059e-009 1.04625e-008 9.63933e-008 -8.27414e-008 -5.77087e-008 -7.57732e-008 7.63044e-008 -4.58754e-008 5.71931e-008 2.16458e-008 7.98891e-009 -3.94473e-008 -8.21744e-008 -6.79978e-008 -2.40091e-008 2.73626e-008 6.27058e-008 -1.28621e-009 -9.15715e-008 -5.93903e-008 6.11333e-008 9.67679e-008 5.63659e-008 -6.54735e-008 -3.72638e-008 -1.67446e-008 -3.06587e-008 -8.3079e-008 5.98799e-008 4.36036e-008 1.44462e-008 -7.73773e-008 4.38415e-008 7.90872e-008 1.63556e-008 1.51788e-008 -3.06193e-008 5.30901e-009 4.08921e-008 -3.64225e-008 8.68041e-008 -6.46621e-008 -7.08692e-008 1.59211e-008 -4.08491e-010 -6.0251e-008 5.32856e-008 -4.14753e-008 2.7264e-008 -5.67729e-008 -2.76631e-010 -2.94689e-008 -6.99763e-010 8.76671e-008 8.54604e-008 6.05506e-008 -9.27256e-008 -9.6821e-008 5.78581e-008 -3.64902e-008 -6.35932e-008 3.12548e-008 -7.43969e-008 8.09421e-008 -6.00477e-008 -6.46775e-008 -5.78866e-008 -5.13692e-008 -1.75256e-008 -3.25742e-008 -6.0041e-008 2.84565e-008 -7.5349e-008 -6.98016e-008 1.71352e-008 6.06561e-008 -5.86023e-008 -4.19182e-008 7.58764e-009 2.19086e-008 8.6759e-008 8.65002e-009 -2.86464e-008 5.68384e-008 1.04412e-009 6.02398e-008 4.30133e-008 -1.2393e-008 -5.97564e-008 5.92237e-008 -5.49545e-008 -6.55505e-008 9.45249e-008 -6.98068e-008 -4.60855e-008 9.53606e-008 1.08318e-008 -8.72899e-008 -9.52031e-008 -3.72494e-008 8.15633e-008 6.93895e-008 4.2948e-008 7.69166e-008 -8.43805e-008 -3.95186e-008 -6.34184e-008 7.03097e-008 -9.23755e-008 3.5094e-008 -8.337e-008 -7.95101e-008 -4.42791e-008 -6.53055e-008 -1.02644e-008 -7.16606e-008 2.80414e-009 6.11257e-008 1.43879e-008 4.30568e-008 2.39998e-008 1.02265e-008 3.8505e-008 -2.31326e-008 -1.01537e-008 9.62879e-008 7.88777e-008 3.04965e-008 -6.47527e-008 -5.37221e-008 2.51394e-008 2.99489e-008 7.3027e-008 5.04549e-008 7.17173e-008 3.90184e-008 3.76888e-008 8.58714e-008 3.38475e-008 -6.29004e-008 -7.17454e-008 9.20872e-008 -7.69709e-008 1.32374e-009 -1.39881e-008 -8.66e-008 -2.08773e-008 -6.7302e-008 1.66675e-008 3.41376e-008 -4.38276e-008 -7.10038e-008 -5.25745e-008 1.52319e-008 -5.67688e-008 9.43668e-008 -8.40362e-008 7.85059e-008 -6.22791e-008 -5.51352e-008 -8.27273e-008 8.96872e-008 4.39377e-008 -9.64986e-009 -4.07058e-009 7.07277e-008 9.12566e-008 3.5193e-008 3.69742e-008 3.45024e-008 -4.82055e-008 8.10466e-010 -6.5423e-008 3.77935e-008 -6.65015e-008 -1.10438e-008 7.36672e-008 2.74179e-008 -2.73272e-008 -3.38045e-008 3.0983e-008 7.81823e-008 6.45001e-008 7.80344e-008 4.17969e-008 -6.40059e-008 4.38824e-008 -2.03235e-008 -6.90314e-008 4.27585e-008 -6.90303e-008 -4.72081e-008 8.02887e-009 -6.54132e-008 1.17618e-008 -3.96904e-008 -2.41779e-008 -4.59324e-008 -4.536e-008 1.82936e-008 3.13417e-008 4.04985e-008 2.91137e-008 4.36845e-008 8.43662e-008 1.49573e-009 6.30974e-008 5.71823e-008 1.80255e-008 -5.12823e-008 5.8671e-008 5.2073e-008 -4.62979e-008 6.9979e-008 6.29979e-008 -7.51861e-008 7.33831e-008 5.47675e-008 6.03595e-008 -1.99723e-008 6.7642e-008 -4.39164e-008 -6.31563e-008 8.16819e-008 -6.65127e-008 4.50604e-008 6.1252e-008 5.14354e-009 -7.38189e-008 -3.03992e-008 -7.69995e-008 5.57686e-008 3.37634e-009 6.15128e-009 -3.62731e-008 4.37452e-008 -1.11392e-008 -9.62758e-009 5.17574e-008 8.41176e-008 -7.34013e-008 -3.89158e-008 -1.08437e-009 3.95494e-008 -3.98102e-008 5.63462e-008 1.13613e-008 -5.01129e-008 7.97135e-008 7.55423e-009 2.93377e-008 7.55728e-008 -8.02519e-008 -6.46728e-008 1.42785e-008 -7.76235e-008 4.51285e-008 -3.35167e-008 -6.96102e-009 -4.55893e-008 9.30537e-008 7.94051e-008 -9.61167e-009 -5.83576e-009 -2.20765e-008 -2.57964e-008 -4.03689e-008 8.91763e-008 7.30335e-008 -7.68943e-008 -7.87021e-008 2.85362e-008 7.74495e-008 6.04895e-008 8.36905e-008 -6.21348e-008 -9.60713e-008 -3.76999e-008 9.0903e-008 -5.32722e-009 2.57018e-008 -6.74494e-009 -3.75468e-008 7.58261e-010 -5.60646e-008 -6.06318e-008 -4.4096e-008 -3.68945e-008 -5.66447e-008 -6.71043e-008 5.2512e-008 -6.71569e-009 -2.94568e-009 -9.44028e-008 2.51568e-008 -7.97074e-008 -9.53261e-008 -4.84699e-008 -9.69026e-008 8.77754e-008 -2.65283e-009 7.70425e-008 3.1595e-009 8.35082e-008 7.67886e-008 -5.00462e-008 -2.45797e-008 1.59283e-008 2.51273e-008 6.52663e-008 -2.46818e-008 1.21515e-008 7.53108e-008 -8.79701e-008 6.14378e-008 8.33407e-008 -5.45299e-008 7.07349e-008 8.32537e-008 6.86575e-008 -1.39684e-008 -4.66833e-008 -9.45594e-008 -4.54999e-010 -3.25163e-008 3.43298e-008 -8.82146e-009 4.15001e-008 8.65439e-008 4.52201e-008 2.73815e-008 -8.67901e-008 2.65613e-008 -4.06305e-008 -6.66262e-008 2.26396e-008 -9.557e-008 -2.63126e-008 9.78746e-009 -2.45127e-008 -9.0269e-008 -8.3335e-008 9.45258e-008 1.58072e-009 7.6951e-008 8.30268e-009 8.79968e-008 -8.75398e-008 5.47945e-008 -6.30151e-008 4.8301e-009 6.08359e-008 1.8369e-008 -1.16848e-008 -6.30566e-008 4.71102e-008 7.71456e-008 -4.43746e-008 -3.85075e-008 -2.16458e-008 -8.09754e-008 6.73367e-008 -1.72872e-008 7.16333e-008 6.09926e-008 -1.7465e-008 8.89161e-008 7.07612e-009 -6.24553e-008 2.79345e-009 -6.40946e-008 5.66134e-008 -1.42913e-008 2.37044e-009 -3.56081e-008 6.5408e-008 -3.05175e-008 -1.68002e-008 9.40791e-008 -8.59908e-008 5.66472e-008 -6.54782e-008 -8.39009e-009 -9.28505e-008 8.04704e-009 -5.17628e-008 9.3295e-008 9.73878e-008 -1.66928e-009 -1.90552e-008 -1.71369e-009 5.55592e-008 3.33688e-008 5.30646e-008 -5.88052e-008 5.63896e-008 -2.59068e-009 6.10018e-008 9.17371e-008 -1.02276e-008 -3.58802e-008 -9.85693e-010 -6.53077e-008 -3.5265e-008 -5.31822e-008 -6.13972e-009 2.96274e-009 -1.13802e-008 -8.0281e-008 4.99396e-008 -3.20285e-008 1.41294e-008 -2.79615e-008 -4.25298e-008 2.34323e-008 3.92813e-008 4.84244e-008 8.44488e-008 -4.46153e-008 -5.97862e-008 -5.80628e-008 5.7045e-008 -7.62415e-008 6.97275e-008 -8.79114e-008 -1.41845e-008 3.48093e-008 -3.24588e-008 4.21319e-008 7.05128e-008 -9.13584e-008 -2.21297e-008 7.66197e-008 3.10459e-008 2.8536e-008 -9.26206e-008 4.02834e-008 7.88224e-008 4.00286e-008 9.31813e-008 5.2049e-008 9.05507e-008 -9.11041e-008 -9.02611e-008 -5.65525e-008 -7.77571e-008 -6.34122e-008 -9.4364e-008 -6.02048e-008 -2.01695e-008 -7.11585e-008 -5.81439e-008 3.69851e-008 4.60753e-008 -6.40818e-008 9.09992e-008 -2.54849e-008 -1.35631e-008 -5.68976e-008 -6.91675e-009 -3.89327e-008 6.24861e-008 2.8631e-008 -6.37083e-008 1.72603e-008 6.88053e-010 1.5894e-008 -3.00894e-008 -5.75516e-008 -4.17922e-008 -7.27392e-008 6.97874e-008 6.34272e-009 7.7504e-008 7.27848e-008 7.75106e-008 -2.18908e-008 8.39893e-008 -5.15175e-008 -3.53505e-008 -1.49002e-008 -8.17003e-008 3.6599e-008 -6.70348e-008 -4.00311e-008 -2.2948e-008 6.71355e-008 -2.63181e-008 -7.70017e-008 -9.28414e-009 -8.10047e-008 -3.10934e-009 -6.84082e-008 -7.73405e-008 -7.51005e-008 2.85183e-008 -4.69794e-008 3.61155e-008 7.70141e-008 1.92589e-008 -8.42285e-008 -8.28332e-010 2.95521e-008 1.53836e-008 9.32836e-008 -9.58148e-008 -4.9896e-008 2.63298e-008 -5.61292e-009 1.51814e-008 -8.93373e-008 3.65347e-008 -5.38314e-008 2.49553e-008 -7.54369e-008 9.67154e-008 -2.98156e-008 3.09208e-008 -1.40398e-008 2.29753e-008 1.03457e-008 5.79149e-010 -4.1772e-008 -7.60513e-008 -8.37259e-008 1.98641e-008 -8.08513e-008 9.6582e-008 9.99442e-009 -4.32112e-008 -8.81664e-008 9.43789e-009 9.30728e-008 -3.53039e-008 -6.86033e-008 -5.61056e-008 3.33635e-008 9.70805e-008 1.9514e-008 2.55083e-008 1.85498e-009 3.66288e-008 3.02591e-008 -9.32678e-008 -8.84373e-008 -5.72582e-008 7.05012e-008 7.52796e-008 6.25902e-008 9.0469e-008 -1.24511e-008 1.36874e-008 -1.54462e-008 5.49774e-008 8.9227e-008 -2.61158e-008 7.05062e-008 -3.88164e-008 -4.27164e-008 -5.83606e-008 -6.88205e-008 -5.2955e-008 -3.63666e-008 9.4589e-008 -3.66596e-008 -5.85246e-008 -7.67214e-008 -2.06175e-008 7.94829e-008 8.36018e-008 4.36658e-008 -5.24946e-009 -4.64438e-008 5.6328e-008 -7.52152e-008 -9.32619e-008 -1.35482e-008 -7.8323e-008 5.58509e-008 -3.06152e-008 -1.20972e-008 2.96405e-008 -7.64716e-008 -9.8469e-009 2.83112e-008 7.35239e-008 1.93343e-008 4.87249e-008 -5.10831e-008 6.90254e-008 8.9635e-008 -7.6476e-008 9.04929e-008 5.70013e-008 -4.70353e-009 -6.79205e-008 -9.38772e-008 1.78812e-008 -4.29875e-008 -8.84845e-009 8.93454e-008 5.18448e-008 2.38034e-008 -6.1068e-008 -8.42309e-008 1.19357e-008 9.66555e-008 -3.89908e-008 -7.97774e-008 4.26193e-008 7.97356e-008 3.51984e-008 -3.1263e-008 -7.13356e-008 9.6564e-008 1.05748e-008 -6.11478e-008 -4.0098e-008 3.42782e-009 1.69058e-008 -2.46067e-008 -4.77533e-008 -8.83014e-008 5.42106e-008 3.88759e-008 4.28243e-008 9.37832e-009 3.59858e-008 6.87116e-008 2.39014e-009 6.03269e-008 -3.64066e-008 -1.18294e-008 4.09673e-008 3.07714e-008 6.59715e-009 -3.91851e-008 2.26419e-008 -8.04347e-008 2.74128e-008 -3.82381e-008 -8.24544e-008 2.35463e-008 -5.3362e-008 -7.49863e-008 -7.49339e-008 -3.40659e-008 4.21662e-008 3.95816e-008 -2.71721e-008 -1.48059e-008 -8.15167e-008 7.09454e-008 5.42885e-008 4.04805e-008 8.61999e-008 -3.32121e-008 -8.113e-008 -3.11241e-008 7.24501e-008 4.82145e-008 4.28193e-008 -8.8511e-008 -3.13658e-008 5.52535e-008 9.64518e-009 5.18686e-008 -6.22469e-008 -7.31676e-008 2.48469e-008 7.71507e-010 9.82426e-009 -7.20748e-008 1.78181e-008 -1.58745e-008 1.37417e-008 -4.31814e-009 6.15968e-008 6.68205e-008 7.31809e-008 -3.93812e-009 1.94246e-009 9.22213e-008 5.19207e-008 9.48621e-008 -4.02401e-008 1.75391e-008 -7.73566e-008 7.54245e-008 -2.24003e-008 -7.05092e-008 -2.95418e-008 -2.62299e-008 7.42214e-008 -9.73898e-008 5.61625e-008 -4.82076e-008 7.9439e-008 5.57354e-008 2.54288e-008 -2.28169e-008 8.64634e-008 1.46878e-008 -9.2609e-008 4.06242e-008 -2.64459e-009 6.53343e-008 -5.8988e-008 -7.88362e-008 -2.8183e-009 -5.8129e-008 4.99237e-008 2.89452e-008 2.6388e-008 5.20914e-009 3.57418e-008 5.36681e-008 8.14725e-009 -4.76153e-008 5.21144e-008 -8.81218e-008 -5.31412e-008 9.95761e-009 -5.83185e-008 -3.49219e-008 -9.22887e-008 -7.8576e-008 3.32782e-008 -2.19728e-008 8.51009e-009 4.36623e-008 -4.98939e-009 -9.07467e-008 -8.9788e-008 6.46139e-009 -4.92031e-008 5.323e-009 -3.33332e-008 -8.392e-008 -3.02998e-008 -1.50264e-008 -4.47145e-008 3.47615e-008 9.51743e-008 3.47429e-008 2.19005e-008 8.83815e-008 -8.8894e-008 9.70431e-008 -4.07466e-008 -8.79179e-008 4.01533e-008 -8.33978e-008 -7.51736e-008 -3.88419e-009 4.81235e-008 2.68746e-008 6.66148e-008 5.78905e-008 6.55177e-008 8.86633e-008 -1.1349e-008 9.11857e-008 1.57969e-008 8.37503e-008 -8.48485e-008 7.26038e-008 6.24042e-009 -8.08397e-009 -7.58578e-008 3.00377e-008 -1.51001e-008 1.84435e-008 6.08155e-008 -8.91579e-008 1.76711e-008 1.72686e-008 -2.62258e-008 -2.89128e-008 -9.37363e-008 -7.03689e-008 5.61494e-008 9.188e-008 5.31268e-008 -4.67281e-008 5.0655e-008 3.06823e-008 7.96635e-008 -4.08537e-008 1.19372e-008 -7.38964e-008 3.20629e-008 -1.68985e-008 4.45696e-009 9.40334e-008 3.11569e-008 -8.27656e-008 9.52249e-008 1.61901e-008 8.03303e-008 7.80152e-008 -5.35755e-008 -3.53491e-009 5.11927e-008 9.31293e-009 2.49869e-008 -7.06815e-008 -6.20961e-008 -7.40997e-008 -3.98295e-008 1.05618e-008 -8.00202e-008 -7.41966e-008 9.05627e-008 5.74765e-008 -3.73125e-008 2.59466e-008 3.74518e-008 6.14118e-008 -5.48531e-008 -8.27458e-008 4.05474e-009 7.0512e-008 2.22194e-008 9.15339e-008 -6.76048e-008 -1.74595e-008 -4.65013e-008 -7.34687e-008 -6.02358e-009 5.99195e-008 -7.83189e-008 -1.45506e-008 7.34317e-008 2.00578e-008 -8.74495e-009 -7.3942e-009 2.05061e-008 -5.59722e-008 -1.40856e-008 5.94864e-008 8.4431e-008 2.64438e-008 7.14208e-008 2.10372e-008 -8.60489e-008 7.91388e-008 7.18365e-008 -1.52434e-008 2.98435e-008 -9.2162e-008 4.07603e-008 9.69272e-008 -7.05267e-008 3.81926e-008 -1.13147e-010 3.17801e-008 4.4774e-008 6.17973e-008 -2.85323e-008 -7.43639e-009 5.85057e-008 2.6812e-008 -8.65885e-008 -6.49865e-009 -1.0133e-008 -6.55978e-008 -1.24054e-008 4.447e-008 -3.69468e-008 2.92961e-008 -3.79871e-008 4.82891e-008 -3.57808e-008 -3.3828e-008 -2.84968e-008 8.32804e-008 -2.98768e-008 8.82633e-008 -2.19391e-008 3.028e-008 8.63095e-008 -7.74796e-008 -2.19111e-008 -3.80893e-008 -6.84537e-008 -8.20336e-008 3.19461e-008 8.89964e-008 -9.15024e-009 1.25609e-008 -9.67913e-008 -5.40448e-008 4.79007e-008 -4.10294e-008 -1.53023e-008 -8.61866e-008 -7.60955e-009 -2.82305e-008 1.67088e-008 -1.67254e-008 -2.53887e-008 -3.2028e-010 -9.09087e-008 8.35089e-008 9.29796e-008 -6.70896e-008 5.23497e-008 -2.24302e-008 2.58213e-008 1.08022e-008 -3.8797e-008 8.19204e-009 8.62646e-008 -2.75234e-008 -3.14355e-008 -2.19316e-008 -5.02059e-008 4.12745e-008 -8.02677e-008 -1.94336e-008 3.97538e-008 -5.85537e-008 8.20852e-008 -1.77038e-008 -4.58102e-008 5.72317e-008 5.95529e-008 8.61806e-008 1.79388e-008 9.35996e-008 -9.17368e-008 -7.34889e-008 5.82166e-008 7.72184e-009 5.51102e-008 6.26237e-008 6.22811e-009 6.67808e-008 2.22583e-008 8.41697e-009 9.68741e-008 4.20312e-008 1.98563e-008 4.2417e-008 -8.83094e-008 9.11478e-008 -4.00133e-008 -6.73881e-008 -4.79479e-008 -3.1367e-008 -1.05088e-008 -3.40611e-008 5.87482e-008 8.8376e-008 2.56344e-008 -4.12176e-009 7.78484e-008 5.26052e-008 2.71629e-008 -8.16137e-008 -4.89714e-008 3.10405e-008 9.45695e-008 -5.42543e-009 -1.03633e-008 6.97467e-008 -2.91103e-008 4.63691e-008 4.90937e-008 -1.53643e-008 6.65177e-008 3.5621e-008 -8.18984e-008 -2.219e-008 -7.20313e-008 -9.11691e-008 7.18044e-008 -9.49228e-009 -4.71526e-008 -2.52815e-008 -7.53639e-008 -2.30036e-008 -3.40822e-008 -2.55833e-008 4.89652e-008 3.05285e-009 5.57332e-008 -1.2735e-008 7.86958e-008 -2.97443e-008 -7.94697e-008 8.89365e-008 -5.70087e-009 4.98109e-008 4.02892e-008 4.99143e-008 3.05355e-008 -6.95382e-008 -6.33529e-008 -7.06223e-008 6.78193e-008 9.35819e-008 3.74437e-008 -1.77634e-008 1.57516e-008 -5.41531e-008 -6.45779e-008 6.969e-009 -1.72413e-008 -5.79082e-008 8.15876e-008 6.33188e-008 -4.73841e-009 -8.99529e-008 7.87929e-008 -1.8529e-008 -4.86556e-008 -9.65122e-008 9.42015e-008 3.99971e-008 -4.38643e-008 9.38313e-008 4.38932e-008 -7.30924e-008 -6.95402e-008 -7.1515e-008 -8.92967e-008 -2.5033e-009 -7.15523e-008 6.72454e-008 -7.11041e-008 -8.03522e-008 7.55238e-008 8.59215e-008 3.98702e-008 4.87343e-008 -5.74967e-009 -1.95976e-009 5.50105e-008 -8.31149e-009 2.96042e-009 -3.83696e-008 8.99857e-008 -6.03849e-008 8.13641e-008 4.54891e-008 -6.63825e-008 7.60951e-008 -4.05104e-008 6.80386e-008 6.71086e-008 -8.07915e-008 -9.13743e-008 6.47158e-008 9.6647e-008 -2.93445e-008 1.57212e-008 6.75669e-008 5.60577e-009 -7.14737e-008 -6.00273e-008 -5.65049e-009 4.28208e-008 -2.06403e-008 3.17771e-008 6.31601e-009 6.43763e-008 1.2588e-008 -1.63349e-008 6.76526e-008 3.38211e-008 -9.49294e-008 -1.29019e-008 2.25759e-008 -3.51612e-008 3.29397e-008 -9.59847e-009 3.09416e-010 4.04007e-008 4.45317e-008 -1.21753e-008 9.24618e-008 -5.67975e-008 2.18305e-008 -3.86531e-008 -4.17614e-008 8.65205e-008 -2.993e-008 8.93897e-008 2.45436e-008 -4.10934e-008 9.30342e-008 -9.24704e-008 9.56281e-008 2.32666e-008 6.187e-008 -1.14946e-008 6.20404e-008 -7.54884e-008 -5.22923e-008 -4.73584e-008 6.91037e-009 -5.76709e-008 6.64008e-008 -9.71663e-008 1.77289e-008 3.6609e-008 -9.59674e-008 6.51613e-008 7.2396e-008 3.88989e-008 5.35659e-008 -4.55679e-008 7.11182e-009 7.97945e-008 -7.69185e-008 6.81413e-008 -8.42089e-008 9.27907e-008 -8.69523e-008 8.69653e-008 -7.99849e-008 4.98933e-008 -7.7955e-008 3.8888e-008 2.71312e-008 -5.75053e-008 5.70557e-008 -8.68173e-008 3.85437e-008 -2.03276e-008 6.54946e-008 2.20383e-008 -2.38445e-008 -2.72593e-008 5.92469e-008 -9.21231e-008 -4.8286e-008 1.24081e-008 1.48012e-008 -5.59343e-008 -4.9725e-009 -3.76731e-008 -5.27315e-008 -2.9143e-008 4.92815e-008 -9.30141e-008 -1.35264e-008 2.95125e-008 2.85846e-008 -4.89891e-008 4.81976e-008 9.40069e-008 -2.56218e-009 -2.63274e-008 7.58401e-009 6.85776e-008 4.71937e-008 -4.62381e-008 2.72482e-008 3.20516e-008 4.32109e-008 -1.08551e-008 8.21532e-008 -5.48316e-008 5.00395e-008 4.41032e-008 -9.60489e-008 1.95913e-008 -3.49019e-008 -2.60177e-008 -5.18835e-008 -4.68169e-008 -7.73688e-008 4.7585e-008 7.6198e-008 -3.79679e-008 2.39327e-008 5.68399e-008 -1.03365e-008 -1.81886e-008 -5.78204e-008 2.42048e-009 1.64866e-008 -3.39343e-008 -9.59846e-008 5.7027e-008 3.4185e-008 6.81099e-009 -6.65108e-009 -2.97764e-009 -4.26831e-008 -9.56447e-008 3.42781e-008 -5.85705e-008 5.58198e-008 6.40255e-008 -5.61566e-008 1.24471e-008 9.32592e-008 -7.8234e-008 4.89515e-008 7.95001e-008 -3.2134e-008 4.33317e-008 -4.62942e-008 6.50643e-008 7.03881e-008 -5.5891e-008 -8.42181e-009 8.69505e-008 -4.75437e-008 3.37485e-008 -7.05321e-008 -4.46676e-009 9.17786e-009 -8.65677e-008 -3.90679e-008 -2.25344e-008 -8.93435e-008 -8.97616e-008 -7.73657e-008 -3.09695e-008 5.91159e-008 -7.07089e-009 -8.83459e-008 -4.0938e-008 8.30873e-008 -3.21556e-008 -2.28927e-008 4.48978e-008 -4.38148e-008 7.68145e-008 3.56298e-008 1.96525e-008 2.09299e-008 -6.9721e-008 -3.12628e-008 1.55438e-008 3.44953e-008 6.88018e-008 -3.38842e-008 -7.63591e-008 -8.68915e-008 -6.64471e-008 -2.44579e-008 1.28653e-008 -3.58795e-008 3.91441e-008 8.17344e-008 -1.73073e-008 6.58213e-008 -4.02274e-008 1.2205e-008 7.85989e-008 8.07842e-008 7.50908e-008 4.32615e-009 -8.76803e-008 3.47167e-008 2.39084e-008 -4.37234e-008 -6.06657e-009 -8.59795e-008 8.92748e-008 7.12684e-008 -2.3268e-008 3.2769e-008 6.28676e-008 1.76871e-008 -7.53851e-008 2.7905e-009 -7.1404e-008 3.97826e-008 -1.06257e-010 -4.87357e-008 2.09726e-008 -1.24261e-008 1.50746e-008 -8.60504e-008 -3.6782e-008 8.40297e-008 5.89852e-008 -3.51748e-008 6.2236e-008 5.89713e-008 -8.94745e-008 -1.06081e-008 -9.59216e-008 6.45749e-008 -8.41373e-008 3.34549e-008 -8.757e-008 -5.9453e-008 8.80292e-008 4.18044e-008 -3.3797e-008 9.23559e-008 3.95335e-008 -1.34376e-008 2.27255e-008 -9.34045e-008 5.34353e-008 3.21904e-008 -4.20866e-008 -7.37534e-008 3.60111e-008 -6.91971e-008 9.04617e-008 -2.58438e-008 -3.67183e-008 -9.22602e-008 -8.47989e-008 5.49471e-008 1.79142e-008 3.81058e-008 -8.68936e-008 4.16204e-008 -8.176e-008 -8.20794e-008 -1.82131e-008 3.97722e-008 6.74272e-008 -9.61939e-008 3.41846e-008 5.35505e-008 5.99539e-008 4.8857e-008 -7.04511e-008 -8.77803e-008 -5.74272e-008 -5.87158e-008 -3.58316e-008 -2.14029e-008 -3.19467e-008 8.54114e-008 2.09099e-009 7.66448e-008 7.32033e-008 8.95384e-009 7.23904e-009 -2.51783e-008 -9.67008e-008 -1.9321e-008 -9.6164e-008 6.56142e-008 9.05268e-008 -9.30581e-008 6.70208e-008 3.25368e-008 -6.63184e-008 -1.52331e-008 -7.76443e-008 -8.213e-008 -9.53454e-008 3.54389e-008 -8.49702e-008 -6.14098e-008 1.59521e-008 8.39388e-008 -9.43031e-008 -5.18327e-008 6.81829e-008 -5.5908e-008 -2.47954e-008 6.14678e-008 -4.23091e-008 -1.16209e-008 -9.37268e-009 -9.11832e-008 -1.99651e-008 -3.31416e-008 5.25352e-008 8.8327e-008 -8.76813e-008 -1.64144e-008 6.86848e-008 1.4771e-009 -3.25037e-008 5.11184e-008 1.49638e-008 -2.85638e-009 5.8892e-008 -4.82337e-008 3.53226e-008 7.40991e-008 7.30563e-008 2.27711e-008 5.79441e-008 2.09958e-008 9.40068e-008 -6.00361e-008 -2.92999e-008 -4.31936e-008 -1.86273e-008 1.03624e-009 6.19001e-008 -7.987e-008 -1.84048e-008 -6.14659e-008 4.71241e-008 -6.2645e-008 5.95801e-008 -2.31517e-008 8.99513e-008 8.44722e-008 -3.7729e-009 8.12954e-008 7.95167e-008 9.44627e-008 1.80504e-008 8.25257e-008 8.68416e-009 -5.2111e-008 4.18016e-009 1.82593e-008 -4.44133e-008 8.23552e-008 5.2793e-008 9.83381e-009 -8.33055e-008 -2.42312e-008 -5.3671e-008 -6.60089e-008 -8.11992e-008 -2.64815e-008 7.18855e-008 -5.99086e-008 6.99864e-008 6.9163e-008 -7.35991e-008 -8.79411e-008 7.34146e-008 2.81046e-008 -6.84119e-008 1.14228e-008 -7.29999e-008 3.43044e-008 -6.71437e-008 -7.37551e-008 8.33269e-008 7.07611e-009 -9.50105e-008 8.52978e-008 9.53157e-008 6.8913e-008 1.04611e-008 -9.40887e-008 4.17827e-008 7.19826e-008 -2.83855e-008 -5.20181e-008 8.67839e-008 -5.46087e-008 9.7078e-008 3.75332e-009 5.46125e-008 8.72889e-008 4.91575e-008 -1.04903e-008 -8.07132e-008 5.32337e-008 3.79187e-008 5.04586e-009 -5.13932e-008 -7.45929e-008 2.88142e-008 -1.57121e-008 -5.51339e-008 -3.15375e-009 3.58646e-008 -8.45678e-008 5.00428e-009 6.01915e-008 3.50482e-008 -5.15866e-008 -8.27089e-008 -6.06469e-008 -9.59135e-008 -4.99448e-008 -9.61169e-008 3.37194e-008 6.50455e-008 8.67511e-009 -7.756e-008 -2.60688e-009 7.11304e-008 -4.15532e-009 -3.0716e-008 6.88051e-008 6.6654e-008 6.55376e-008 2.9742e-008 4.57902e-008 -9.44147e-008 -9.41103e-009 -3.74912e-008 -2.89987e-008 3.15542e-008 3.5962e-008 8.41585e-008 2.96753e-009 -5.10082e-008 2.68304e-008 4.6499e-008 -2.29201e-008 5.03931e-008 3.18182e-008 5.15048e-008 4.54501e-008 -1.5225e-008 -9.049e-008 -9.13557e-008 -4.00547e-008 -6.59175e-008 1.98171e-008 3.37655e-008 7.49755e-008 -3.26752e-008 -2.42591e-008 -7.37334e-008 -3.26737e-008 -3.29058e-008 9.44538e-008 8.87751e-008 8.81064e-008 -8.68804e-008 6.1015e-008 -8.72596e-008 1.89282e-008 3.68879e-008 6.65278e-009 -9.81913e-009 -2.83645e-008 9.52323e-010 5.41868e-008 5.90768e-008 -7.35587e-008 2.38618e-008 -2.92751e-008 3.66901e-008 4.98134e-008 -5.14906e-008 9.69691e-009 -2.72285e-008 -6.90214e-008 5.11013e-008 -1.38934e-009 2.97434e-008 3.20896e-008 -5.78177e-008 6.79988e-008 -7.18517e-008 7.13554e-008 9.11049e-008 1.3534e-008 6.67263e-008 1.00465e-009 -7.3772e-008 6.63102e-008 -2.97766e-008 1.81435e-008 4.36276e-008 8.4496e-008 -3.3499e-008 -8.02306e-008 -2.96719e-008 8.36865e-008 -2.33309e-008 -9.45571e-008 -8.42223e-008 6.67653e-008 -6.78245e-008 8.08469e-008 -8.01849e-008 4.31926e-008 -9.10007e-008 -2.16795e-008 -9.15977e-008 -1.24312e-009 8.42888e-008 4.60682e-008 -9.31257e-008 7.70335e-008 1.23724e-008 7.06228e-008 -3.71669e-008 -9.53439e-008 -3.17732e-008 2.09541e-008 -4.7915e-008 7.7564e-008 -4.73482e-008 5.09256e-008 -7.76247e-008 8.68412e-008 -1.92739e-008 -4.85803e-008 -4.62281e-008 7.70346e-008 -9.03958e-008 6.48927e-008 -7.94386e-008 2.99388e-008 9.40113e-008 -2.0373e-008 -4.57999e-008 -1.1909e-008 -1.39521e-008 -8.50787e-008 1.57312e-008 5.40317e-008 5.04427e-008 -6.78669e-008 6.20925e-008 -1.3135e-008 -5.50048e-008 9.1836e-008 9.25157e-009 -8.85295e-009 -3.2595e-008 -1.91189e-008 -9.6492e-008 1.9369e-008 -1.47057e-008 -1.56668e-008 3.80084e-008 4.13246e-009 2.897e-008 1.00055e-008 -4.17725e-008 -2.30244e-008 -8.21005e-008 -6.76602e-008 -4.68745e-009 -3.37579e-008 8.56885e-008 4.74946e-008 -6.03298e-008 3.60305e-008 4.28843e-008 6.13509e-008 8.83627e-008 -2.51064e-008 5.07576e-008 6.36199e-008 -1.15858e-008 7.19672e-009 -5.12237e-008 3.00298e-008 8.98766e-008 -1.81463e-008 -2.10456e-008 -3.38717e-008 4.79728e-008 9.37787e-008 -9.72906e-008 -5.61607e-008 -4.42636e-008 4.08031e-008 -6.50835e-008 7.18869e-009 8.62942e-008 1.97559e-008 -9.00625e-008 7.96095e-008 7.7647e-009 7.67325e-008 3.25422e-008 -5.25305e-008 -5.01717e-008 6.0268e-008 -8.42585e-008 -7.42738e-008 8.93244e-008 -8.46932e-008 1.16513e-008 3.15492e-008 7.70181e-008 -9.70922e-008 -2.25072e-008 -7.30307e-008 5.60114e-008 -2.2944e-008 -4.83223e-008 5.26985e-008 -4.46292e-008 -3.8877e-009 -3.64494e-008 -8.27661e-008 -3.28326e-008 -6.80876e-010 5.22509e-008 5.98673e-008 7.07345e-008 8.0986e-008 -3.9561e-008 -4.71023e-008 6.81745e-008 -9.10368e-008 1.48309e-008 -8.44244e-008 -4.44028e-008 4.23853e-009 5.69154e-008 7.25283e-008 -6.41338e-008 -2.78134e-008 3.74912e-008 9.60197e-008 7.18349e-008 9.11939e-008 7.79272e-008 -7.96525e-008 -7.62894e-008 1.17173e-008 5.22221e-008 1.34289e-008 3.18623e-008 3.07571e-008 -6.25238e-009 3.22238e-008 -8.55487e-008 -6.00699e-008 -9.4745e-008 8.66262e-008 7.44256e-009 -6.9692e-008 -3.47574e-008 3.13784e-008 -5.53539e-008 2.46165e-009 -9.22143e-008 1.39423e-008 7.05659e-008 8.03431e-008 -7.55176e-008 -8.90837e-008 -9.23939e-008 -2.62785e-008 -4.7343e-008 1.54951e-008 -7.23033e-008 9.54942e-008 -3.19234e-008 -3.92272e-008 6.5627e-008 1.9904e-008 3.24558e-008 5.58202e-008 -7.26264e-008 -8.45312e-008 -6.63825e-008 6.27879e-009 8.50372e-009 3.54914e-008 5.07507e-008 8.11244e-008 8.48035e-008 -3.9037e-008 -4.64363e-008 -8.74158e-008 -9.04966e-008 2.52352e-008 -1.45661e-008 7.12929e-008 -6.58039e-008 6.2531e-008 -7.00292e-009 3.16194e-008 -6.88662e-008 -6.13958e-008 -3.1152e-008 8.86788e-008 1.76813e-008 1.04045e-008 5.89622e-009 -1.83682e-008 -9.55616e-008 4.42008e-008 -7.59512e-008 -4.08482e-008 -8.09552e-008 7.79471e-008 -3.11003e-009 7.29034e-009 8.23447e-008 6.05527e-008 7.00936e-008 -7.07759e-008 2.49537e-008 9.49482e-008 -5.07394e-008 7.40457e-008 -8.94575e-008 9.47375e-009 -6.65067e-008 3.43896e-008 4.27518e-008 -4.4653e-008 -3.01825e-009 -1.60986e-010 -1.31632e-008 9.51448e-008 -4.55437e-008 -6.95046e-008 -7.42934e-008 8.69535e-008 5.53722e-008 2.81502e-008 -3.45616e-008 -5.57684e-008 9.17228e-008 -1.73962e-008 -7.2455e-008 -1.08577e-008 8.44058e-008 5.32157e-008 2.4608e-008 -3.76695e-008 2.07175e-008 -6.34049e-008 5.62625e-008 3.93483e-008 6.92805e-008 -2.6845e-008 -6.92609e-008 -9.08681e-008 3.37143e-008 -2.37704e-009 -5.41733e-008 1.00184e-008 -2.60304e-008 3.14202e-008 7.35916e-008 8.18405e-008 2.25853e-008 1.75196e-008 -3.92207e-008 -7.87797e-008 -2.03462e-008 -3.58113e-008 9.2652e-009 7.0593e-008 -8.07702e-008 4.80318e-008 -5.74497e-008 5.32864e-008 -8.62665e-008 -1.00295e-010 -3.8267e-008 -7.45277e-008 -2.21785e-008 1.78914e-008 -6.99688e-008 -9.29482e-008 1.09723e-008 1.6623e-008 -8.68447e-008 2.79872e-008 4.58572e-008 4.79549e-008 -4.23498e-008 -5.06538e-008 -4.81077e-008 -8.84303e-008 -5.00291e-009 -7.74586e-008 2.12493e-009 -2.50653e-008 5.24626e-008 6.20577e-008 8.38619e-008 -9.51129e-008 6.53606e-008 -7.16931e-008 6.30298e-008 -3.5993e-008 4.45957e-009 5.41962e-008 5.30764e-008 4.28976e-008 -6.0483e-008 -6.5047e-008 2.5598e-008 6.32254e-009 1.06283e-008 -4.6811e-008 -8.36548e-008 -8.39291e-008 9.07796e-008 -2.02298e-009 7.62928e-008 2.76872e-008 1.84784e-008 -4.19471e-008 3.48829e-008 -9.23641e-008 -3.88855e-008 -4.04035e-008 -3.89882e-008 6.42351e-008 -2.53488e-008 -4.47868e-008 -1.87401e-008 5.00347e-008 -1.9298e-008 -1.35735e-008 -8.42361e-008 -3.76733e-008 7.25281e-008 -5.96872e-008 -7.82327e-008 6.22471e-008 5.87275e-008 6.11115e-008 5.61285e-008 7.0799e-008 -9.03105e-008 -4.59732e-008 8.34568e-008 -4.1059e-008 -8.12631e-008 4.85203e-008 -5.1602e-008 4.90895e-008 -5.28715e-008 -3.81143e-009 -1.62705e-008 1.87135e-008 2.31425e-008 2.09746e-008 -1.49495e-008 -3.76735e-008 -6.43029e-008 2.17174e-008 -3.4237e-008 6.85308e-008 -7.38613e-008 -8.51118e-009 -3.59031e-008 8.28661e-008 -6.22721e-008 -2.72718e-008 7.78776e-008 3.81521e-008 -5.52609e-008 3.94068e-008 1.33999e-008 -5.69082e-008 4.03832e-008 -2.15902e-008 -1.98937e-008 -1.43543e-008 -7.63673e-008 6.28126e-008 -3.88422e-008 7.23254e-008 2.55536e-008 5.8671e-008 9.61299e-008 -4.03835e-009 3.94137e-008 -4.50045e-009 -3.06772e-008 -7.62553e-008 -8.36075e-008 -2.87949e-008 9.41527e-008 4.81048e-008 -4.89919e-008 -3.79205e-009 7.88287e-008 2.72038e-008 7.11171e-008 5.33275e-009 6.68523e-008 3.23626e-010 -7.06166e-008 1.94896e-008 3.42478e-008 -5.06223e-008 7.49576e-008 -5.70935e-008 6.644e-009 -8.60187e-008 -2.60591e-009 7.27692e-008 3.4227e-008 5.77702e-008 4.43175e-008 4.7357e-008 9.1787e-008 1.7966e-008 -8.03355e-008 9.11466e-008 7.39794e-008 -5.72852e-008 7.9787e-008 2.24263e-008 4.14597e-008 -4.87818e-009 4.83262e-008 -9.49566e-009 -8.96886e-009 5.7216e-009 -8.96913e-008 -2.66546e-009 -1.44081e-008 -2.72734e-008 7.66822e-008 8.04879e-008 2.3332e-008 2.09719e-008 -3.28515e-009 -8.68671e-008 -9.08655e-008 4.38497e-008 -8.00516e-008 7.91331e-008 -3.21774e-008 -3.90543e-008 -4.01721e-008 2.40843e-008 8.4309e-008 -3.82312e-009 3.86259e-008 4.08137e-008 -3.7487e-008 -2.11916e-008 8.37785e-008 8.44537e-008 -4.60663e-008 8.13125e-008 8.70236e-008 5.69102e-008 1.7085e-008 -3.03597e-008 -2.26979e-008 2.45626e-008 6.68886e-008 9.46751e-008 -9.46301e-008 -7.03905e-009 -1.26697e-008 5.24034e-008 -4.17318e-008 -6.08111e-008 6.92133e-008 -6.25271e-008 -2.90981e-008 -4.32794e-008 -2.6069e-008 4.38807e-008 6.77795e-008 -9.63071e-008 7.35185e-008 -9.62752e-008 -8.61178e-008 -9.13209e-008 3.06625e-008 7.5848e-009 -7.03944e-008 -4.09638e-008 3.14958e-008 3.24552e-008 -6.11479e-008 6.95433e-008 4.35695e-008 6.33173e-008 -5.92269e-008 3.69263e-008 4.78722e-008 9.05516e-008 9.35007e-008 -8.31703e-008 -3.65155e-008 -7.0874e-008 -6.61107e-008 5.95471e-008 2.82629e-008 -8.31231e-008 -7.67217e-008 -7.49967e-008 7.45418e-008 -5.53802e-008 4.68298e-008 -6.84617e-008 5.67717e-008 5.41756e-008 -9.95021e-010 6.80155e-008 2.12982e-008 5.71994e-008 6.12712e-008 -7.58996e-008 6.47499e-008 6.41474e-008 7.03835e-008 -9.14095e-008 -3.82815e-008 5.99158e-008 4.86495e-008 6.44705e-008 4.54097e-008 1.78913e-008 -5.81175e-008 4.81965e-008 -7.30611e-008 2.57602e-008 -3.1799e-008 4.18207e-008 3.2686e-008 -4.83598e-009 8.77259e-008 1.12276e-008 -8.01555e-008 9.69009e-008 -6.83879e-009 -3.24959e-008 -5.29034e-008 2.00228e-008 -5.67306e-008 -3.17103e-009 -5.09902e-008 -1.6259e-008 -2.94645e-008 -1.71936e-008 8.81462e-008 -8.29253e-009 -3.34599e-008 -5.69326e-009 -5.6713e-008 9.30084e-008 8.88785e-008 -7.13558e-008 -4.50541e-008 -9.04464e-008 1.47941e-008 -1.58046e-008 9.36866e-008 7.63383e-008 -8.99298e-008 -8.328e-008 -1.1695e-008 -9.13329e-008 -6.68439e-008 -1.72187e-008 -1.23445e-008 -3.53654e-008 -1.67165e-008 5.90906e-008 8.04668e-008 3.5048e-008 8.02344e-008 7.84375e-008 -1.89433e-008 -9.07913e-008 1.17782e-008 5.9485e-008 -3.57564e-008 -7.87258e-009 6.92189e-012 4.63349e-008 -2.6306e-008 4.94018e-008 -2.37566e-008 3.1466e-008 9.07722e-008 4.94553e-008 9.09352e-010 -6.66067e-008 -3.75651e-008 6.73192e-008 -7.54474e-008 -4.74218e-008 -3.67433e-008 6.94207e-008 9.24317e-008 6.09948e-008 -6.80153e-008 -1.95976e-008 3.06697e-008 1.12584e-008 -2.24499e-008 9.4612e-008 7.83264e-008 -1.5815e-008 -8.47939e-008 -9.22354e-008 4.79297e-008 9.18647e-008 8.34463e-008 -1.99894e-008 -5.39903e-008 -2.44815e-008 -9.89215e-009 -3.37745e-008 -8.49134e-009 7.47567e-008 -7.43733e-008 -2.68705e-008 8.76585e-008 -6.78806e-008 9.45448e-008 -9.73332e-008 3.34623e-008 5.17545e-008 -6.28069e-009 -9.19971e-008 -1.15127e-009 -6.48636e-008 -3.78605e-008 -8.03469e-008 3.65345e-008 4.61544e-008 4.55448e-008 -1.82496e-008 9.06019e-008 4.59346e-009 -5.27456e-008 -2.02418e-008 -6.93687e-008 6.15103e-008 5.85736e-008 5.56949e-008 -1.0456e-008 -4.99484e-008 -9.35241e-008 -2.53072e-008 -4.36393e-008 -1.49215e-008 -6.73769e-008 4.58593e-008 9.29915e-008 -5.72101e-008 -1.74025e-008 -7.03795e-008 -9.03985e-008 3.55193e-008 -3.09363e-009 -4.42047e-008 2.94919e-008 7.02744e-008 5.13998e-008 -5.36957e-008 8.64093e-008 -8.63494e-008 -1.4282e-008 3.07813e-008 6.53938e-008 -4.84938e-009 9.11345e-008 2.21666e-008 2.72606e-008 6.75365e-008 7.79716e-008 -3.75979e-008 -7.42007e-008 5.77688e-008 8.15344e-008 2.74764e-008 5.98493e-008 1.90313e-008 7.31216e-008 -1.47632e-008 5.25825e-008 6.48169e-008 -2.30938e-008 5.86879e-008 -2.65916e-009 -9.71283e-008 -5.10617e-008 5.52893e-008 7.45782e-008 5.92237e-008 1.71031e-008 4.53212e-008 4.14128e-008 4.17145e-008 -4.25943e-008 7.56754e-008 -4.17381e-008 -4.67476e-008 -5.13709e-008 9.24611e-008 1.07411e-008 -3.70378e-008 -8.85342e-008 -6.07461e-008 -6.55489e-008 -9.04705e-009 9.42205e-008 8.65685e-008 -8.53142e-008 -8.75318e-008 5.04247e-008 4.83383e-008 2.88254e-008 -3.34514e-008 6.12705e-008 -6.29995e-008 -6.31163e-008 5.71399e-008 4.12401e-008 6.27607e-009 3.48926e-008 7.75257e-009 -9.20105e-008 -8.48275e-009 1.77087e-008 -6.88199e-008 2.51258e-009 -2.79786e-008 -3.52899e-008 -8.04137e-008 1.71809e-008 -2.30465e-008 -5.24591e-008 -8.48716e-008 5.8225e-008 1.64319e-009 2.98145e-008 -4.23745e-008 6.77692e-008 4.68356e-008 4.06765e-008 2.66148e-010 -5.5707e-008 -1.0411e-008 7.02588e-009 -6.7586e-008 -3.98872e-008 -2.90728e-008 -3.00066e-008 -3.07084e-008 -4.39471e-008 6.85025e-008 7.55677e-008 -8.32974e-008 2.04384e-008 -8.27973e-008 -5.84391e-008 -3.84012e-008 -3.00209e-009 -7.27295e-008 -4.17106e-008 1.95254e-008 3.11076e-009 -6.09286e-008 -3.278e-008 3.33845e-008 -4.54969e-008 -8.89382e-008 -1.21866e-008 -6.43908e-008 6.92295e-008 1.64457e-008 -7.69398e-008 7.49018e-008 -9.38285e-008 -2.04897e-009 3.75813e-008 -7.58823e-008 -3.15831e-008 7.63152e-008 7.31697e-008 -8.29921e-009 8.44348e-008 1.08512e-008 2.79854e-008 -6.71394e-008 3.62168e-008 -4.80949e-008 -7.70777e-008 -7.91354e-008 2.13497e-008 1.29507e-008 5.62609e-008 -3.41389e-009 1.23426e-008 -9.10303e-008 -6.45765e-008 5.83797e-008 -4.18301e-008 -7.40127e-008 -2.73733e-008 -2.45686e-008 -6.81347e-008 -1.94726e-008 -8.09732e-008 -9.29283e-008 8.39964e-008 -6.25136e-008 -3.36423e-008 -1.44463e-008 -1.04689e-008 -6.27223e-008 -6.57211e-008 -8.57363e-008 -3.50966e-008 -9.85714e-009 8.30957e-009 -3.15911e-008 2.20066e-008 8.38155e-008 7.93306e-008 -6.22274e-008 9.15447e-008 -8.59759e-008 -3.10673e-008 5.58616e-008 -1.56533e-010 -7.98231e-008 7.45172e-008 9.15483e-008 -3.2287e-008 5.73864e-008 2.90404e-008 3.83349e-008 -7.6564e-008 4.43283e-008 -5.10881e-008 -9.47595e-009 -4.70849e-008 5.91254e-008 -6.23932e-008 5.47349e-008 -7.17194e-008 -3.77619e-008 2.57695e-008 9.33606e-008 5.16999e-008 -5.89996e-008 3.16038e-008 1.79701e-008 -4.95015e-008 -7.83448e-008 5.43251e-008 4.52383e-008 -9.08684e-009 7.85144e-008 -5.68952e-008 4.76999e-008 -9.46825e-008 2.21992e-008 -6.75249e-008 -2.37121e-008 -9.45157e-008 -6.76874e-009 -9.16665e-008 -2.57988e-008 -9.73678e-008 -7.53886e-008 3.33748e-008 -8.47248e-008 -6.76808e-008 4.29909e-008 -9.4887e-008 5.9073e-008 8.90129e-008 4.52441e-008 9.66511e-008 1.52835e-008 3.64535e-008 -6.9856e-008 5.75525e-008 6.38841e-008 6.59521e-008 -5.75783e-008 -4.44346e-008 -2.81555e-008 5.14837e-008 -1.48157e-009 -3.90202e-008 6.7051e-008 -4.6908e-008 -5.04643e-008 -7.32885e-008 7.05749e-008 -6.55464e-008 -2.85776e-008 2.4781e-009 -1.2853e-008 -9.12637e-008 9.06164e-008 1.74883e-008 -9.40371e-008 4.60467e-008 8.44016e-008 -9.10039e-008 6.50216e-008 -9.28894e-008 -2.13806e-008 7.81492e-009 2.33969e-008 -3.40775e-008 -9.31996e-008 -4.75502e-008 6.3571e-008 4.89301e-008 1.05285e-008 -7.44057e-008 1.03259e-008 -6.92743e-008 -1.83363e-008 7.67114e-008 -2.65168e-008 -4.68528e-008 8.4469e-008 -7.05763e-008 8.19967e-008 -3.78959e-009 5.04364e-008 -4.18917e-008 7.10671e-008 6.18949e-010 -4.20059e-008 -1.90274e-008 -5.6465e-008 -1.05346e-008 9.24789e-008 -8.12265e-008 8.17085e-008 4.80457e-008 8.09342e-008 -3.93777e-008 7.51573e-008 3.37243e-008 7.61219e-008 -7.8253e-008 -9.50752e-008 6.64926e-008 7.89659e-008 -6.88176e-008 3.45221e-008 -9.05913e-008 -8.80096e-008 -6.55615e-008 -7.38907e-008 -8.48138e-009 9.45183e-008 2.14074e-008 8.37348e-008 9.3807e-008 8.87327e-009 2.71012e-008 -2.52317e-008 7.13836e-008 -2.86639e-008 4.21847e-008 -6.58366e-008 -7.11354e-008 8.94534e-008 -7.66366e-008 -5.57685e-009 -1.90864e-008 7.61402e-008 -1.86306e-008 9.56617e-008 5.91719e-008 4.75985e-008 -8.77498e-008 -8.86476e-008 5.68753e-008 1.0168e-008 -2.79058e-008 4.48636e-009 -7.14876e-009 -5.69395e-008 6.14323e-008 1.54472e-008 -6.48635e-009 5.57562e-008 -5.58563e-008 -1.44298e-008 -1.26825e-008 -6.09738e-008 -5.4388e-008 4.88372e-006 -4.7634e-006 1.20135e-005 -1.17447e-006 -1.19568e-005 -5.3629e-005 2.34633e-006 -5.7319e-006 3.22336e-006 4.84159e-005 4.89627e-007 -3.34253e-006 1.35571e-005 4.34773e-007 -1.65657e-005 -6.95115e-006 4.58027e-005 3.57117e-005 6.74607e-006 4.25636e-006 8.1386e-006 -6.86723e-006 4.61249e-006 5.86668e-005 3.17234e-005 -6.99248e-006 -7.57657e-007 1.03603e-005 -5.48456e-007 2.59373e-005 6.83166e-006 7.8727e-006 -5.99369e-007 2.25852e-005 -6.65301e-006 5.01135e-005 -2.85974e-006 8.5436e-005 2.07339e-005 -7.20508e-007 3.53497e-006 -9.92511e-006 1.26108e-005 3.02262e-006 3.32461e-005 -4.63979e-007 1.31045e-006 2.39679e-005 4.01389e-005 1.48715e-006 2.39587e-006 -9.67206e-007 -2.82726e-006 1.3593e-005 -9.65669e-006 5.24269e-005 1.94116e-006 0.000101606 2.14382e-005 1.53207e-005 6.27149e-005 2.29084e-005 0.000114892 1.12163e-005 -3.08335e-005 4.0444e-006 1.39824e-005 -8.19841e-006 7.75526e-007 2.02559e-008 -2.60741e-005 -2.53593e-006 -1.32064e-005 3.00723e-005 -3.1528e-007 2.45215e-006 -3.61012e-005 -9.78764e-009 6.64909e-006 -2.04159e-007 2.5996e-006 1.07357e-006 -1.22466e-006 -7.32088e-005 -4.022e-006 -1.87133e-005 -5.57233e-006 -2.49591e-005 -1.52089e-008 -4.48087e-006 -3.11942e-006 4.92397e-005 4.18643e-006 1.15055e-005 0.000101911 -1.05012e-005 -5.61252e-006 4.97076e-005 1.97449e-005 -7.32142e-006 3.8514e-005 2.69468e-005 0.000166162 4.18221e-005 6.50309e-006 5.53594e-006 -4.49762e-006 8.09592e-007 -1.41858e-006 -1.63261e-007 5.43559e-006 -8.52021e-005 -4.79261e-005 -9.90802e-006 7.93393e-006 1.04858e-005 6.86494e-007 2.57703e-008 7.96812e-005 7.31845e-007 -1.56661e-005 4.17396e-006 2.54463e-006 8.11903e-005 -1.32084e-006 -2.18126e-005 -1.40487e-005 -2.65983e-005 2.34671e-005 3.38626e-007 -2.16249e-006 -3.70012e-008 4.05334e-005 1.51008e-006 1.29461e-006 3.58354e-006 5.2403e-005 7.08034e-006 -1.79106e-005 -2.51711e-005 1.13381e-005 2.60956e-005 2.07265e-005 -2.77764e-005 -5.67658e-005 8.6448e-006 -7.1342e-005 3.30284e-005 -6.47927e-005 4.12685e-005 6.6254e-005 4.91922e-006 4.8571e-007 3.78945e-006 -2.48033e-007 -1.44172e-005 -2.19188e-005 9.91334e-006 1.89869e-007 1.98295e-007 -8.77291e-007 -5.06051e-006 -7.21306e-006 -5.06801e-006 9.99109e-006 -1.37203e-006 4.01604e-007 1.87914e-005 6.39543e-006 1.95036e-005 2.08962e-007 2.60378e-006 -1.11412e-005 8.12453e-005 3.45707e-005 3.94149e-005 -2.5501e-005 3.73059e-006 -4.44475e-005 1.16913e-006 3.31591e-006 1.12276e-005 1.20122e-006 3.4462e-005 -1.54507e-006 1.56257e-005 1.81275e-005 9.20464e-006 2.22415e-006 -2.12843e-006 4.06606e-007 8.83805e-007 5.37694e-005 2.18637e-005 -6.71158e-006 2.11846e-005 5.91877e-006 -3.33229e-006 2.96335e-005 -1.41377e-005 -2.4586e-008 8.06071e-008 5.59879e-008 -6.0178e-010 4.74176e-008 7.52677e-008 -8.46022e-008 -8.11764e-008 -5.84353e-008 -3.7497e-008 -8.71084e-009 6.68492e-008 5.66062e-008 3.30227e-008 3.38089e-008 -6.53688e-008 -5.56373e-008 -6.19758e-008 6.19868e-008 -5.70757e-009 -4.39264e-008 -9.61298e-008 -3.98401e-008 -8.71938e-008 -9.44683e-008 3.11532e-008 -1.597e-008 6.8836e-008 -9.0681e-008 -8.81219e-008 -8.19027e-008 -7.31083e-008 -3.78129e-008 1.3619e-008 -3.84857e-008 -4.87614e-009 -2.7816e-008 -6.70591e-008 9.58859e-008 -1.164e-008 -2.46488e-008 1.30854e-008 6.29684e-008 7.887e-008 -6.14098e-008 9.11652e-008 -3.81413e-008 -6.07481e-008 -9.40017e-008 -2.55633e-008 -2.27287e-008 1.64964e-008 9.59905e-008 -4.23589e-008 9.08416e-008 9.50083e-008 4.41855e-008 4.80447e-008 -6.22165e-008 -4.44803e-008 -5.23447e-008 -3.7946e-008 7.76838e-008 1.89918e-008 -7.16903e-008 -5.21492e-008 2.01395e-008 -1.0217e-009 -8.74135e-008 6.6302e-008 5.94251e-009 1.24318e-008 -3.8997e-008 2.40499e-008 -4.28249e-008 9.57852e-008 -7.93976e-009 6.1485e-008 -8.38545e-008 3.53042e-008 -5.53226e-008 -4.36317e-008 9.49011e-008 -8.0968e-008 9.52101e-008 7.24246e-008 -1.91145e-008 3.77283e-008 8.01491e-009 -8.58948e-008 -1.57509e-008 -6.60107e-008 1.67816e-008 -9.29787e-008 -8.79157e-008 6.56397e-008 -9.36813e-008 9.71934e-008 9.66363e-008 -4.4778e-008 7.56198e-008 -7.68898e-008 9.30826e-008 6.72346e-009 2.62343e-008 8.80052e-009 -9.19538e-008 -6.22296e-008 2.87598e-008 -3.64682e-008 4.68897e-009 -8.24555e-008 8.70077e-008 -6.74693e-008 7.65224e-009 3.4573e-008 -9.55484e-008 -2.65609e-008 -8.06941e-008 6.15144e-008 5.41526e-008 3.39381e-010 -6.84009e-009 3.8732e-008 8.36209e-008 3.68314e-008 7.40884e-009 -6.62613e-009 5.38429e-008 3.81229e-008 -2.43013e-008 7.30893e-008 -7.54641e-008 2.10318e-008 8.04229e-008 -9.20245e-008 9.18547e-009 8.35941e-008 8.85469e-008 3.85795e-008 3.88876e-008 -6.64157e-008 8.91819e-008 -3.10552e-008 -7.19175e-008 6.11549e-008 5.71649e-008 8.22557e-008 -3.02304e-008 2.90091e-008 -4.2515e-008 5.13138e-008 -8.31453e-008 -4.98249e-008 1.86473e-008 1.87691e-008 -2.40786e-008 -1.6344e-008 -4.86643e-008 -6.56757e-008 -8.76386e-008 7.17516e-008 -7.48989e-008 -5.8037e-008 4.59692e-008 5.68512e-008 2.19079e-008 7.38324e-008 1.54428e-008 2.25295e-008 -5.31712e-008 9.16307e-008 7.62777e-008 -2.02377e-008 6.90448e-008 4.46784e-008 -8.6573e-009 3.42586e-008 5.04276e-008 -4.85646e-009 3.18137e-008 8.23735e-009 -5.24198e-008 3.38409e-008 -5.18204e-008 -5.09764e-008 -6.00554e-008 -5.03442e-009 7.54724e-008 6.85919e-008 -1.44975e-008 3.51614e-008 -3.15723e-008 5.94504e-008 -1.27637e-008 6.21565e-008 1.19103e-008 1.70582e-008 -6.61407e-008 3.86415e-008 6.31588e-008 -3.86965e-008 -1.51329e-008 8.13241e-009 -3.76688e-008 -7.2675e-008 -6.86339e-009 -1.54013e-008 -5.74211e-008 -4.82946e-008 -7.01906e-008 -7.48898e-008 5.75111e-008 5.3678e-008 -1.7168e-008 5.10858e-008 3.12561e-008 -2.6901e-008 4.72724e-008 -4.99308e-008 1.36846e-008 -3.99796e-008 -7.60594e-009 8.73101e-008 1.65156e-008 -1.51966e-008 -5.05101e-008 9.5849e-008 -1.28801e-008 6.14924e-008 -5.08651e-008 7.84473e-008 -2.03318e-008 -5.7231e-008 1.22851e-008 6.97017e-008 9.0319e-008 -4.23566e-008 -1.97773e-008 7.76548e-008 -9.14534e-009 -9.46989e-008 9.56716e-008 -7.55146e-008 -9.34528e-008 7.45135e-008 4.62367e-008 -3.3514e-008 4.05635e-008 -3.02238e-008 -5.35033e-008 2.56208e-008 8.61734e-008 -3.83596e-008 -4.85328e-009 -6.05411e-008 1.36198e-008 1.00198e-008 4.57276e-008 8.28383e-008 -3.50179e-008 -9.21105e-008 -6.07708e-008 1.83182e-008 3.59277e-009 1.49818e-008 -3.33334e-008 -1.51472e-008 4.87219e-008 8.56683e-008 7.22533e-008 9.29626e-008 -8.3211e-008 -9.29352e-008 -8.31761e-008 6.84398e-009 2.5926e-008 6.43652e-008 3.07335e-009 -1.60682e-008 -6.82004e-008 1.599e-008 -8.55945e-008 5.35395e-008 -4.02717e-008 -7.0165e-008 -6.81668e-008 -2.47397e-008 7.96196e-008 6.53375e-008 -1.63164e-008 -8.5193e-008 8.47815e-008 3.19549e-008 8.13104e-008 -2.26372e-008 5.3596e-009 1.48176e-008 -2.88114e-008 6.76998e-008 9.63543e-008 5.92913e-008 -7.95817e-008 -7.00143e-008 -3.83644e-008 -5.56714e-008 8.98921e-009 5.97109e-008 -5.61222e-008 8.0179e-009 3.59424e-009 -1.01066e-008 7.05607e-008 -9.41668e-008 6.0664e-008 -5.50682e-008 1.56431e-008 3.64678e-008 -6.42311e-008 -5.18399e-008 5.42478e-008 -6.95989e-008 7.37857e-008 -5.55779e-008 -4.9964e-008 6.31553e-008 3.98526e-009 2.4708e-008 5.26779e-008 2.77544e-008 6.34358e-008 8.18188e-008 -7.53106e-008 -6.11962e-009 -8.88263e-008 -1.99179e-008 3.86345e-008 5.24801e-009 6.46899e-008 8.4531e-008 7.45233e-008 9.11696e-009 9.5306e-008 7.47017e-008 9.56581e-008 -7.31399e-009 -6.50961e-008 7.20554e-008 1.21102e-008 4.34499e-008 1.54536e-008 5.46924e-008 -9.40519e-008 -6.55727e-008 8.5858e-008 -4.83875e-009 -3.77572e-008 -6.04828e-008 -2.57638e-008 7.25981e-008 1.09176e-008 5.7335e-010 -8.17328e-008 -1.23978e-008 -8.84001e-008 -1.33075e-008 -1.09839e-008 8.19421e-008 -3.54815e-008 -2.87798e-008 -7.9805e-008 -4.88405e-008 1.66993e-009 -8.60143e-008 -1.86864e-008 2.7438e-008 7.81393e-008 -7.28053e-008 -8.88829e-008 -3.01693e-008 -1.44765e-008 7.83952e-008 -2.2774e-008 -9.20944e-008 -1.9701e-008 5.41269e-008 -8.74339e-008 3.77073e-008 8.29156e-008 -9.6769e-008 -1.12126e-008 -1.92193e-008 8.76001e-008 -5.88556e-008 5.39397e-009 -9.2831e-008 -2.9798e-008 5.58635e-008 -6.89628e-008 -9.05387e-008 -3.36526e-009 -4.01822e-008 7.78368e-010 6.8088e-008 -8.61323e-008 7.55047e-008 8.06214e-008 -2.33019e-008 7.69382e-008 7.70757e-008 -3.78283e-008 1.71303e-008 -8.21344e-008 4.07097e-008 -8.65878e-008 -7.75141e-008 -7.76604e-008 5.09977e-008 3.11936e-008 1.16583e-008 7.74532e-008 -4.60427e-008 -8.86936e-008 3.46183e-008 -3.69438e-008 -1.95209e-008 7.92571e-008 -7.24969e-008 1.12809e-009 2.744e-008 -4.71235e-008 -4.02645e-008 -2.77457e-008 -9.10022e-008 -2.30631e-008 -3.64212e-008 -1.56803e-008 8.7437e-008 -6.83589e-008 -2.4202e-008 8.95852e-008 5.16874e-008 2.2426e-009 3.62349e-008 8.35443e-008 -6.02995e-009 -7.13132e-008 -8.23241e-008 1.36425e-009 -3.31611e-008 -9.40363e-008 4.79927e-008 -2.18855e-008 6.81377e-008 3.44733e-008 -7.50808e-008 -2.16152e-008 -8.36092e-008 1.14408e-008 5.41493e-009 -5.75385e-008 -3.79027e-008 5.28436e-008 -9.2299e-008 -8.25279e-009 7.31403e-008 2.95064e-009 1.89982e-008 -6.25662e-008 3.1103e-008 -5.08725e-008 5.62568e-008 2.84772e-008 1.35705e-008 -2.15469e-008 -6.55236e-008 -5.85893e-008 5.97123e-008 3.40858e-008 2.1252e-008 -7.6013e-008 8.7533e-008 1.35617e-008 -3.6249e-008 6.06511e-008 7.28222e-008 -3.32875e-008 2.95899e-008 5.46716e-008 -9.37128e-008 5.63882e-008 -6.31914e-008 -9.54456e-008 7.86669e-008 -8.80239e-008 3.3324e-008 -2.37151e-008 6.75195e-008 -9.21755e-008 -9.59072e-008 -1.7518e-008 1.58167e-008 -8.05612e-008 6.64332e-008 4.20422e-008 6.73263e-008 -9.67179e-008 5.67815e-008 1.48605e-008 5.89434e-010 4.81944e-008 -2.26677e-008 -4.32928e-008 5.36927e-008 -8.15895e-008 -9.2769e-008 8.66509e-008 -4.78199e-008 -3.35527e-008 3.7512e-008 -3.56615e-008 5.70038e-008 -2.40627e-008 -3.03608e-008 9.04991e-008 -7.68585e-008 7.60261e-008 7.89453e-008 1.59031e-008 2.79142e-008 6.14137e-008 -7.9124e-008 -2.15505e-008 5.33714e-009 -2.96022e-008 -5.37164e-008 -1.49028e-008 4.04692e-008 -9.40761e-008 -5.4729e-008 -1.80185e-008 4.94349e-008 5.68544e-008 7.32344e-008 3.24295e-008 -5.51402e-009 -1.21749e-008 5.03974e-008 1.21212e-008 4.52092e-008 5.01091e-008 -7.19018e-008 -9.06103e-009 -3.14505e-008 -1.1985e-008 2.42302e-009 7.6461e-008 6.11212e-008 -1.65647e-008 -1.83464e-008 9.41913e-008 7.81138e-008 -1.82702e-008 -7.92378e-008 1.63898e-008 -1.89475e-008 -7.08461e-008 1.83627e-008 6.63174e-008 4.25372e-008 -3.67798e-008 3.16896e-008 -9.54699e-008 3.31659e-008 -8.67575e-008 1.72024e-008 -2.60385e-008 -6.30141e-008 -4.84821e-008 6.6603e-008 3.91046e-008 -7.99809e-008 -3.97512e-009 8.27077e-008 6.46107e-008 1.31351e-008 1.77489e-008 -8.8153e-008 4.57888e-009 4.49087e-008 -1.41007e-008 3.24497e-008 -1.05212e-008 -1.22717e-008 6.21197e-008 -9.24398e-008 5.77987e-008 7.06553e-008 -8.85291e-008 -1.87556e-009 -3.48934e-008 -9.57394e-008 4.45011e-008 -6.61529e-008 6.41618e-008 1.24632e-008 5.9629e-009 -4.41054e-008 2.22139e-008 -4.51161e-008 1.275e-008 -8.79107e-008 7.64936e-008 -6.50069e-008 -9.4057e-009 -1.72405e-008 -1.10298e-010 -6.34357e-008 2.29887e-008 -8.89551e-008 7.85665e-008 -2.07843e-009 5.66475e-008 -1.74068e-008 -9.05344e-008 2.33966e-009 -1.11407e-008 9.30602e-009 4.8314e-008 5.39164e-009 2.14271e-008 -3.34732e-008 -9.18803e-008 -7.28291e-008 -3.2938e-008 9.37017e-008 9.77537e-009 1.09478e-008 -9.05052e-008 5.62466e-008 -1.11629e-008 -8.99741e-008 7.11753e-008 -1.86066e-009 8.29502e-008 -9.10353e-008 -4.16624e-008 -7.37896e-008 1.60843e-008 8.72969e-008 2.08435e-008 -3.21899e-008 6.75104e-008 -6.31414e-008 -4.15416e-008 2.32983e-008 -7.35194e-008 3.14772e-009 1.47627e-008 4.20823e-008 -9.31973e-008 7.01362e-008 -1.58915e-008 -5.06374e-008 -9.5587e-008 -1.01374e-008 7.92632e-008 3.20077e-008 -9.5786e-008 5.18498e-009 4.69619e-008 6.82135e-008 7.53156e-008 9.36741e-008 4.28004e-008 -1.65902e-008 3.80159e-008 -3.48323e-008 2.37077e-009 -6.97639e-008 -2.55587e-008 -3.21843e-008 9.0576e-008 -4.01418e-008 6.66017e-008 -3.8127e-008 9.03318e-009 7.70766e-008 -3.98141e-008 -2.1635e-008 -1.5486e-008 -4.02116e-008 3.83714e-008 -2.35396e-008 8.28855e-008 -4.81009e-008 -3.08534e-008 -4.43271e-008 -3.00751e-009 -4.92898e-008 5.86623e-008 5.88688e-008 -5.85213e-008 -1.2692e-008 3.33215e-008 2.33286e-008 -6.06004e-008 -4.96395e-008 -3.81557e-008 -3.61863e-008 8.92551e-008 6.85571e-008 -9.02134e-008 -3.12593e-008 -2.05526e-008 8.44608e-008 6.51289e-008 -8.30855e-009 -1.94104e-008 2.79738e-008 2.5569e-008 -7.59291e-008 -7.93452e-008 7.35085e-008 -7.44673e-008 -2.73324e-008 3.5631e-008 -6.89626e-008 -7.91351e-008 -7.78788e-008 -2.827e-008 4.78892e-008 -1.58654e-008 -4.02999e-008 3.57778e-008 1.00635e-008 2.49335e-008 -5.66347e-008 -5.22206e-008 5.68916e-008 1.9509e-008 -4.43846e-009 -4.62932e-008 -1.66774e-008 -7.76979e-008 5.66837e-008 -4.88134e-009 -7.58815e-009 8.10861e-008 8.07037e-008 1.92036e-009 3.67834e-008 -8.96891e-008 6.85769e-008 6.06241e-008 -2.16497e-009 5.27636e-008 -9.60762e-008 4.47983e-008 8.1052e-008 2.67834e-008 2.7921e-008 7.59062e-008 9.25859e-008 7.67029e-008 -7.07656e-008 1.46375e-008 -8.20108e-008 -2.8208e-008 -3.71633e-008 5.58912e-008 1.98104e-008 4.8877e-008 1.9703e-008 -6.4069e-008 6.93621e-008 2.36087e-008 -2.10975e-008 -5.01277e-008 4.39794e-008 -7.08807e-008 3.84395e-008 6.527e-009 9.87096e-010 4.7134e-008 7.01634e-008 -9.55029e-008 -2.97083e-008 -2.33089e-008 5.14235e-008 5.82047e-008 6.51311e-008 -7.8722e-008 -8.42838e-008 -8.32437e-008 1.67901e-009 1.2665e-008 3.54773e-008 -1.26388e-008 5.91857e-008 7.9987e-010 5.83887e-008 3.08519e-008 -1.05748e-008 7.50387e-008 9.55034e-008 2.29536e-008 -9.06257e-009 -3.59307e-008 -8.84433e-008 9.03693e-008 -4.08321e-008 -9.0761e-008 -2.67065e-008 9.03545e-009 -3.94749e-008 5.29653e-008 5.44627e-008 -4.017e-008 -8.31785e-008 3.29867e-008 -7.47773e-008 7.55916e-008 9.78624e-009 7.78226e-008 1.8899e-008 -1.21876e-008 -2.00938e-008 -1.42499e-008 -9.32336e-008 -7.67026e-008 -6.35622e-008 -6.6617e-008 -1.89564e-009 -8.86385e-008 7.76777e-008 -1.41178e-008 -8.32411e-008 -7.25755e-008 -8.66368e-008 5.57791e-008 6.73268e-008 1.45071e-009 -7.49464e-008 -6.78127e-008 -3.60358e-011 -4.59691e-008 4.37383e-008 3.06485e-008 3.06427e-008 -9.49081e-008 5.08873e-008 -8.13195e-008 -6.42904e-008 7.00207e-009 -1.36758e-009 7.56301e-008 1.41952e-008 -2.20239e-008 -2.13652e-008 -9.47495e-008 3.55205e-008 -4.67786e-008 9.74117e-008 -6.22477e-008 -7.65129e-008 1.70555e-008 1.052e-008 6.38354e-008 1.67298e-008 3.77068e-008 5.05624e-008 1.52308e-008 -8.14481e-008 -2.84531e-009 1.84548e-008 -7.64216e-009 -5.89238e-008 -1.54757e-008 -1.88082e-009 5.46404e-008 -2.7287e-008 -8.94842e-008 -2.86274e-009 -6.23886e-008 8.42826e-008 1.49088e-008 9.06586e-008 -2.41353e-008 -8.29022e-008 -1.4964e-008 4.71997e-008 3.42247e-008 -9.60979e-008 7.10778e-008 -4.6089e-008 -9.0749e-008 -1.66271e-008 -8.24248e-008 -1.61722e-008 -5.73179e-008 -2.22018e-008 4.14005e-008 6.62013e-008 8.24671e-009 2.32948e-008 2.42502e-008 8.06639e-008 -7.56141e-008 -3.95412e-008 9.42662e-008 5.31618e-008 -4.48055e-008 8.62308e-008 -7.98641e-008 -9.37196e-008 -9.67802e-008 -8.96989e-008 8.87352e-008 1.06915e-008 6.24382e-008 -6.19429e-008 4.77865e-008 6.919e-008 -6.38002e-008 8.0926e-008 -5.74579e-008 -1.81374e-008 -5.84988e-008 5.08543e-008 -8.33738e-008 -6.23881e-008 